/* Generated by Edge Impulse
 *
 * Permission is hereby granted, free of charge, to any person obtaining a copy
 * of this software and associated documentation files (the "Software"), to deal
 * in the Software without restriction, including without limitation the rights
 * to use, copy, modify, merge, publish, distribute, sublicense, and/or sell
 * copies of the Software, and to permit persons to whom the Software is
 * furnished to do so, subject to the following conditions:
 *
 * The above copyright notice and this permission notice shall be included in
 * all copies or substantial portions of the Software.
 *
 * THE SOFTWARE IS PROVIDED "AS IS", WITHOUT WARRANTY OF ANY KIND, EXPRESS OR
 * IMPLIED, INCLUDING BUT NOT LIMITED TO THE WARRANTIES OF MERCHANTABILITY,
 * FITNESS FOR A PARTICULAR PURPOSE AND NONINFRINGEMENT. IN NO EVENT SHALL THE
 * AUTHORS OR COPYRIGHT HOLDERS BE LIABLE FOR ANY CLAIM, DAMAGES OR OTHER
 * LIABILITY, WHETHER IN AN ACTION OF CONTRACT, TORT OR OTHERWISE, ARISING FROM,
 * OUT OF OR IN CONNECTION WITH THE SOFTWARE OR THE USE OR OTHER DEALINGS IN THE
 * SOFTWARE.
 */
// Generated on: 07.04.2024 10:59:28

#include <stdio.h>
#include <stdlib.h>
#include "edge-impulse-sdk/tensorflow/lite/c/builtin_op_data.h"
#include "edge-impulse-sdk/tensorflow/lite/c/common.h"
#include "edge-impulse-sdk/tensorflow/lite/micro/micro_mutable_op_resolver.h"
#include "edge-impulse-sdk/porting/ei_classifier_porting.h"

#if EI_CLASSIFIER_PRINT_STATE
#if defined(__cplusplus) && EI_C_LINKAGE == 1
extern "C" {
    extern void ei_printf(const char *format, ...);
}
#else
extern void ei_printf(const char *format, ...);
#endif
#endif

#if defined __GNUC__
#define ALIGN(X) __attribute__((aligned(X)))
#elif defined _MSC_VER
#define ALIGN(X) __declspec(align(X))
#elif defined __TASKING__
#define ALIGN(X) __align(X)
#elif defined __ICCARM__
#define ALIGN(x) __attribute__((aligned(x)))
#endif

#ifndef EI_MAX_SCRATCH_BUFFER_COUNT
#ifndef CONFIG_IDF_TARGET_ESP32S3
#define EI_MAX_SCRATCH_BUFFER_COUNT 14
#else
#define EI_MAX_SCRATCH_BUFFER_COUNT 28
#endif // CONFIG_IDF_TARGET_ESP32S3
#endif // EI_MAX_SCRATCH_BUFFER_COUNT

#ifndef EI_MAX_OVERFLOW_BUFFER_COUNT
#define EI_MAX_OVERFLOW_BUFFER_COUNT 10
#endif // EI_MAX_OVERFLOW_BUFFER_COUNT

using namespace tflite;
using namespace tflite::ops;
using namespace tflite::ops::micro;

namespace {

#if defined(EI_CLASSIFIER_ALLOCATION_STATIC_HIMAX) || defined(EI_CLASSIFIER_ALLOCATION_STATIC_HIMAX_GNU)
constexpr int kTensorArenaSize = 1410784;
#else
constexpr int kTensorArenaSize = 1409760;
#endif

#if defined(EI_CLASSIFIER_ALLOCATION_STATIC)
uint8_t tensor_arena[kTensorArenaSize] ALIGN(16);
#elif defined(EI_CLASSIFIER_ALLOCATION_STATIC_HIMAX)
#pragma Bss(".tensor_arena")
uint8_t tensor_arena[kTensorArenaSize] ALIGN(16);
#pragma Bss()
#elif defined(EI_CLASSIFIER_ALLOCATION_STATIC_HIMAX_GNU)
uint8_t tensor_arena[kTensorArenaSize] ALIGN(16) __attribute__((section(".tensor_arena")));
#else
#define EI_CLASSIFIER_ALLOCATION_HEAP 1
uint8_t* tensor_arena = NULL;
#endif

static uint8_t* tensor_boundary;
static uint8_t* current_location;

template <int SZ, class T> struct TfArray {
  int sz; T elem[SZ];
};

enum used_operators_e {
  OP_CONV_2D, OP_DEPTHWISE_CONV_2D, OP_PAD, OP_ADD, OP_SOFTMAX,  OP_LAST
};

struct TensorInfo_t { // subset of TfLiteTensor used for initialization from constant memory
  TfLiteAllocationType allocation_type;
  TfLiteType type;
  void* data;
  TfLiteIntArray* dims;
  size_t bytes;
  TfLiteQuantization quantization;
};

typedef struct {
  TfLiteTensor tensor;
  int16_t index;
} TfLiteTensorWithIndex;

typedef struct {
  TfLiteEvalTensor tensor;
  int16_t index;
} TfLiteEvalTensorWithIndex;

TfLiteContext ctx{};
static const int MAX_TFL_TENSOR_COUNT = 4;
static TfLiteTensorWithIndex tflTensors[MAX_TFL_TENSOR_COUNT];
static const int MAX_TFL_EVAL_COUNT = 4;
static TfLiteEvalTensorWithIndex tflEvalTensors[MAX_TFL_EVAL_COUNT];
TfLiteRegistration registrations[OP_LAST];

namespace g0 {
const TfArray<4, int> tensor_dimension0 = { 4, { 1,240,240,3 } };
const TfArray<1, float> quant0_scale = { 1, { 0.0039215688593685627, } };
const TfArray<1, int> quant0_zero = { 1, { -128 } };
const TfLiteAffineQuantization quant0 = { (TfLiteFloatArray*)&quant0_scale, (TfLiteIntArray*)&quant0_zero, 0 };
const ALIGN(16) int32_t tensor_data1[4*2] = { 
  0, 0, 
  0, 1, 
  0, 1, 
  0, 0, 
};
const TfArray<2, int> tensor_dimension1 = { 2, { 4,2 } };
const ALIGN(16) int32_t tensor_data2[4] = { 18206, -32614, -27286, -23294, };
const TfArray<1, int> tensor_dimension2 = { 1, { 4 } };
const TfArray<4, float> quant2_scale = { 4, { 0.00032737656147219241, 0.00021755803027190268, 0.00026100629474967718, 0.00029667324270121753, } };
const TfArray<4, int> quant2_zero = { 4, { 0,0,0,0 } };
const TfLiteAffineQuantization quant2 = { (TfLiteFloatArray*)&quant2_scale, (TfLiteIntArray*)&quant2_zero, 0 };
const ALIGN(16) int8_t tensor_data3[4*1*1*32] = { 
  /* [0][0][][] */ 7,-36,-65,-30,127,-37,-6,-36,86,-26,52,72,-61,-31,28,0,5,-91,-77,-22,-11,36,-40,75,15,8,-9,13,74,-44,32,8, 
  /* [1][0][][] */ 57,78,-95,-12,-55,44,127,43,-57,-74,-102,37,98,-54,105,-123,125,-94,16,-59,13,-90,-105,-15,-10,-89,65,-64,-82,-117,-17,-26, 
  /* [2][0][][] */ -29,103,13,74,-48,-10,84,32,-77,-99,77,-54,-82,70,-127,61,46,82,80,-88,-22,9,-30,-22,28,-35,81,-85,-40,18,63,57, 
  /* [3][0][][] */ 72,-65,66,12,-26,92,35,-9,0,-86,31,82,66,-3,-127,-15,87,-63,84,13,-95,1,-33,-17,70,-6,-76,72,-98,90,27,47, 
};
const TfArray<4, int> tensor_dimension3 = { 4, { 4,1,1,32 } };
const TfArray<4, float> quant3_scale = { 4, { 0.0045270770788192749, 0.003008468309417367, 0.003609286155551672, 0.0041025010868906975, } };
const TfArray<4, int> quant3_zero = { 4, { 0,0,0,0 } };
const TfLiteAffineQuantization quant3 = { (TfLiteFloatArray*)&quant3_scale, (TfLiteIntArray*)&quant3_zero, 0 };
const ALIGN(16) int32_t tensor_data4[32] = { -41, -96, -29, -210, 716, -62, -182, -222, 460, 434, 229, -123, -27, -661, 1393, -339, -183, -14, -245, 243, 21, 691, 1175, 61, -396, -276, -258, -132, 1795, 96, -216, -324, };
const TfArray<1, int> tensor_dimension4 = { 1, { 32 } };
const TfArray<32, float> quant4_scale = { 32, { 4.0831175283528864e-05, 5.0661517889238894e-05, 4.5007775042904541e-05, 4.2593073885655031e-05, 5.1696802984224632e-05, 4.148013613303192e-05, 4.0285445720655844e-05, 4.6324428694788367e-05, 4.4375738070812076e-05, 4.9371636123396456e-05, 4.345099296187982e-05, 3.7934518331894651e-05, 5.2075611165491864e-05, 4.1708044591359794e-05, 5.1548518968047574e-05, 4.255452222423628e-05, 4.3809079215861857e-05, 4.8252772103296593e-05, 4.1038398194359615e-05, 4.0568407712271437e-05, 4.5272849092725664e-05, 4.9291618779534474e-05, 4.5369295548880473e-05, 4.5212262193672359e-05, 4.2304465750930831e-05, 4.1436847823206335e-05, 5.0866878154920414e-05, 4.6291061153169721e-05, 5.9992362366756424e-05, 4.5306875108508393e-05, 4.1879593482008204e-05, 4.0408398490399122e-05, } };
const TfArray<32, int> quant4_zero = { 32, { 0,0,0,0,0,0,0,0,0,0,0,0,0,0,0,0,0,0,0,0,0,0,0,0,0,0,0,0,0,0,0,0 } };
const TfLiteAffineQuantization quant4 = { (TfLiteFloatArray*)&quant4_scale, (TfLiteIntArray*)&quant4_zero, 0 };
const ALIGN(16) int8_t tensor_data5[32*1*1*96] = { 
  /* [0][0][][] */ -24,-72,110,21,106,-28,-93,-87,71,-89,-116,-6,75,23,-44,51,-65,-49,-70,-83,-69,-108,3,119,-125,20,77,-56,111,-30,-15,-84,105,-81,-74,45,-127,-93,-75,31,74,-97,-118,111,40,-112,109,-22,25,-82,-10,104,-77,-75,-106,123,16,74,107,-118,-60,77,-54,39,-14,13,76,103,38,90,96,-123,113,-109,39,89,-127,13,-64,9,52,32,114,3,-68,-49,-86,107,34,121,-33,-86,15,48,35,15, 
  /* [1][0][][] */ -80,30,-69,-9,-59,68,31,9,68,-110,-89,81,34,-24,21,61,97,-26,38,127,-35,-7,27,19,23,24,-38,87,27,30,86,-46,41,96,-45,28,37,65,-12,-52,-44,9,-6,-83,-23,43,-15,-40,-27,-44,77,62,21,86,-53,-47,10,94,73,72,-53,100,-52,-67,-50,40,62,35,120,39,5,12,-95,83,-46,36,99,-47,-35,63,-57,69,-58,-92,29,98,-52,-37,77,82,96,7,81,84,45,12, 
  /* [2][0][][] */ 65,18,-66,84,-14,-52,87,103,-109,85,-35,106,83,-5,62,-100,-47,-52,36,19,-92,-11,119,27,-33,90,99,14,-60,63,87,67,-66,-36,-69,-121,-78,73,106,-17,-127,-92,-8,9,-105,109,-37,-77,85,44,124,-70,-29,39,5,-1,-82,121,-65,23,-11,56,-10,74,98,31,51,94,-91,42,29,-83,55,-80,22,31,-51,-12,7,-11,29,-70,6,-33,-8,-84,-5,-46,93,111,-38,-15,-38,-84,-32,-82, 
  /* [3][0][][] */ 51,0,29,-40,-88,58,-117,42,37,9,61,5,77,100,68,16,115,98,-55,25,120,-93,-64,-119,-35,-105,-81,108,65,-78,97,4,-64,-44,-35,-14,-91,-20,43,50,-22,-94,-89,7,64,42,-47,-83,58,-52,34,21,111,17,97,-116,-127,-107,-105,-49,-98,44,-16,78,57,-26,-66,-40,-13,-65,9,100,29,-126,48,-52,53,97,94,-77,-82,-115,41,101,34,51,-36,-106,-76,56,-6,-114,111,-96,-73,34, 
  /* [4][0][][] */ 33,108,20,47,-20,26,39,10,49,101,5,58,-16,-24,6,-41,8,10,-77,-16,90,-59,94,35,-1,-2,67,-28,-29,-5,-49,-58,62,105,23,-63,2,2,-105,43,-33,-40,-43,-57,39,88,33,60,27,-39,-71,-71,-75,37,-64,7,44,-81,24,30,-20,-13,-31,-49,-40,51,17,-36,1,-66,-57,-67,-33,16,127,61,40,9,6,-37,9,-29,-95,-32,14,70,84,-6,-98,-55,38,7,21,81,-107,3, 
  /* [5][0][][] */ 123,-105,75,88,50,-121,26,71,110,-113,-3,-76,38,109,31,33,60,45,-84,88,38,52,17,-26,-118,-67,-23,-101,47,1,22,-102,-30,-6,-63,8,-127,-41,69,25,-94,-55,33,104,-45,27,36,-54,-111,90,48,41,42,0,33,-13,112,56,-72,-42,51,-77,52,-70,-21,102,-29,33,75,-9,116,-67,-43,69,-27,-76,-2,-52,11,68,107,47,42,121,-88,85,-5,39,75,-105,106,87,-15,8,74,-86, 
  /* [6][0][][] */ 13,-50,114,83,-101,-63,-2,80,-13,-96,8,-98,92,64,122,-122,47,1,10,126,-75,-127,115,63,-70,-82,-14,-65,-17,-113,56,-73,-93,-125,-54,-108,-14,51,-101,89,99,64,32,-13,-116,122,-85,-43,-91,40,-33,-54,75,-53,108,-24,7,2,-60,123,-89,1,84,-65,-42,77,106,-49,111,4,-113,5,62,-72,-92,-46,-70,-111,-60,-33,42,-27,50,-18,-72,-91,-36,-87,99,107,106,7,-43,-65,95,-13, 
  /* [7][0][][] */ 90,60,-46,-45,-82,108,-23,2,106,-13,-93,4,38,-83,39,70,48,14,4,127,52,27,-11,74,-73,98,28,44,-61,113,-19,38,16,23,41,92,-106,87,-4,-27,91,-72,85,62,48,3,101,-102,42,-29,-119,-53,-16,86,21,23,101,-76,17,-53,9,-8,80,-103,-58,-48,57,19,-72,28,53,82,77,24,52,48,-41,43,-97,36,88,-35,-24,-66,81,27,-99,97,80,10,88,47,-42,-36,10,-46, 
  /* [8][0][][] */ 33,45,-24,-79,76,29,-64,-19,16,61,50,110,21,-37,-71,-67,-61,98,-60,-22,31,-13,90,117,-102,84,58,90,-72,-12,-83,99,101,-29,65,6,127,-1,-20,71,78,105,-107,-107,-2,-31,-27,109,32,-113,-64,-15,-68,-19,-31,-93,63,94,-106,104,102,51,31,102,-40,-45,-10,98,-123,45,40,-2,75,62,20,34,-70,117,89,88,35,83,-102,-87,30,47,73,-52,33,-39,-86,90,-88,-113,-69,44, 
  /* [9][0][][] */ -1,27,105,40,105,-83,-37,-103,38,74,-5,72,-16,-77,-82,-13,30,8,-83,-46,12,94,-77,-82,112,-13,-5,29,1,2,-73,85,42,0,25,3,-17,20,-31,-41,50,-49,56,-53,71,19,-81,54,43,9,-69,-12,70,-64,-42,87,88,-40,0,4,-89,127,109,-70,-57,11,98,32,-34,95,121,-78,13,66,-79,-75,-65,-81,-30,102,32,24,96,13,-30,-79,39,-19,90,34,-34,107,86,18,58,-32, 
  /* [10][0][][] */ -80,69,97,-67,-39,107,114,29,31,15,28,-60,77,80,-32,27,-23,80,-80,-89,-16,35,63,-62,23,67,-109,-96,-31,88,-82,-87,75,92,127,60,-32,6,-42,43,-32,112,-103,-28,-111,-47,-6,-53,-15,32,45,25,88,16,-61,-60,-113,4,45,-33,-15,88,123,57,114,-65,-89,-13,19,-18,-85,-77,96,52,-95,116,6,67,74,3,89,10,61,113,-90,75,108,-15,46,27,7,-83,-50,-21,-24,-63, 
  /* [11][0][][] */ 120,4,-20,117,123,48,59,33,124,92,-89,121,-9,-93,28,-75,-69,-127,72,39,34,82,24,-125,-122,-116,-31,75,83,-19,21,-16,-110,-83,55,40,-77,82,-34,-70,-34,117,-90,5,-54,-69,-106,-105,80,115,115,54,-104,-105,17,19,-76,-64,-44,-101,-91,85,85,6,35,99,-67,29,84,59,-94,-81,43,113,-120,55,-74,35,-53,94,-124,-30,-76,-50,48,-96,12,-23,-108,-11,3,-113,-94,-45,-95,-60, 
  /* [12][0][][] */ 41,49,-47,8,92,10,-29,43,-55,62,-11,11,-9,22,40,-73,-88,-41,-54,-60,32,-8,12,86,-60,-46,77,-90,69,-22,-24,104,-61,-62,-28,9,-15,-60,8,38,97,36,-96,-29,-16,-65,-27,99,-33,-127,-44,93,24,-9,-65,94,1,-52,23,51,75,84,6,34,101,28,-37,101,47,79,40,74,70,95,-7,-6,-48,27,-96,-83,-48,88,54,22,-32,29,43,96,-70,-93,61,38,90,-32,17,68, 
  /* [13][0][][] */ 95,-75,91,84,99,108,70,47,61,-116,-3,-33,76,58,54,-55,-127,-78,-82,25,51,-42,109,-65,-75,33,6,17,-86,-100,70,27,33,90,-31,28,-90,-45,9,59,-80,65,-67,-3,-55,13,-16,-44,23,108,-42,-123,-111,16,88,-99,-63,18,-18,-85,-44,121,-90,19,-65,-80,-109,77,-44,-23,95,-17,-97,33,-93,-55,-110,57,70,-78,40,-104,74,4,-99,-111,85,110,-28,-69,-68,52,109,-56,53,-7, 
  /* [14][0][][] */ -21,-52,105,75,95,-5,17,-90,-47,-9,86,95,-8,-47,-41,-64,-16,-17,12,45,-17,59,29,83,-83,-58,6,54,-84,-109,-53,50,112,0,-8,30,118,118,32,-77,19,-59,52,95,90,-89,70,-44,127,29,40,51,73,0,9,43,2,-22,49,98,7,-51,-11,78,-75,5,95,-83,-73,-55,-59,117,15,86,73,-35,47,-53,75,53,56,-6,-96,-39,-72,-43,-84,92,106,16,94,-39,92,84,-36,83, 
  /* [15][0][][] */ 7,-30,-34,66,87,-93,57,-105,53,-5,-77,12,104,-5,-97,-117,88,7,-78,7,45,14,69,105,74,61,37,96,25,59,60,-110,-4,1,-65,-7,-70,107,102,-72,11,108,-53,-30,18,-85,-50,-86,-15,-61,-5,25,-88,-106,-56,-19,70,58,-42,108,-57,-63,-6,110,-31,93,-77,1,-67,2,70,-78,19,-22,57,-113,-2,51,101,71,-87,56,-110,-69,-127,-39,-96,32,83,66,-109,-50,48,126,-110,110, 
  /* [16][0][][] */ -61,-8,94,-56,36,111,-54,49,49,42,-106,65,-5,-42,-54,-60,103,68,73,69,113,75,-41,51,-42,54,-72,57,-93,5,43,15,-101,71,57,50,-41,53,-33,-65,22,-45,70,90,58,105,102,-11,-59,-103,14,118,-34,105,68,49,24,92,66,12,127,101,44,64,63,16,-38,93,56,97,-30,-4,31,85,59,82,-9,93,-108,-25,15,-79,64,20,10,97,101,15,82,14,-17,101,75,-41,-75,31, 
  /* [17][0][][] */ 9,-90,14,77,-54,-99,-59,-85,38,-94,77,32,74,45,-102,57,40,56,80,94,-85,-11,15,-48,38,63,-78,10,96,-18,-31,66,-34,-4,28,15,-41,102,-86,-29,-76,-34,8,-9,4,17,86,-92,71,94,-26,34,-14,94,93,-87,-84,98,-69,-88,17,-79,60,68,-49,-58,39,-94,-63,22,96,25,15,-115,-44,53,123,-43,37,-56,15,-22,-77,-85,-95,62,80,-20,23,76,-79,-127,-14,108,26,25, 
  /* [18][0][][] */ -107,99,108,-72,-14,-127,-111,-2,-6,74,-114,-54,-52,32,57,-61,16,-29,44,-34,100,-52,17,-86,13,-106,-21,109,23,26,-4,50,42,-29,-117,-115,-39,30,-46,63,-48,-6,-61,-14,-125,14,17,-12,14,-40,72,29,-125,-6,-5,81,-45,30,-33,-124,87,101,11,30,-82,-125,-37,85,58,-96,-83,107,-106,-44,-103,-111,58,53,-6,-75,-63,-7,-36,-69,101,-40,70,72,-119,-81,-78,116,91,-69,41,-35, 
  /* [19][0][][] */ 74,21,93,47,118,-81,114,114,105,-30,40,-6,-64,46,-57,69,73,-114,108,58,-18,97,-43,29,92,-65,55,-70,-100,-123,-47,41,102,-97,79,-23,10,-81,-36,-87,46,-125,-104,24,-108,36,88,-94,-7,34,26,54,-34,-4,12,14,30,114,29,-26,70,-46,122,58,-75,-5,-13,16,-23,31,114,-66,-28,-127,-77,-70,-44,-99,26,122,60,-97,-1,98,-93,5,23,-15,98,34,-20,83,-51,100,82,-63, 
  /* [20][0][][] */ -17,84,70,87,-75,82,19,47,17,14,-79,10,-11,82,44,-65,-45,-16,-56,12,22,-40,-70,-67,87,-74,-95,51,23,37,-41,116,90,52,-27,73,46,-23,-27,-103,-74,-27,-68,-98,-4,-59,-62,102,59,-96,-101,30,43,126,54,3,97,64,112,84,103,-46,-70,-19,-32,-58,-47,12,-74,-49,-70,78,-66,-55,37,21,113,75,105,127,85,6,72,-27,61,110,-14,74,17,93,40,75,24,32,-7,34, 
  /* [21][0][][] */ 70,76,82,-93,79,-40,78,13,-11,-48,-49,47,-20,31,-33,-67,-71,-20,36,-41,91,-29,78,-56,55,-61,-9,77,21,31,-2,-15,0,21,-59,-100,127,87,-110,-20,-2,11,30,4,-90,-69,-71,83,-23,-41,3,91,37,55,-77,4,-52,49,-27,118,23,-54,35,2,61,34,-18,-58,-110,-1,64,55,41,-34,63,73,-82,-6,66,92,18,88,26,-60,33,-61,60,-71,-90,76,91,-98,-47,-27,59,-39, 
  /* [22][0][][] */ 28,-16,-25,-77,53,-45,121,48,-80,99,-47,-70,115,-106,-93,-70,60,109,-88,-77,106,-46,59,52,99,-20,-72,124,-61,-70,-61,-90,58,77,20,39,53,-8,-69,-103,14,14,19,109,62,-111,87,-14,-35,-49,21,-36,-55,-76,-45,38,18,-26,-4,-14,95,-71,-79,-100,-70,32,-84,-21,81,114,39,14,-38,-7,83,-45,44,-12,86,127,115,-108,-44,-119,93,106,108,-22,-40,41,-11,109,8,57,-44,100, 
  /* [23][0][][] */ 62,-79,7,58,93,-109,2,-96,57,-57,80,69,18,-108,17,-40,82,-33,-93,83,86,-77,99,-33,-14,-19,75,20,59,40,66,-36,-35,43,17,39,93,-10,-110,1,-101,-1,6,-104,-65,-91,109,23,76,-109,-83,-56,71,-59,-54,90,-78,-21,87,40,-110,-85,-64,-19,30,33,-111,-110,38,-18,107,-71,-10,-41,-32,-90,33,-20,87,127,-55,-56,18,-105,87,2,107,-25,-90,36,99,56,90,-56,-44,72, 
  /* [24][0][][] */ -86,-59,-116,-78,-92,-120,-80,-103,59,110,76,36,106,53,-50,-127,-93,35,17,-59,88,-91,-66,-48,47,-38,65,48,98,49,-5,-71,-3,2,45,20,-64,-96,54,-31,-84,-111,96,-5,13,-47,36,64,-97,-58,-31,7,62,53,60,-85,-14,70,20,-8,82,-16,28,89,-107,89,-57,-99,-113,45,-68,-37,-49,34,87,94,55,-86,-116,-92,-91,-104,-74,-126,-7,56,-23,-111,17,-119,-3,-81,-28,20,-104,24, 
  /* [25][0][][] */ -90,-64,-90,-15,91,-75,-114,49,44,-122,-47,18,81,-7,-122,-30,-83,79,30,-120,69,80,-19,-68,8,-58,-112,33,71,-95,34,114,114,-120,39,69,95,-68,-31,-25,-93,93,-117,-3,94,37,62,30,-112,99,-55,-1,38,-17,-73,14,-27,50,-115,71,127,37,50,42,-5,71,-26,-13,-100,-13,-30,-124,31,-124,71,16,69,69,8,21,44,47,-35,79,-86,-56,-113,-100,-24,-44,102,34,-125,-5,-8,-90, 
  /* [26][0][][] */ 9,-90,-27,-24,-109,-7,-15,-25,-94,-127,86,65,-91,-57,12,-3,103,44,-57,-20,2,55,78,-3,41,60,7,39,33,37,-82,10,-36,-42,-111,-75,-57,87,-56,86,-72,92,69,21,-45,71,-24,94,-26,59,-34,86,19,-18,10,-103,67,55,70,22,-13,-68,46,-12,94,-4,-55,37,-40,91,47,76,57,-70,-74,0,68,-102,-86,20,-10,54,51,-68,76,-8,-32,32,-73,108,33,2,-41,109,57,96, 
  /* [27][0][][] */ 29,8,-57,-100,-104,-50,-64,-8,33,85,36,-105,-18,56,74,-37,58,-21,73,-86,-79,8,-28,-18,-108,45,-90,-3,54,41,-29,-9,56,62,-92,-81,-90,-60,-98,94,-88,13,23,19,86,24,64,90,79,58,69,-68,-78,-83,-2,-20,107,-24,-124,-76,-47,-79,-13,53,36,-45,-104,111,37,4,-100,5,63,-58,-15,-77,46,-63,83,89,79,-26,127,-41,-72,-60,-34,30,-39,-3,-31,-37,48,18,88,50, 
  /* [28][0][][] */ 58,47,111,51,-74,-30,-35,-62,-5,-49,78,83,-77,-60,48,103,103,127,-45,48,-13,54,-40,-26,-32,75,-15,4,-45,-43,11,-9,-60,48,71,90,75,-55,-54,41,99,65,-32,54,-33,-3,22,61,53,-37,-92,-32,-67,43,52,34,63,-21,76,63,-28,-6,-85,14,29,75,20,71,-61,48,-66,-17,57,49,16,-34,-72,0,-26,80,-30,-62,67,-27,83,-54,64,-54,-72,-32,0,-45,-31,74,-79,-39, 
  /* [29][0][][] */ 76,38,52,-51,-76,17,-104,25,80,-4,-78,-87,106,-86,-55,-40,-84,71,31,-91,-60,-25,64,19,-42,18,-37,-20,-90,-18,112,-15,52,-11,-52,-63,-3,85,4,101,39,95,-57,98,-19,101,-58,-24,10,-3,97,-71,86,-109,96,38,-87,83,-55,118,-98,85,-63,-38,-40,-62,58,98,84,-96,55,-69,127,62,56,32,111,-46,-22,13,-5,-62,18,-58,59,123,51,69,-22,96,54,71,-92,28,13,41, 
  /* [30][0][][] */ 22,-73,-67,35,-101,22,-70,-22,115,-22,-6,-44,-103,24,56,11,-10,31,94,-109,37,-107,-120,10,-117,21,-75,117,-16,-111,-99,4,-88,-76,-123,-63,11,-22,-7,20,85,-84,-21,96,102,-53,97,56,-76,76,17,-107,95,-55,-15,101,-82,-57,-87,-56,-105,-9,-81,-30,-111,-96,-101,89,-62,105,48,-40,-92,105,36,-91,-61,-77,-81,-63,23,29,-108,-24,-114,23,-115,108,-43,-127,75,56,-27,-8,6,-78, 
  /* [31][0][][] */ 91,-97,28,100,57,65,-69,-96,-42,-18,-84,-97,102,-126,-56,118,-66,-104,29,40,75,33,-36,112,43,-126,33,33,-79,-82,48,118,11,22,-105,-4,101,-32,-58,-120,65,-76,-26,38,0,-51,-40,27,67,27,103,-25,-121,-61,-89,12,-120,69,3,121,-35,-12,98,-89,86,123,-54,-84,78,-119,-127,11,-99,-54,2,1,-62,-53,49,85,-82,-36,67,83,58,104,-101,23,23,-51,-98,-67,17,112,2,-17, 
};
const TfArray<4, int> tensor_dimension5 = { 4, { 32,1,1,96 } };
const TfArray<32, float> quant5_scale = { 32, { 0.0017353248549625278, 0.002153114415705204, 0.0019128303974866867, 0.0018102056346833706, 0.0021971140522509813, 0.0017629057401791215, 0.0017121314303949475, 0.0019687882158905268, 0.0018859688425436616, 0.0020982944406569004, 0.0018466671463102102, 0.0016122170491144061, 0.0022132133599370718, 0.001772591844201088, 0.002190812025219202, 0.0018085672054439783, 0.0018618858885020018, 0.0020507427398115396, 0.001744131906889379, 0.0017241572495549917, 0.001924096024595201, 0.002094893716275692, 0.0019281950080767274, 0.0019215211505070329, 0.0017979397671297193, 0.0017610660288482904, 0.002161842305213213, 0.0019673700444400311, 0.0025496752932667732, 0.0019255421357229352, 0.0017798827029764652, 0.0017173569649457932, } };
const TfArray<32, int> quant5_zero = { 32, { 0,0,0,0,0,0,0,0,0,0,0,0,0,0,0,0,0,0,0,0,0,0,0,0,0,0,0,0,0,0,0,0 } };
const TfLiteAffineQuantization quant5 = { (TfLiteFloatArray*)&quant5_scale, (TfLiteIntArray*)&quant5_zero, 0 };
const ALIGN(16) int32_t tensor_data6[96] = { -1794, 4012, 9689, 2952, -2533, -3919, 22216, 1934, 2821, -1518, 9660, -179, -9069, 1949, 15352, 6529, 10824, 5519, -3543, -5863, 4083, 34759, 16516, 14396, 1028, 902, 5699, 2627, 2247, -4592, 5879, -2359, -229, 3647, 169, 996, 10549, 4260, -1846, 6231, 7544, 5790, 6620, 11127, 4045, 5611, 1514, 11331, 4485, -5322, -5814, 502, -260, -923, 2511, -28, 145, -824, -5152, 9125, -846, 1206, -1065, -1571, -4283, 7162, 25285, 2225, -2786, 956, 1581, 1971, 2329, -1522, 700, 8776, -400, 15965, 17651, -661, 13383, 2260, -530, 1125, 11673, 7468, 3658, 1178, 6567, 4122, -374, -7915, 810, -2179, -2080, -2149, };
const TfArray<1, int> tensor_dimension6 = { 1, { 96 } };
const TfArray<96, float> quant6_scale = { 96, { 0.00034298800164833665, 0.00039536636904813349, 0.00024841213598847389, 0.00030027359025552869, 0.00039709592238068581, 0.00038152618799358606, 0.00014922715490683913, 0.00036437177914194763, 0.00021122480393387377, 0.0004135244817007333, 0.00020805647363886237, 0.00026373041328042746, 0.0002861355897039175, 0.0014240228338167071, 0.00020041776588186622, 0.00017893305630423129, 0.00017211851081810892, 0.00026516715297475457, 0.00055610359413549304, 0.0002863378613255918, 0.0001503747480455786, 7.8068580478429794e-05, 0.00018537446158006787, 0.00011675637506414205, 0.00018932556849904358, 0.00055815948871895671, 0.00052143534412607551, 0.00041858555050566792, 0.00021824498253408819, 0.00042346894042566419, 0.00024679230409674346, 0.00032935501076281071, 0.00019612979667726904, 0.00031644047703593969, 0.00030485057504847646, 0.00028279933030717075, 0.00018410416669212282, 0.00025157697382383049, 0.0003510783426463604, 0.00028286039014346898, 0.00017161476716864854, 0.00044655046076513827, 0.00022525909298565239, 0.00020858267089352012, 0.00047235036618076265, 0.00017807347467169166, 0.0003387925389688462, 0.00019242726557422429, 0.00030564982444047928, 0.00024440797278657556, 0.00026258578873239458, 0.00019759510178118944, 0.00058093061670660973, 0.00031222542747855186, 0.00030617925222031772, 0.00045385208795778453, 0.00054850033484399319, 0.00031008452060632408, 0.00029323087073862553, 0.00020588860206771642, 0.00085015164222568274, 0.00052419112762436271, 0.00027377228252589703, 0.00049533398123458028, 0.00043798546539619565, 0.00026801860076375306, 8.6153973825275898e-05, 0.00018101563910022378, 0.00041435769526287913, 0.00033298853668384254, 0.00023712062102276832, 0.00026300700847059488, 0.00057582807494327426, 0.000268577627139166, 0.00027627410599961877, 0.00024487782502546906, 0.00031743821455165744, 0.00011573336814763024, 0.00010384860070189461, 0.00020081689581274986, 0.00011040616664104164, 0.00014772434951737523, 0.00017088757886085659, 0.00021063083840999752, 0.00015584701031912118, 0.00031724566360935569, 0.00064560997998341918, 0.00020162283908575773, 0.00010670740448404104, 0.0004905961686745286, 0.0002783212112262845, 0.0002483194402884692, 0.00025602677487768233, 0.00045950795174576342, 0.00029289128724485636, 0.00018202122009824961, } };
const TfArray<96, int> quant6_zero = { 96, { 0,0,0,0,0,0,0,0,0,0,0,0,0,0,0,0,0,0,0,0,0,0,0,0,0,0,0,0,0,0,0,0,0,0,0,0,0,0,0,0,0,0,0,0,0,0,0,0,0,0,0,0,0,0,0,0,0,0,0,0,0,0,0,0,0,0,0,0,0,0,0,0,0,0,0,0,0,0,0,0,0,0,0,0,0,0,0,0,0,0,0,0,0,0,0,0 } };
const TfLiteAffineQuantization quant6 = { (TfLiteFloatArray*)&quant6_scale, (TfLiteIntArray*)&quant6_zero, 0 };
const ALIGN(16) int8_t tensor_data7[96*1*1*16] = { 
  /* [0][0][][] */ -25,117,-8,-127,-42,-38,-9,-47,-22,15,-16,89,48,-62,-15,70, 
  /* [1][0][][] */ -49,33,-74,0,-32,-27,23,-83,79,44,-69,26,20,8,19,-127, 
  /* [2][0][][] */ 23,32,-27,44,70,19,-52,-59,127,-30,-8,-1,-27,120,-103,50, 
  /* [3][0][][] */ 73,-65,6,-127,23,-50,-10,1,113,26,101,52,-49,75,48,113, 
  /* [4][0][][] */ -78,95,19,34,5,-14,12,81,-6,38,22,-12,-127,-28,9,72, 
  /* [5][0][][] */ -1,100,116,22,42,65,-61,84,-80,84,-29,-68,67,-46,-127,-8, 
  /* [6][0][][] */ 26,-47,121,-120,29,18,-40,109,-84,-127,55,-50,13,109,-29,55, 
  /* [7][0][][] */ 29,127,-27,-56,79,-4,25,-29,99,75,-40,4,48,-21,47,68, 
  /* [8][0][][] */ 17,-71,13,-82,31,-61,33,-61,21,50,63,-10,33,127,66,78, 
  /* [9][0][][] */ 12,-45,-9,127,36,1,44,-45,-65,123,35,-15,-13,-47,-5,-1, 
  /* [10][0][][] */ -24,-7,-51,-127,-8,27,-32,24,44,-43,41,-2,-46,-32,-1,-2, 
  /* [11][0][][] */ 3,6,36,-8,97,-23,98,-72,-99,50,6,40,-17,127,-63,-56, 
  /* [12][0][][] */ 49,-6,-111,-11,24,-69,42,6,5,62,-70,-53,-38,127,-48,33, 
  /* [13][0][][] */ -20,11,-25,7,1,-127,-1,22,1,-9,3,-8,12,-14,16,14, 
  /* [14][0][][] */ 35,-6,102,-46,76,-10,-127,-119,-35,-61,24,-11,0,-77,11,-38, 
  /* [15][0][][] */ -95,-7,-21,-56,-7,37,127,43,-31,23,90,-68,9,87,105,-28, 
  /* [16][0][][] */ 13,63,127,78,9,24,89,52,-97,5,-48,-41,-5,16,48,-105, 
  /* [17][0][][] */ -37,-93,-9,26,-77,-19,-47,21,-127,-32,10,-52,4,45,62,-32, 
  /* [18][0][][] */ 4,50,-3,49,35,-6,22,-12,76,18,-28,-34,26,127,63,40, 
  /* [19][0][][] */ 36,-5,41,10,114,-9,-73,-57,-107,-60,-35,-127,-38,-52,28,-47, 
  /* [20][0][][] */ 72,-36,-57,-31,24,-127,3,3,-38,61,-88,-6,-10,2,7,-13, 
  /* [21][0][][] */ 100,-36,88,-22,18,7,-14,118,-17,-95,87,51,-31,127,29,111, 
  /* [22][0][][] */ -15,77,-22,127,-39,-7,116,82,-21,16,-21,9,15,10,32,14, 
  /* [23][0][][] */ 95,16,99,-117,73,-45,-8,57,14,46,-8,9,-6,-36,-127,86, 
  /* [24][0][][] */ -127,23,-6,-23,3,124,28,-27,0,14,98,-11,-75,16,65,-37, 
  /* [25][0][][] */ 30,22,18,21,9,18,72,-44,-4,-127,-12,-25,-5,-23,26,8, 
  /* [26][0][][] */ -38,-24,-2,5,-56,-7,-47,-34,-98,-45,10,-6,17,127,-43,80, 
  /* [27][0][][] */ -9,35,1,73,39,-22,-20,-31,54,7,-32,-13,0,127,-5,0, 
  /* [28][0][][] */ 15,58,62,59,127,-14,28,25,-83,-12,-45,-50,10,77,66,-45, 
  /* [29][0][][] */ 0,9,-7,10,14,-1,22,46,-28,-9,-18,-127,14,-4,-1,-5, 
  /* [30][0][][] */ -22,102,-46,78,-32,-27,58,-127,-47,53,-25,-17,76,27,82,107, 
  /* [31][0][][] */ -45,-38,5,-54,5,5,-80,-106,7,90,4,-127,-44,-47,16,38, 
  /* [32][0][][] */ -127,-81,-18,66,45,51,-19,11,6,-35,-103,44,60,11,48,57, 
  /* [33][0][][] */ -17,-43,-38,-8,-108,13,-92,0,65,4,13,-69,28,-97,127,3, 
  /* [34][0][][] */ 43,-14,73,24,49,42,-52,74,-82,-46,95,24,-5,-12,-27,127, 
  /* [35][0][][] */ -19,24,-69,10,-3,-44,9,-127,73,84,-68,12,-6,19,102,-117, 
  /* [36][0][][] */ -41,-4,2,127,21,56,85,-3,14,0,-1,21,-45,75,-85,-88, 
  /* [37][0][][] */ 8,9,34,-71,9,-2,-33,-33,-84,-20,-7,-50,1,-127,74,-62, 
  /* [38][0][][] */ 34,98,-25,-53,127,-12,27,-32,115,68,-26,23,21,-32,30,49, 
  /* [39][0][][] */ -26,83,-8,-127,-10,4,-25,41,41,-65,-34,-28,31,59,40,52, 
  /* [40][0][][] */ 16,-32,17,-102,10,-30,-6,-40,-121,29,-14,4,-17,-127,73,-37, 
  /* [41][0][][] */ -13,-15,-33,-15,-5,-23,18,-9,-29,9,-50,-27,-127,20,32,9, 
  /* [42][0][][] */ 127,88,-15,-24,-65,-49,-18,-44,2,22,81,-69,-66,41,119,-116, 
  /* [43][0][][] */ 11,127,-52,-13,75,-36,112,-12,33,59,-52,5,42,-110,-75,-10, 
  /* [44][0][][] */ -13,-38,17,-36,59,-16,-124,-127,-22,27,11,38,-23,-39,62,-66, 
  /* [45][0][][] */ -12,88,-124,-37,44,-80,69,-62,-7,21,-12,-127,73,-48,72,0, 
  /* [46][0][][] */ 19,3,-15,-95,-4,5,14,-25,-111,-19,9,22,-14,-127,56,-13, 
  /* [47][0][][] */ 19,39,21,-14,127,-12,-35,9,-49,47,5,32,-5,6,117,-39, 
  /* [48][0][][] */ -127,-87,-28,39,51,33,-5,-25,2,-19,-98,47,47,27,65,30, 
  /* [49][0][][] */ 26,10,84,71,111,11,61,51,-127,-59,-43,-85,18,116,33,-59, 
  /* [50][0][][] */ 23,8,-112,-21,23,-127,-9,1,-31,-47,-5,-31,68,-26,-30,46, 
  /* [51][0][][] */ 15,35,41,9,36,-4,-13,12,-127,61,7,-112,5,-112,-12,83, 
  /* [52][0][][] */ 22,73,-1,52,45,-30,32,22,44,105,-30,-70,20,127,73,13, 
  /* [53][0][][] */ 4,-40,-13,-26,-74,-16,-69,-3,33,12,20,-63,24,-103,127,15, 
  /* [54][0][][] */ 70,11,-43,0,127,70,-103,-32,-103,3,-49,-107,15,-53,1,-23, 
  /* [55][0][][] */ 71,-18,1,-8,36,-45,-87,-127,-41,-66,-84,28,0,-32,0,17, 
  /* [56][0][][] */ -15,-1,25,-22,1,-32,-108,56,-4,127,6,-8,18,7,7,0, 
  /* [57][0][][] */ -3,39,-34,-18,-32,-47,127,88,-26,8,-9,-20,49,16,105,0, 
  /* [58][0][][] */ 48,4,-127,21,116,90,-52,28,-53,-55,3,-4,-38,38,14,-23, 
  /* [59][0][][] */ -101,83,126,28,-83,-71,126,127,22,23,24,-23,-3,4,70,-28, 
  /* [60][0][][] */ 29,-13,-72,-21,16,-127,-37,-1,-12,2,-11,-5,23,-8,13,19, 
  /* [61][0][][] */ 25,4,32,127,91,14,32,17,-107,-5,22,35,0,25,46,-36, 
  /* [62][0][][] */ -40,127,4,-39,-13,-6,-39,51,-26,-37,-65,-54,0,-74,-33,-17, 
  /* [63][0][][] */ -45,27,-29,127,-81,19,-76,-30,-63,-22,-25,-19,28,66,21,40, 
  /* [64][0][][] */ 9,6,-4,43,-5,20,8,80,18,12,-17,-33,9,-127,49,0, 
  /* [65][0][][] */ -4,-26,15,-127,48,-45,67,-26,-9,57,2,-102,-15,-10,22,-29, 
  /* [66][0][][] */ 53,-9,76,-30,21,-7,8,127,-5,-73,49,16,-8,105,39,93, 
  /* [67][0][][] */ 8,71,-24,-127,-6,-15,-40,38,78,-93,-43,1,47,67,59,60, 
  /* [68][0][][] */ -37,58,127,14,3,-3,3,4,-46,-25,-21,-44,19,-17,101,-33, 
  /* [69][0][][] */ 127,76,-9,-12,-69,-41,-14,-37,7,27,85,-56,-65,46,74,-76, 
  /* [70][0][][] */ 32,24,-56,-12,-12,14,75,127,-32,84,-30,9,28,50,-30,41, 
  /* [71][0][][] */ 3,-12,1,8,8,-76,-13,12,-30,15,-64,0,-127,-3,46,31, 
  /* [72][0][][] */ 20,36,-127,11,20,9,38,105,-38,-29,5,-14,36,15,-10,29, 
  /* [73][0][][] */ -35,32,62,1,52,-50,-99,-127,15,-59,40,-21,5,-44,47,-14, 
  /* [74][0][][] */ -2,15,36,127,5,-7,-90,86,-46,25,-52,64,2,-124,14,-91, 
  /* [75][0][][] */ -11,67,-44,6,33,-17,47,-3,126,15,-12,-44,39,127,-24,18, 
  /* [76][0][][] */ -1,-14,3,20,-6,-13,-15,58,16,-30,-13,-127,-8,-4,24,-11, 
  /* [77][0][][] */ -29,32,-20,127,-40,-4,70,88,25,37,4,54,-2,2,-40,21, 
  /* [78][0][][] */ -11,-13,23,-92,25,-10,-46,44,27,-53,13,-17,25,127,-6,17, 
  /* [79][0][][] */ -4,-94,-127,-78,-118,-12,37,-94,114,32,18,73,46,30,60,-62, 
  /* [80][0][][] */ -24,33,125,-112,37,-69,28,-83,-91,51,-67,-113,49,127,67,-17, 
  /* [81][0][][] */ -42,37,-124,22,77,-127,-26,44,-1,-38,64,-5,16,1,18,-13, 
  /* [82][0][][] */ 127,10,-4,14,24,-124,-8,21,-17,-6,-101,-17,114,4,3,32, 
  /* [83][0][][] */ -34,91,-112,-74,-16,-28,54,-108,60,52,-54,-92,29,40,20,127, 
  /* [84][0][][] */ -49,7,66,-17,-22,4,51,-127,-11,36,-2,-68,18,50,76,-47, 
  /* [85][0][][] */ -66,127,29,-116,-54,-38,-14,5,-47,6,-63,5,11,-15,-70,-18, 
  /* [86][0][][] */ 2,11,-24,-2,-25,-24,127,30,-1,-13,-5,20,21,22,65,-1, 
  /* [87][0][][] */ -13,-34,3,-127,13,-54,33,-16,-5,19,-11,-105,-28,4,-1,-22, 
  /* [88][0][][] */ 91,8,43,-17,48,-127,14,44,-61,14,-97,-64,37,14,67,35, 
  /* [89][0][][] */ 16,-16,-30,-35,22,-8,-18,-6,-48,0,33,-91,127,0,32,-69, 
  /* [90][0][][] */ 14,-62,41,-70,68,-21,-70,74,66,-83,-35,-22,-24,127,33,-111, 
  /* [91][0][][] */ -26,-9,-20,-54,14,-24,-53,-109,4,52,-20,-127,-49,5,-17,10, 
  /* [92][0][][] */ -19,20,41,14,7,-127,4,-2,-2,-15,4,-17,-11,-22,25,1, 
  /* [93][0][][] */ 43,-17,127,-16,-53,54,34,-25,-37,23,-62,-23,-21,1,46,1, 
  /* [94][0][][] */ 28,13,-20,-24,34,-15,-2,-13,-46,-16,11,-74,127,-35,43,-35, 
  /* [95][0][][] */ 127,69,0,25,-75,-36,-74,-16,-13,13,80,-31,-65,20,70,-83, 
};
const TfArray<4, int> tensor_dimension7 = { 4, { 96,1,1,16 } };
const TfArray<96, float> quant7_scale = { 96, { 0.00094069563783705235, 0.0010843510972335935, 0.00068130722502246499, 0.00082354503683745861, 0.0010890946723520756, 0.0010463923681527376, 0.00040927767986431718, 0.00099934381432831287, 0.00057931547053158283, 0.0011341524077579379, 0.00057062582345679402, 0.00072331988485530019, 0.00078476942144334316, 0.0039055943489074707, 0.00054967554751783609, 0.00049075053539127111, 0.00047206060844473541, 0.00072726036887615919, 0.001525196828879416, 0.00078532419865950942, 0.00041242511360906065, 0.0002141146978829056, 0.00050841702613979578, 0.00032022173400036991, 0.00051925354637205601, 0.0015308354049921036, 0.0014301140327006578, 0.0011480331886559725, 0.00059856934240087867, 0.0011614265386015177, 0.00067686464171856642, 0.00090330513194203377, 0.00053791515529155731, 0.0008678851299919188, 0.00083609804278239608, 0.000775619235355407, 0.0005049330648034811, 0.00068998726783320308, 0.00096288457280024886, 0.00077578669879585505, 0.0004706790205091238, 0.0012247310951352119, 0.00061780656687915325, 0.00057206902420148253, 0.0012954911217093468, 0.00048839300870895386, 0.00092918891459703445, 0.00052776042139157653, 0.00083829008508473635, 0.00067032524384558201, 0.00072018057107925415, 0.00054193398682400584, 0.0015932886162772775, 0.00085632468108087778, 0.00083974219160154462, 0.0012447568587958813, 0.0015043437015265226, 0.00085045292507857084, 0.00080422929022461176, 0.00056468014372512698, 0.0023316673468798399, 0.0014376721810549498, 0.00075086124707013369, 0.0013585271080955863, 0.0012012403458356857, 0.00073508091736584902, 0.00023629009956493974, 0.00049646233674138784, 0.0011364376405254006, 0.00091327063273638487, 0.00065033859573304653, 0.00072133581852540374, 0.0015792942140251398, 0.00073661410715430975, 0.00075772288255393505, 0.00067161384504288435, 0.00087062153033912182, 0.00031741597922518849, 0.00028482024208642542, 0.00055077020078897476, 0.00030280533246695995, 0.00040515602449886501, 0.00046868459321558475, 0.00057768641272559762, 0.00042743360972963274, 0.00087009347043931484, 0.001770681468769908, 0.00055298063671216369, 0.00029266093042679131, 0.0013455329462885857, 0.00076333736069500446, 0.00068105303216725588, 0.00070219155168160796, 0.0012602689675986767, 0.00080329796764999628, 0.00049922027392312884, } };
const TfArray<96, int> quant7_zero = { 96, { 0,0,0,0,0,0,0,0,0,0,0,0,0,0,0,0,0,0,0,0,0,0,0,0,0,0,0,0,0,0,0,0,0,0,0,0,0,0,0,0,0,0,0,0,0,0,0,0,0,0,0,0,0,0,0,0,0,0,0,0,0,0,0,0,0,0,0,0,0,0,0,0,0,0,0,0,0,0,0,0,0,0,0,0,0,0,0,0,0,0,0,0,0,0,0,0 } };
const TfLiteAffineQuantization quant7 = { (TfLiteFloatArray*)&quant7_scale, (TfLiteIntArray*)&quant7_zero, 0 };
const ALIGN(16) int32_t tensor_data8[16] = { -9128, 19485, -32932, -16032, -13884, 9166, 27309, -69369, 4641, 18262, 20651, 28330, -6127, 12268, -14539, 20547, };
const TfArray<1, int> tensor_dimension8 = { 1, { 16 } };
const TfArray<16, float> quant8_scale = { 16, { 0.00063910795142874122, 0.00039276201277971268, 0.00021693677990697324, 0.00021538324654102325, 0.00039893831126391888, 0.00030665617669001222, 0.00038699398282915354, 0.00023571854399051517, 0.0002294439182151109, 0.00025081349303945899, 0.0005348541890271008, 0.00055332336341962218, 0.00040632547461427748, 0.00022294592054095119, 0.00040568568510934711, 0.00047995397471822798, } };
const TfArray<16, int> quant8_zero = { 16, { 0,0,0,0,0,0,0,0,0,0,0,0,0,0,0,0 } };
const TfLiteAffineQuantization quant8 = { (TfLiteFloatArray*)&quant8_scale, (TfLiteIntArray*)&quant8_zero, 0 };
const ALIGN(16) int8_t tensor_data9[16*1*1*96] = { 
  /* [0][0][][] */ -11,-21,-2,-30,15,-19,-54,1,21,6,-5,12,-6,-11,-38,9,-1,0,-6,-10,1,-8,12,-1,-4,26,11,127,31,-41,39,-15,5,26,-6,-10,-9,25,-62,-3,-23,-7,0,52,18,16,20,-18,19,1,-8,15,22,-31,-10,104,16,8,-41,-37,-9,21,13,-26,-41,-64,-16,34,9,8,22,-16,-6,-33,-8,-25,-27,1,-10,10,-21,-18,24,21,5,-3,-11,-104,-4,-20,-9,6,39,-31,-35,-9, 
  /* [1][0][][] */ 59,-88,-74,-73,122,-24,51,49,-13,-75,-39,-19,20,-26,-73,39,-51,1,43,30,18,104,-10,-64,-4,-7,9,-107,34,-16,-83,36,-12,72,-4,-17,-6,15,-45,28,-31,21,-31,-17,-33,102,17,-53,13,-78,6,-41,-16,18,55,31,-35,-20,-63,-46,25,-27,38,-49,-82,102,-11,-23,-5,-30,-15,20,46,-112,-30,-10,14,-91,18,27,-20,-13,32,-7,-28,62,-16,21,30,-40,-27,37,4,7,31,127, 
  /* [2][0][][] */ -3,60,-127,10,87,59,27,80,29,-117,-5,-16,-3,22,32,29,24,19,-40,79,6,-46,90,5,57,68,-15,-17,34,-5,63,-55,14,-2,-26,48,-105,-93,62,34,19,-50,15,9,42,-14,-18,101,-19,32,-30,21,78,30,-28,95,60,5,47,-11,5,19,11,-20,31,-7,-4,-2,-37,-10,10,-44,-23,-65,22,74,105,65,23,-10,17,-44,-1,4,-56,19,3,29,-9,-8,3,-38,15,-12,-65,-16, 
  /* [3][0][][] */ 47,28,65,6,46,-11,37,-29,-7,-71,-7,-57,-7,52,55,82,28,10,36,34,127,-34,28,21,67,-43,-15,44,34,29,0,69,-112,14,45,8,-29,-41,33,20,-55,7,68,-22,13,38,-51,-52,-47,-29,-31,36,7,-76,14,13,-77,80,72,47,23,125,-28,-46,30,69,-9,-35,31,-22,17,-67,70,-25,49,4,18,22,62,35,-19,-76,4,-6,-45,17,26,40,40,15,36,26,50,105,54,-56, 
  /* [4][0][][] */ 37,-7,28,6,127,20,-25,-28,-29,-44,-8,-19,-45,34,-6,48,43,-80,-36,82,-44,13,39,-37,-11,24,33,-47,21,-3,52,-50,73,21,-31,-7,47,30,-22,18,-20,-29,-16,3,-12,-38,-10,-26,43,15,-31,25,-4,-30,13,-6,17,-10,-31,12,-13,40,78,20,38,47,-9,-14,-32,-3,42,58,2,-63,-34,-26,57,26,63,-31,-23,-9,9,-11,-49,15,18,54,-65,15,0,-23,9,16,20,-11, 
  /* [5][0][][] */ -7,0,-40,7,17,-14,51,-37,-33,-39,-40,-18,-8,31,9,14,-24,7,27,-1,45,-6,-69,81,20,-39,-2,-83,-6,22,23,43,-13,-4,20,-49,10,8,29,8,-7,14,13,-64,-1,-11,-3,16,-16,-18,7,-36,-14,-5,4,-73,-9,15,-10,26,86,49,-30,36,-15,54,-12,96,-2,89,29,31,22,12,-15,78,-35,-2,33,0,-12,-34,-12,17,-25,14,3,127,14,40,6,-24,13,16,-54,3, 
  /* [6][0][][] */ 24,-77,15,-45,-31,29,43,20,-3,16,-23,-87,-34,-18,-20,28,7,-20,-6,-14,-13,91,5,16,-26,-39,-7,-24,-8,-4,28,3,60,47,54,-6,-33,-12,16,-91,-25,106,-5,-67,24,-29,-18,-19,-35,21,-32,46,-7,-53,2,-11,20,-55,-23,13,-4,81,45,-78,28,-43,-7,-3,4,-1,127,-3,-35,-5,-30,25,-89,-32,1,-1,21,36,5,-13,-9,28,56,8,26,21,35,-17,-31,-13,-34,-18, 
  /* [7][0][][] */ 10,127,15,30,120,32,68,-23,-11,-17,24,-46,-29,19,37,40,31,-28,24,22,51,-6,28,15,3,-13,4,21,24,-4,12,22,53,-20,-19,20,3,-10,8,88,-58,49,20,-18,-11,-7,25,-54,-35,-50,31,-14,-6,-21,-11,56,87,25,-24,11,3,-5,20,-23,-52,83,-27,-61,-6,-62,26,58,-6,-27,0,7,74,63,26,1,-62,-48,-25,-1,2,64,20,-25,-5,33,-46,-22,-54,7,40,-20, 
  /* [8][0][][] */ -11,0,68,13,-127,-6,51,-23,6,85,47,19,-8,11,41,10,-76,2,18,14,-43,-11,-109,68,12,-43,55,-26,-3,12,2,66,68,-41,0,6,-21,-23,26,34,9,-22,40,-6,-60,-15,27,28,-102,-3,6,16,-72,-38,-36,15,-10,-60,-63,-12,9,-48,-43,-7,-6,83,-12,-48,7,-14,-59,-13,25,55,58,-29,-41,-33,12,6,-67,-4,-6,-10,22,13,66,55,27,-31,71,40,15,-22,47,15, 
  /* [9][0][][] */ 32,-100,-28,17,91,68,-32,-36,36,-49,72,106,-21,29,84,-68,27,-22,-14,52,-71,-98,51,-8,-19,50,15,23,-23,1,1,-42,26,-3,-113,37,31,33,-54,90,55,-92,1,119,-31,-5,-77,-27,-2,20,-27,-57,66,17,-51,-53,-18,69,15,-7,-10,-84,-38,127,-86,7,24,-19,-10,50,-83,-76,12,4,27,8,71,-77,13,9,5,-27,20,26,-9,-82,-7,-24,-20,-33,-43,27,-42,-4,-2,-46, 
  /* [10][0][][] */ -53,-15,-54,-33,-10,-10,79,-22,41,3,27,38,13,-6,-1,-4,-1,40,-25,-15,-2,5,3,15,-7,-1,5,-117,18,-46,81,-48,5,3,4,5,1,21,30,-9,15,-37,29,-48,10,2,36,58,1,47,-21,-4,-51,-8,-22,-57,13,17,1,-32,35,9,1,14,-28,102,-8,-35,24,-36,3,-25,-21,-7,9,68,16,56,-28,21,-21,-7,7,35,-4,-34,-4,127,1,5,25,-9,35,-26,49,-51, 
  /* [11][0][][] */ -103,23,30,-10,25,-47,-4,-5,-81,-16,-9,28,25,22,-14,-5,30,-8,-73,-35,27,-45,-18,7,81,-4,59,-5,-32,26,-38,21,-14,32,-3,5,-5,0,46,11,-4,6,5,-5,70,-1,75,53,58,47,-10,25,4,-75,23,-42,-127,-19,-17,-40,-6,-22,-28,23,-20,-13,8,4,5,26,-24,45,-28,11,37,-2,-39,113,-97,53,-15,-12,-57,-74,111,-9,43,1,3,54,-1,-85,-14,25,-21,-5, 
  /* [12][0][][] */ -1,-14,-23,0,63,18,-15,-12,-22,44,22,-31,10,-23,34,-5,-38,-28,10,-28,-9,31,-48,51,-25,10,-15,71,-12,38,-59,14,-9,50,12,20,-37,-7,-17,10,-13,-10,1,-35,-11,-10,8,-32,-17,-18,-14,-57,-2,-4,-1,-28,-10,-10,-1,31,-5,4,7,30,33,-80,-6,76,-24,-127,8,57,-3,6,5,92,-6,-34,-7,-2,-13,30,-52,-13,35,5,11,-53,6,16,-5,27,-58,16,1,30, 
  /* [13][0][][] */ -84,71,-9,14,-78,2,-5,-12,-57,-13,29,14,72,19,-3,6,-33,17,-35,-10,13,21,36,-58,56,8,-22,-5,12,-32,-43,-82,-90,-33,-3,8,-23,22,52,-15,-35,127,-4,-30,25,-10,-12,8,58,-19,33,54,53,-53,78,-42,3,61,49,13,6,61,-23,9,-15,-34,1,25,10,-1,45,-126,-2,-40,-96,1,47,35,-35,-47,46,-36,5,-33,47,-28,98,-13,2,3,-7,30,47,-29,-5,1, 
  /* [14][0][][] */ -21,15,-39,-50,28,-10,-21,30,-65,11,13,11,-27,-64,-100,-27,-76,-8,84,4,32,25,39,-114,-48,23,-48,-19,19,-29,-15,-34,-61,-36,17,2,-18,-3,-11,0,-8,71,-84,6,-46,42,11,-23,124,-33,35,0,45,66,-112,59,15,31,-127,3,5,36,64,29,26,14,20,5,-37,22,71,28,46,-10,-30,27,72,-101,-59,-86,3,-31,-3,58,43,-50,-49,-10,-37,12,5,73,3,54,15,-11, 
  /* [15][0][][] */ -45,-77,3,-38,3,26,1,-49,-42,15,-4,-25,35,-19,51,-23,-94,-14,-23,17,-4,29,-72,-33,-10,-10,-4,-4,-14,-15,37,-74,-17,46,18,14,-10,27,-88,2,28,-57,7,13,-35,-55,39,28,43,7,-20,-127,-6,24,3,4,-3,-12,-12,39,16,-13,35,-5,-4,7,-26,-6,-31,24,-4,43,-46,11,8,-33,-51,20,19,-2,16,37,0,52,-7,-47,-23,-20,-33,59,51,68,-30,-22,9,-9, 
};
const TfArray<4, int> tensor_dimension9 = { 4, { 16,1,1,96 } };
const TfArray<16, float> quant9_scale = { 16, { 0.027162086218595505, 0.016692385077476501, 0.009219813160598278, 0.0091537879779934883, 0.016954878345131874, 0.013032887130975723, 0.016447244212031364, 0.010018037632107735, 0.009751366451382637, 0.010659572668373585, 0.022731302306056023, 0.023516243323683739, 0.0172688327729702, 0.0094752013683319092, 0.017241641879081726, 0.020398043096065521, } };
const TfArray<16, int> quant9_zero = { 16, { 0,0,0,0,0,0,0,0,0,0,0,0,0,0,0,0 } };
const TfLiteAffineQuantization quant9 = { (TfLiteFloatArray*)&quant9_scale, (TfLiteIntArray*)&quant9_zero, 0 };
const ALIGN(16) int32_t tensor_data10[96] = { 16737, 61911, 161, -325, 14730, -5189, -685, -1613, 5027, 12860, -2658, -798, 1182, 5208, 4820, -10612, -4601, -168, -1365, 11673, -12342, 27248, -6675, 6579, 30037, 282, -6439, 17190, 16471, -19173, 257, 21327, 23882, -9088, 2169, 309, 684, -1188, 1133, -9297, -6527, -1601, -1878, -347, 32902, -3172, 13555, 958, -12382, 1305, -123, -513, -3114, 15091, -4251, 11349, 14457, -555, 39075, 1295, -8523, -1647, -1280, -737, -1745, 10846, -1602, -6053, -2374, 3042, -641, -7634, 575, 91, -2965, -6386, -1750, -1025, 41686, -7574, -6235, -13255, -38, -1780, 59022, -17092, -10321, -25784, -5023, 8337, -408, 38024, -137, -2561, -1897, -896, };
const TfArray<1, int> tensor_dimension10 = { 1, { 96 } };
const TfArray<96, float> quant10_scale = { 96, { 0.00014999367704149336, 9.6383482741657645e-05, 0.00014546650345437229, 0.00028505842783488333, 0.00027900413260795176, 0.00015548136434517801, 5.7173663662979379e-05, 9.2197762569412589e-05, 0.00033983195316977799, 0.00018724173423834145, 0.00025142540107481182, 0.00013032824790570885, 0.0003770771436393261, 0.00023090252943802625, 0.0005340178613550961, 0.00013294610835146159, 0.00018212416034657508, 0.0002270727272843942, 0.00021266880503389984, 9.3810907856095582e-05, 6.1662482039537281e-05, 4.4000498746754602e-05, 0.0001743614993756637, 0.00010485073289601132, 8.4260354924481362e-05, 0.00016657188825774938, 0.00018615763110574335, 0.00018225747044198215, 7.8992467024363577e-05, 0.00055411894572898746, 0.00055056193377822638, 0.00022771750809624791, 0.00011417023051762953, 0.00017279060557484627, 0.00028769052005372941, 0.00039566686609759927, 0.00043157089385204017, 0.00025199397350661457, 0.00037209055153653026, 8.2300059148110449e-05, 0.00026597842224873602, 0.00029252920649014413, 0.00047578953672200441, 0.00012018828419968486, 0.00037576293107122183, 0.00012427385081537068, 0.00010794260015245527, 0.0003479171427898109, 0.0010554105974733829, 0.00014869339065626264, 0.00041647514444775879, 0.00018805907166097313, 0.00018071829981636256, 0.00019086978863924742, 0.00020200858125463128, 0.0001373474660795182, 0.00020531879272311926, 0.0005796208861283958, 4.6138939069351181e-05, 0.00020224327454343438, 0.00033164749038405716, 0.00038850659620948136, 0.0001595427020220086, 0.00016309230704791844, 0.00014775095041841269, 0.00016110602882690728, 0.00026039668591693044, 0.00037181749939918518, 0.00021813098283018917, 0.00013106777623761445, 0.00027469141059555113, 0.00011702010669978335, 0.00034631334710866213, 0.00015412802167702466, 0.00025188652216456831, 0.00029293244006112218, 0.00016486096137668937, 7.5349998951423913e-05, 6.2380197050515562e-05, 0.0001779841841198504, 0.00024343004042748362, 0.00027040744316764176, 0.00020779983606189489, 0.00039327921695075929, 6.0871374444104731e-05, 8.1319252785760909e-05, 8.8516993855591863e-05, 0.00068103190278634429, 0.00027461120043881238, 0.00014409080904442817, 0.00043548495159484446, 3.1861160096013919e-05, 0.00017062290862668306, 0.00011549820192158222, 0.00036613224074244499, 0.00035157980164512992, } };
const TfArray<96, int> quant10_zero = { 96, { 0,0,0,0,0,0,0,0,0,0,0,0,0,0,0,0,0,0,0,0,0,0,0,0,0,0,0,0,0,0,0,0,0,0,0,0,0,0,0,0,0,0,0,0,0,0,0,0,0,0,0,0,0,0,0,0,0,0,0,0,0,0,0,0,0,0,0,0,0,0,0,0,0,0,0,0,0,0,0,0,0,0,0,0,0,0,0,0,0,0,0,0,0,0,0,0 } };
const TfLiteAffineQuantization quant10 = { (TfLiteFloatArray*)&quant10_scale, (TfLiteIntArray*)&quant10_zero, 0 };
const ALIGN(16) int8_t tensor_data11[1*3*3*96] = { 
  /* [0][0][][] */ -49,-73,-12,127,22,70,81,-56,-12,-17,-16,3,-31,2,36,0,-6,-44,28,20,21,-127,127,9,-85,11,51,-28,-124,-127,41,25,11,30,62,-20,-31,-10,33,-4,-12,29,-104,84,23,-62,33,40,-17,50,-23,20,6,-6,13,50,-92,-49,-60,-23,-10,3,12,41,66,-24,74,13,-9,16,21,127,23,26,26,-4,-9,20,127,-4,-14,13,-27,21,120,19,-75,-16,-1,-32,-17,-48,3,-27,-16,29, 127,-127,71,108,-44,127,39,-113,70,5,-19,127,127,-92,-13,15,11,127,127,-115,127,-69,80,66,-122,-113,-68,-34,-57,45,-60,-20,-88,53,-127,-86,-44,-14,-50,64,1,127,127,90,-55,-105,-112,-53,-14,-127,44,85,69,-32,44,86,-46,42,-81,-118,-45,-41,-59,66,71,-58,29,30,-81,32,-17,89,119,127,14,17,2,61,-32,57,65,125,127,-22,-8,76,-108,127,-127,-97,3,-127,-89,-127,-38,107, -78,-18,29,-84,14,-27,68,-4,80,-34,-29,26,-18,-4,-8,-13,-6,-16,9,-7,-23,-119,33,-2,-127,102,8,-54,118,48,-14,10,2,21,14,-30,-11,35,24,14,25,14,-121,78,16,-13,32,12,-14,12,-16,5,-6,1,-4,25,-72,7,-28,49,3,41,39,2,-8,-37,-30,23,10,6,-1,42,10,-24,-2,4,-10,-1,-82,3,-21,-22,-15,5,-104,12,-34,-23,-57,28,-28,-46,31,-25,-14,4, 
  /* [0][1][][] */ -65,-76,71,-38,-49,92,27,127,-50,-21,0,-114,23,-110,77,32,-1,-62,-17,89,57,-85,48,51,-88,-9,127,-20,-25,65,125,-99,-127,91,-86,-58,-38,35,-25,101,-47,-25,-2,52,-47,127,-23,60,15,94,21,-2,17,-54,28,32,127,123,-68,-88,127,-27,-32,127,69,-36,-17,0,126,38,127,92,-41,102,-2,15,15,14,-34,9,-42,127,-81,114,-1,33,-52,30,79,-127,-34,-10,127,-70,-24,2, 68,126,52,-114,127,82,98,38,-127,127,127,-40,-66,-127,-127,127,127,-65,-125,-52,107,105,-120,127,-104,-90,-43,127,-127,110,-127,-127,-86,127,112,127,127,-127,-104,127,-63,-97,109,-127,-127,-31,-127,-127,127,-111,87,44,127,127,127,-127,104,-127,-127,127,18,-78,-127,-101,-127,127,-127,127,-127,-127,-105,-80,-127,-77,127,127,-127,127,-79,127,127,35,-43,-127,57,127,96,45,127,17,127,9,-70,37,127,-127, -55,-20,-49,38,-58,-102,45,-22,17,-32,-28,97,0,90,13,13,-2,63,-6,127,4,-106,-36,6,-77,109,-70,-18,-70,-16,18,-61,-69,46,5,-17,-31,48,-62,46,127,-2,-44,40,-39,-53,12,43,8,119,-11,7,-35,-71,4,21,91,2,2,19,-35,127,100,-49,-44,14,37,-10,-79,121,-14,-77,-3,-54,-13,-18,28,21,79,-37,-69,-34,60,19,-43,-13,70,22,12,67,-47,16,-43,100,-27,-2, 
  /* [0][2][][] */ -72,-4,-5,-23,11,-51,84,28,55,-27,-38,1,14,21,-27,4,-5,66,8,2,-48,-101,6,-9,-25,-55,35,-66,86,40,27,25,14,-5,-15,-47,-8,38,2,2,-13,-5,-64,108,1,35,13,33,-15,-30,12,-19,23,-3,10,16,-69,25,-19,13,15,3,-15,-4,-1,-43,-49,14,-31,12,26,31,13,-18,31,9,18,9,-81,-12,-7,-4,16,18,-127,10,14,-44,-59,-48,-28,-55,8,57,-20,-6, 121,30,-127,-36,-74,-28,51,34,-64,-27,-21,-105,-79,110,-13,40,4,-51,-9,-127,103,-58,-34,1,-106,127,-50,22,-41,-20,-8,-6,-62,25,26,5,-24,-29,127,56,13,-13,70,-27,-41,75,-65,-45,-32,-5,-127,-127,-51,-26,3,41,-61,-6,4,38,-6,-16,15,-47,-54,35,62,-24,117,105,-23,-65,12,-54,5,8,98,8,50,22,14,-92,-49,5,0,10,127,39,-63,42,-19,-109,40,79,-10,28, -59,5,-19,27,13,-73,-127,8,-15,-6,-17,6,11,-25,19,2,-5,-16,7,20,-45,-86,21,0,12,-91,20,5,-54,-38,-6,16,41,-12,-8,-24,-37,6,46,-38,25,-1,-53,-22,1,69,23,17,-9,-1,12,-8,17,4,-1,-2,-61,-12,0,-40,-12,12,97,-11,33,1,-3,28,-1,8,-2,26,-18,15,3,18,41,7,77,-13,4,-3,-4,-13,68,5,42,-40,59,44,-18,-57,-8,3,-15,-12, 
};
const TfArray<4, int> tensor_dimension11 = { 4, { 1,3,3,96 } };
const TfArray<96, float> quant11_scale = { 96, { 0.0063747311942279339, 0.0040962980128824711, 0.006182326003909111, 0.012114983052015305, 0.011857675388455391, 0.0066079581156373024, 0.0024298806674778461, 0.0039184046909213066, 0.014442858286201954, 0.00795777328312397, 0.010685579851269722, 0.0055389502085745335, 0.016025777906179428, 0.0098133571445941925, 0.022695757448673248, 0.005650209728628397, 0.0077402763999998569, 0.0096505908295512199, 0.0090384241193532944, 0.0039869635365903378, 0.002620655344799161, 0.0018700212240219116, 0.0074103637598454952, 0.0044561559334397316, 0.0035810649860650301, 0.0070793051272630692, 0.0079116988927125931, 0.0077459425665438175, 0.0033571799285709858, 0.023550054058432579, 0.023398881778120995, 0.0096779940649867058, 0.0048522348515689373, 0.0073436005041003227, 0.012226847000420094, 0.016815841197967529, 0.018341762945055962, 0.010709743946790695, 0.015813848003745079, 0.0034977523609995842, 0.011304083280265331, 0.012432491406798363, 0.020221054553985596, 0.0051080021075904369, 0.015969924628734589, 0.0052816388197243214, 0.0045875604264438152, 0.014786478132009506, 0.044854950159788132, 0.0063194688409566879, 0.017700193449854851, 0.0079925106838345528, 0.0076805274002254009, 0.0081119658425450325, 0.0085853645578026772, 0.0058372672647237778, 0.0087260482832789421, 0.02463388629257679, 0.0019609048031270504, 0.0085953390225768089, 0.014095017686486244, 0.016511529684066772, 0.0067805647850036621, 0.0069314227439463139, 0.0062794154509902, 0.006847006268799305, 0.011066858656704426, 0.01580224372446537, 0.0092705665156245232, 0.0055703804828226566, 0.011674384586513042, 0.0049733542837202549, 0.014718317426741123, 0.0065504410304129124, 0.010705176740884781, 0.012449628673493862, 0.0070065907202661037, 0.00320237479172647, 0.0026511582545936108, 0.0075643276795744896, 0.010345776565372944, 0.011492316611111164, 0.0088314926251769066, 0.016714366152882576, 0.0025870334357023239, 0.0034560682252049446, 0.0037619723007082939, 0.028943855315446854, 0.01167097594588995, 0.0061238594353199005, 0.018508110195398331, 0.0013540992513298988, 0.0072514736093580723, 0.0049086734652519226, 0.015560620464384556, 0.014942141249775887, } };
const TfArray<96, int> quant11_zero = { 96, { 0,0,0,0,0,0,0,0,0,0,0,0,0,0,0,0,0,0,0,0,0,0,0,0,0,0,0,0,0,0,0,0,0,0,0,0,0,0,0,0,0,0,0,0,0,0,0,0,0,0,0,0,0,0,0,0,0,0,0,0,0,0,0,0,0,0,0,0,0,0,0,0,0,0,0,0,0,0,0,0,0,0,0,0,0,0,0,0,0,0,0,0,0,0,0,0 } };
const TfLiteAffineQuantization quant11 = { (TfLiteFloatArray*)&quant11_scale, (TfLiteIntArray*)&quant11_zero, 3 };
const ALIGN(16) int32_t tensor_data12[96] = { 3203, 7610, 9168, 28538, 18425, -3631, -1664, 7108, 24938, -4596, 11837, 2352, 12556, 13131, 23741, 1901, 1892, 7405, 12192, 7289, -427, 745, 11896, -1069, 4550, -216, 14677, 10555, 4994, 59959, 37156, 17138, 7897, -781, 8615, 2528, 1890, 4035, 19163, -1113, 9221, 12863, 33278, -3304, 30612, 9136, 5119, 14434, 74800, 11341, -495, 9877, -3771, -376, -1952, 5519, -460, 12372, 4553, 8883, 6311, 10702, 8353, 3413, 12812, 10162, 4192, -6091, 8757, -2435, 4932, 8913, 20024, 6117, -3814, -5750, 6383, 267, 2862, -1023, 18464, 9622, 4974, 13743, 3224, 170, 10688, 80652, 9141, 11811, 6703, -219, 8801, 11754, 8341, 14956, };
const TfArray<1, int> tensor_dimension12 = { 1, { 96 } };
const TfArray<96, float> quant12_scale = { 96, { 0.00015684422396589071, 0.00018936862761620432, 0.00020295109425205737, 8.1253725511487573e-05, 0.00015908910427242517, 0.00027164453058503568, 0.00046067577204667032, 0.00022500248451251537, 9.2571193818002939e-05, 0.00028746546013280749, 0.00023050590243656188, 0.00036404814454726875, 0.00010275526437908411, 0.00018158853345084935, 9.9402132036630064e-05, 0.00032396364258602262, 0.00022882230405230075, 0.00016718819097150117, 0.00018248395645059645, 0.0001619683753233403, 0.00029920932138338685, 0.00054920860566198826, 0.00016571742889937013, 0.00059532304294407368, 0.00057733943685889244, 0.00021396776719484478, 0.00015478373097721487, 0.0001401929184794426, 0.00033332078601233661, 5.8807385357795283e-05, 7.5325369834899902e-05, 0.00014316719898488373, 0.00020852101442869753, 0.00040366104803979397, 0.00023028909345157444, 0.00023664784384891391, 0.00027568114455789328, 0.00035274040419608355, 0.00013802967441733927, 0.00052726175636053085, 0.00019740786228794605, 0.0001271604560315609, 8.1510188465472311e-05, 0.00033469535992480814, 0.00010821042087627575, 0.00016234612849075347, 0.00032946726423688233, 0.00018380115216132253, 5.4718486353522167e-05, 0.00018824158178176731, 0.00029546942096203566, 0.00017756089800968766, 0.000292266282485798, 0.00023741008772049099, 0.00049235019832849503, 0.00019355324911884964, 0.00021593882411252707, 0.00015203360817395151, 0.00046296094660647213, 0.0001730374206090346, 0.00025790886138565838, 0.00012271493324078619, 0.00017084302089642733, 0.00029100404935888946, 0.00019481296476442367, 0.00019412611436564475, 0.00030772027093917131, 0.00021916885452810675, 0.00019520755449775606, 0.00029969241586513817, 0.0002150711661670357, 0.00017555621161591262, 0.0001051243525580503, 0.00017128845502156764, 0.00039817488868720829, 0.00023031311866361648, 0.00025919728795997798, 0.0003150652046315372, 0.00027695298194885254, 0.00035571344778873026, 0.00011047317821066827, 0.00017520431720186025, 0.00017570545605849475, 0.00014365534298121929, 0.00037746666930615902, 0.0002276255254400894, 0.00021702177764382213, 4.7767756768735126e-05, 0.00015623774379491806, 0.00018809681932907552, 0.00019193722982890904, 0.00044409232214093208, 0.0001665888266870752, 0.00013892278366256505, 0.0001378927263431251, 0.00011308930697850883, } };
const TfArray<96, int> quant12_zero = { 96, { 0,0,0,0,0,0,0,0,0,0,0,0,0,0,0,0,0,0,0,0,0,0,0,0,0,0,0,0,0,0,0,0,0,0,0,0,0,0,0,0,0,0,0,0,0,0,0,0,0,0,0,0,0,0,0,0,0,0,0,0,0,0,0,0,0,0,0,0,0,0,0,0,0,0,0,0,0,0,0,0,0,0,0,0,0,0,0,0,0,0,0,0,0,0,0,0 } };
const TfLiteAffineQuantization quant12 = { (TfLiteFloatArray*)&quant12_scale, (TfLiteIntArray*)&quant12_zero, 0 };
const ALIGN(16) int8_t tensor_data13[96*1*1*16] = { 
  /* [0][0][][] */ -28,83,-48,89,3,0,22,-18,27,38,-44,127,7,-126,20,-84, 
  /* [1][0][][] */ 26,95,-13,-55,76,-85,127,-109,11,86,-51,-46,31,-37,20,50, 
  /* [2][0][][] */ -72,41,-2,-6,24,-18,58,127,-36,23,113,-71,-33,33,28,-12, 
  /* [3][0][][] */ -51,17,50,45,-33,8,87,127,12,90,-103,4,47,-45,-30,-17, 
  /* [4][0][][] */ -27,-26,9,84,-65,104,-28,31,36,-21,29,41,-8,2,-127,-63, 
  /* [5][0][][] */ -13,-63,74,12,18,-6,12,79,-78,127,-49,-114,-5,57,-77,-33, 
  /* [6][0][][] */ 16,-13,17,-31,44,81,-89,-79,-10,14,65,-3,127,2,14,-35, 
  /* [7][0][][] */ 51,19,127,-31,-51,-65,26,0,-73,31,-71,-82,6,-14,86,-4, 
  /* [8][0][][] */ 23,-9,60,98,-32,79,-11,29,-13,-9,-24,-77,-5,-14,-127,-84, 
  /* [9][0][][] */ 22,-87,71,10,61,-39,-27,0,85,-39,113,-47,-77,2,-127,-36, 
  /* [10][0][][] */ -13,-52,10,-51,-117,-5,1,64,62,127,11,-64,5,72,90,19, 
  /* [11][0][][] */ 34,-60,12,-70,4,-4,-106,-127,-30,38,-23,-1,-10,-4,8,-70, 
  /* [12][0][][] */ 2,-23,-7,-64,-43,-76,-46,6,-59,-68,-19,-5,28,127,73,65, 
  /* [13][0][][] */ -43,-116,-77,40,-63,-26,0,-63,43,74,-32,25,6,5,127,-8, 
  /* [14][0][][] */ -39,-40,60,21,6,22,2,110,29,72,34,-6,10,45,-48,127, 
  /* [15][0][][] */ 11,-50,3,60,26,-3,83,-11,5,-127,26,-36,1,-26,-3,-33, 
  /* [16][0][][] */ 32,-60,-82,20,-17,14,32,-43,127,60,68,17,-2,108,33,97, 
  /* [17][0][][] */ -57,-83,-8,108,80,55,-4,-38,127,-56,-17,-11,24,79,-77,37, 
  /* [18][0][][] */ -20,46,18,25,-86,16,-9,28,-50,-23,-45,-76,21,-127,55,-16, 
  /* [19][0][][] */ 28,-86,48,-117,44,-18,-125,39,75,-127,63,-10,-8,67,38,108, 
  /* [20][0][][] */ 38,-28,47,-76,-29,36,0,72,-4,-25,103,-21,-14,-21,-10,127, 
  /* [21][0][][] */ -42,-48,-63,-11,25,9,-113,5,0,119,-17,98,-127,29,36,4, 
  /* [22][0][][] */ 27,-8,53,-8,21,-40,-12,-33,-127,34,-11,-76,-35,-17,84,-64, 
  /* [23][0][][] */ 24,-2,5,-18,1,14,-26,-3,0,-10,59,-8,127,7,1,-60, 
  /* [24][0][][] */ -26,-33,16,-76,-80,5,42,24,-43,22,-12,-104,2,-127,53,28, 
  /* [25][0][][] */ -109,-19,4,-22,58,-93,-64,-127,-20,44,-31,7,-81,-34,-43,-67, 
  /* [26][0][][] */ 18,-56,79,-83,116,-63,10,-8,127,-48,91,31,-17,93,-9,59, 
  /* [27][0][][] */ 88,-53,18,-22,-56,-32,2,-29,-30,36,-127,31,1,-11,13,42, 
  /* [28][0][][] */ -127,-34,-91,-58,65,-12,36,-61,-12,25,-75,42,58,2,-77,4, 
  /* [29][0][][] */ -90,-49,-3,127,14,-6,10,-74,-14,-8,-98,45,29,-77,32,-67, 
  /* [30][0][][] */ 40,-60,127,-62,37,68,-74,76,-3,-89,90,-15,-72,9,-68,31, 
  /* [31][0][][] */ 16,-67,-31,-42,-17,-24,15,-24,-13,28,78,17,-14,80,45,127, 
  /* [32][0][][] */ -14,70,-31,31,-127,36,-60,-31,-60,-27,5,44,13,45,32,54, 
  /* [33][0][][] */ 33,-21,1,127,33,-26,20,-31,-57,53,55,-10,11,-6,22,102, 
  /* [34][0][][] */ 50,-31,15,-12,95,-66,-127,-31,-46,102,-64,0,-30,-10,-23,18, 
  /* [35][0][][] */ 65,19,-26,0,19,-127,-34,-20,-11,-6,-67,11,70,27,9,18, 
  /* [36][0][][] */ 22,2,-127,13,46,9,-24,20,-29,-13,-7,0,1,11,-6,10, 
  /* [37][0][][] */ 18,22,127,5,-60,33,32,-50,-22,35,-49,16,28,-12,-33,-6, 
  /* [38][0][][] */ -127,-21,5,5,-10,98,-3,-5,35,-10,95,8,-25,13,4,-14, 
  /* [39][0][][] */ -29,-14,23,51,35,-15,-127,38,5,20,4,-28,2,-36,0,-16, 
  /* [40][0][][] */ 26,-7,-65,127,-42,23,23,36,-70,-48,-26,92,-7,50,-26,-30, 
  /* [41][0][][] */ -9,51,-51,-14,-39,40,127,114,-98,89,-16,-25,35,94,17,-6, 
  /* [42][0][][] */ 49,-6,-19,-53,-8,59,-27,106,14,-117,127,19,7,-31,-56,-11, 
  /* [43][0][][] */ -21,40,58,-31,46,-12,-79,-49,-33,23,-33,-44,-127,-14,35,-38, 
  /* [44][0][][] */ 16,3,-23,-17,11,-33,9,-34,127,-6,27,22,30,86,23,29, 
  /* [45][0][][] */ -11,-127,-9,-95,43,-30,18,50,15,-67,-9,-37,24,87,6,124, 
  /* [46][0][][] */ -67,-4,-24,127,-74,-7,8,-72,-102,61,-9,12,-19,30,18,-41, 
  /* [47][0][][] */ -48,-38,-88,99,-18,27,-21,-11,24,61,79,127,-32,14,39,26, 
  /* [48][0][][] */ -19,-29,34,-127,24,-10,-24,2,-63,7,33,2,-15,86,124,51, 
  /* [49][0][][] */ -35,-30,26,127,7,24,-17,-3,14,11,-36,-16,-51,-64,-16,-122, 
  /* [50][0][][] */ -8,87,28,-124,61,26,-20,28,127,13,-26,15,18,-46,34,-32, 
  /* [51][0][][] */ 24,7,14,7,55,-19,-73,-127,21,-92,-11,24,21,-5,-27,24, 
  /* [52][0][][] */ -6,7,-16,64,26,6,-58,123,-85,127,-20,-19,81,77,9,-57, 
  /* [53][0][][] */ -32,105,-33,-70,-62,20,32,-30,-63,-37,-56,89,7,-127,-92,-12, 
  /* [54][0][][] */ -7,7,22,43,54,-28,1,-50,-7,45,-13,-30,-4,127,-55,-29, 
  /* [55][0][][] */ -56,127,84,-6,65,-5,-6,1,-64,13,28,-52,7,-28,77,-32, 
  /* [56][0][][] */ 48,28,-22,-111,37,-22,2,45,55,-20,17,127,22,13,62,90, 
  /* [57][0][][] */ 10,-9,-6,50,-29,-1,29,127,-20,2,-3,-29,8,20,10,-9, 
  /* [58][0][][] */ -7,127,35,-103,20,35,-2,39,95,-28,3,60,9,-97,53,100, 
  /* [59][0][][] */ 32,53,36,-107,-38,-2,12,-2,31,19,19,-89,-15,-127,-80,1, 
  /* [60][0][][] */ 48,-22,106,-76,-36,127,30,-21,-7,25,-30,-19,37,2,67,14, 
  /* [61][0][][] */ -29,-33,-14,-17,-20,71,127,90,-18,44,-7,9,27,93,57,-55, 
  /* [62][0][][] */ 14,-2,-31,-57,-11,-16,-81,-32,-51,-127,-46,-109,84,-92,62,91, 
  /* [63][0][][] */ 12,-31,26,-61,32,-6,-75,-127,-36,71,-6,29,43,-2,19,-53, 
  /* [64][0][][] */ -34,1,44,37,71,-9,-22,-127,22,-87,6,-35,2,-17,1,16, 
  /* [65][0][][] */ -127,47,24,-94,23,47,63,-67,-86,27,33,-17,24,13,-15,-23, 
  /* [66][0][][] */ 54,16,127,11,-76,-13,-39,72,-34,2,87,-106,0,73,-87,-12, 
  /* [67][0][][] */ 40,-14,-33,100,84,-59,-71,-120,44,-111,-67,-52,-127,-3,-103,3, 
  /* [68][0][][] */ -27,-53,-72,106,-82,-78,37,-127,-68,11,88,-28,-90,36,110,-106, 
  /* [69][0][][] */ -60,28,-79,53,-33,-127,-7,50,64,29,91,12,76,42,-1,-19, 
  /* [70][0][][] */ 36,3,-17,-27,-28,21,127,88,-11,21,-27,-5,33,73,31,-2, 
  /* [71][0][][] */ 12,22,-46,-84,39,-42,9,76,-23,-51,-37,-12,28,-127,69,35, 
  /* [72][0][][] */ 16,90,15,72,22,-20,-77,-127,2,40,-62,-11,73,48,54,32, 
  /* [73][0][][] */ -30,-127,-54,-83,-100,-30,83,-16,-38,13,-63,-18,30,-70,36,15, 
  /* [74][0][][] */ -32,28,52,98,-9,18,-127,99,25,-39,-52,-42,-2,-3,-29,-15, 
  /* [75][0][][] */ -17,32,-44,-33,-16,75,76,127,8,27,3,-84,-111,83,48,67, 
  /* [76][0][][] */ 33,-51,12,-27,69,-78,-99,-57,-39,5,3,-64,2,-4,127,-44, 
  /* [77][0][][] */ -10,-12,-79,-20,-62,-37,4,-23,127,13,-82,24,28,61,37,-107, 
  /* [78][0][][] */ -62,-126,1,71,92,76,-3,51,-43,-109,-127,29,67,-31,95,69, 
  /* [79][0][][] */ 36,-22,34,-32,127,18,33,25,95,17,13,43,6,-21,15,-44, 
  /* [80][0][][] */ -19,-31,63,-93,-11,-29,-2,19,-64,-28,5,-26,-5,127,-23,39, 
  /* [81][0][][] */ 40,-45,82,8,-7,27,-11,-16,-4,20,-11,-67,2,58,-127,49, 
  /* [82][0][][] */ -127,-26,57,-78,0,-5,-13,-59,-28,-49,-49,-55,-18,-97,-100,-7, 
  /* [83][0][][] */ 24,13,-23,-59,-56,2,1,36,-92,-36,-14,-127,58,-96,-43,38, 
  /* [84][0][][] */ 127,33,30,38,-20,4,-39,32,-44,-43,94,-37,-23,21,94,-73, 
  /* [85][0][][] */ -23,-30,9,-40,44,21,-72,98,-77,-127,-59,-61,-30,71,118,-111, 
  /* [86][0][][] */ -15,18,48,36,-24,127,-101,37,-60,-81,72,-4,-23,-120,-40,-13, 
  /* [87][0][][] */ 127,-23,7,-6,-53,-61,13,-31,5,35,-67,-20,49,-15,33,20, 
  /* [88][0][][] */ 58,53,-19,8,17,-26,-21,-21,79,18,33,63,-19,-26,71,-127, 
  /* [89][0][][] */ 65,79,-127,-9,-32,-31,36,-68,90,58,11,-48,-29,15,-18,-120, 
  /* [90][0][][] */ -13,3,-6,-90,-89,33,107,-43,57,-87,18,-127,-16,-41,-56,-63, 
  /* [91][0][][] */ -34,-22,-31,-73,-48,19,5,-73,-24,73,111,127,-34,-30,24,85, 
  /* [92][0][][] */ 9,-8,37,8,65,27,-115,-127,67,-77,26,-23,-87,-4,-11,-51, 
  /* [93][0][][] */ 64,-2,56,-127,-43,27,-62,55,88,-121,105,-3,-72,126,-62,7, 
  /* [94][0][][] */ -112,51,-127,16,95,-125,-24,-3,24,-77,95,-15,17,34,-17,20, 
  /* [95][0][][] */ -72,92,11,-127,23,-20,-35,0,13,-39,-63,-51,-21,21,-73,-26, 
};
const TfArray<4, int> tensor_dimension13 = { 4, { 96,1,1,16 } };
const TfArray<96, float> quant13_scale = { 96, { 0.00050202093552798033, 0.00060612376546487212, 0.00064959801966324449, 0.00026007377891801298, 0.00050920626381412148, 0.00086946925148367882, 0.0014745132066309452, 0.00072017923230305314, 0.00029629829805344343, 0.00092010828666388988, 0.00073779438389465213, 0.0011652312241494656, 0.00032889508293010294, 0.00058122153859585524, 0.00031816249247640371, 0.0010369302472099662, 0.00073240557685494423, 0.0005351295112632215, 0.00058408756740391254, 0.00051842210814356804, 0.00095769762992858887, 0.0017578856786713004, 0.00053042190847918391, 0.0019054870354011655, 0.0018479257123544812, 0.00068485975498333573, 0.00049542577471584082, 0.00044872405123896897, 0.0010668803006410599, 0.00018822839774657041, 0.00024109851801767945, 0.00045824403059668839, 0.00066742597846314311, 0.0012920226436108351, 0.00073710043216124177, 0.00075745326466858387, 0.00088238948956131935, 0.0011290378170087934, 0.00044180004624649882, 0.0016876390436664224, 0.00063185545150190592, 0.00040701028774492443, 0.00026089465245604515, 0.0010712799848988652, 0.00034635572228580713, 0.00051963119767606258, 0.0010545460972934961, 0.0005883036064915359, 0.00017514081264380366, 0.00060251634567975998, 0.00094572704983875155, 0.00056833005510270596, 0.00093547458527609706, 0.00075989303877577186, 0.0015758954687044024, 0.00061951775569468737, 0.00069116865051910281, 0.00048662329209037125, 0.0014818274648860097, 0.00055385148152709007, 0.0008255046559497714, 0.00039278119220398366, 0.0005468277377076447, 0.00093143450794741511, 0.00062354980036616325, 0.0006213513552211225, 0.00098493916448205709, 0.00070150720421224833, 0.00062481279019266367, 0.00095924385823309422, 0.00068839144660159945, 0.00056191353360190988, 0.00033647796954028308, 0.00054825347615405917, 0.0012744627892971039, 0.00073717732448130846, 0.00082962866872549057, 0.0010084485402330756, 0.00088646041695028543, 0.0011385538382455707, 0.00035359826870262623, 0.00056078721536323428, 0.0005623912438750267, 0.00045980644063092768, 0.0012081806780770421, 0.00072857498889788985, 0.0006946349167264998, 0.00015289318980649114, 0.00050007971003651619, 0.00060205301269888878, 0.00061434524832293391, 0.0014214335242286325, 0.00053321104496717453, 0.00044465868268162012, 0.00044136171345598996, 0.00036197187728248537, } };
const TfArray<96, int> quant13_zero = { 96, { 0,0,0,0,0,0,0,0,0,0,0,0,0,0,0,0,0,0,0,0,0,0,0,0,0,0,0,0,0,0,0,0,0,0,0,0,0,0,0,0,0,0,0,0,0,0,0,0,0,0,0,0,0,0,0,0,0,0,0,0,0,0,0,0,0,0,0,0,0,0,0,0,0,0,0,0,0,0,0,0,0,0,0,0,0,0,0,0,0,0,0,0,0,0,0,0 } };
const TfLiteAffineQuantization quant13 = { (TfLiteFloatArray*)&quant13_scale, (TfLiteIntArray*)&quant13_zero, 0 };
const ALIGN(16) int32_t tensor_data14[16] = { -635, 3132, -196, 29215, 28561, 5458, -9159, -5330, 7643, 5011, 31260, 12076, -14569, 17165, 44142, -32419, };
const TfArray<1, int> tensor_dimension14 = { 1, { 16 } };
const TfArray<16, float> quant14_scale = { 16, { 0.00035168550675734878, 0.00033998084836639464, 0.00026410128339193761, 0.00022450447431765497, 0.0003149208496324718, 0.00036607228685170412, 0.00024759411462582648, 0.00038664662861265242, 0.00023682326718699187, 0.00019134492322336882, 0.00032278106664307415, 0.0006301273824647069, 0.00044665217865258455, 0.00029368349350988865, 0.00044208150939084589, 0.00036281382199376822, } };
const TfArray<16, int> quant14_zero = { 16, { 0,0,0,0,0,0,0,0,0,0,0,0,0,0,0,0 } };
const TfLiteAffineQuantization quant14 = { (TfLiteFloatArray*)&quant14_scale, (TfLiteIntArray*)&quant14_zero, 0 };
const ALIGN(16) int8_t tensor_data15[16*1*1*96] = { 
  /* [0][0][][] */ -18,10,-10,16,48,76,-38,-37,44,-6,7,7,-14,9,21,84,7,-9,-12,-21,89,-78,10,-26,-16,-23,-33,-114,-8,-11,57,32,127,-32,15,8,-9,-19,-26,17,-17,19,25,-31,0,-17,-9,22,5,17,9,-4,-29,-1,8,-30,53,37,-22,-37,-63,31,-3,-27,21,6,55,18,26,10,13,-29,-83,11,-19,-7,-12,-103,25,-14,30,-1,-68,-49,27,-23,6,37,-3,8,33,-44,5,41,-19,126, 
  /* [1][0][][] */ 29,-72,26,68,15,-37,-11,-22,-24,-69,-19,38,8,-45,-43,-23,-58,1,4,-8,-34,-96,-68,8,127,-39,-41,-10,-34,73,-4,14,-3,-6,-17,7,-27,-4,33,-9,31,-55,67,-34,-41,6,45,-16,28,26,-2,-24,40,-65,27,-50,36,10,-17,-65,38,-50,14,-51,-3,-82,27,36,33,51,-27,-1,-102,51,-8,43,16,69,43,-14,4,-24,-57,23,-73,53,3,37,-46,18,27,12,38,-15,20,22, 
  /* [2][0][][] */ 11,16,-1,-25,2,-30,3,25,48,0,10,45,15,13,57,16,-21,-19,4,19,-36,-53,7,-31,-22,-18,-13,38,-9,17,93,-56,0,-46,-15,27,7,127,-30,4,-12,-14,-13,51,-9,-36,-45,34,25,23,-30,-18,36,11,-3,-23,-33,-1,-19,22,-16,17,83,90,3,-72,24,-71,-1,-11,-24,0,-27,1,-39,20,5,47,-7,15,1,79,18,-7,10,9,-1,24,17,35,3,-73,-47,-8,-3,33, 
  /* [3][0][][] */ -31,-13,-55,31,43,-43,18,-2,7,37,1,4,5,14,55,-30,25,-34,-7,15,-32,12,2,18,9,7,6,9,39,-51,34,-18,30,4,-17,16,-16,-10,-29,38,16,-53,29,-10,18,0,11,42,-127,41,4,32,-108,-24,-24,-23,24,10,26,56,11,24,35,23,-27,-67,-40,18,55,14,-5,34,-56,-23,-28,-36,-26,-65,36,-37,43,-18,18,57,69,49,19,-10,21,-45,9,5,-26,14,-3,-48, 
  /* [4][0][][] */ -16,-30,37,-69,4,10,-51,-10,-23,-44,-32,5,15,58,-1,17,61,-14,15,-23,-19,3,31,-19,-7,-2,33,-2,7,-10,10,-33,-24,-18,23,1,11,-12,0,-13,24,4,-102,-40,31,-1,-6,-25,-6,87,-37,-8,-28,-34,14,-37,11,-29,10,38,19,10,6,-9,27,-125,26,6,-52,37,4,-5,-14,39,-22,24,-29,54,52,10,16,-5,127,-45,33,-18,0,-11,59,19,-18,30,-12,38,-12,-23, 
  /* [5][0][][] */ -6,-2,-14,-1,-10,-38,15,96,56,-3,-9,-33,-15,33,48,20,-24,-11,-2,-7,-37,20,12,-27,7,2,13,73,49,12,44,55,-66,39,-24,-11,-30,-60,-45,-9,-27,-21,-24,3,50,1,10,32,9,12,-8,8,-27,0,-15,4,-40,-27,16,35,-68,10,-18,-26,13,34,-27,-14,-11,7,-16,11,24,-14,8,-3,-7,19,9,101,8,-43,22,31,20,12,11,-18,-13,-30,20,-109,-43,-25,-1,-127, 
  /* [6][0][][] */ -20,-10,-10,-37,8,-15,-10,34,-3,8,-28,8,20,-48,-9,-19,-4,-48,29,-5,10,12,-37,9,106,-15,-4,-23,9,1,15,-10,-34,-11,-39,7,19,-13,11,20,10,-38,-37,-26,-20,-12,19,-127,17,44,17,22,4,-7,-19,-78,48,-13,5,3,25,5,-16,-1,21,65,38,-3,-34,-5,9,-17,-4,33,43,-31,-30,41,23,2,-38,-24,72,-24,-11,65,30,-3,23,1,-25,-5,-21,18,-7,26, 
  /* [7][0][][] */ 3,13,43,-10,-4,-16,0,-10,8,-6,-26,1,-8,-70,21,-13,-13,-20,-21,-4,5,-20,-37,-5,-11,-4,11,-25,-7,6,4,-21,-30,-6,-21,-21,-13,-22,-41,16,31,-19,-16,35,-11,31,-10,79,-3,16,-9,-19,-37,17,-12,-77,10,-3,2,-9,-17,10,-19,-13,-14,57,22,-25,-3,-9,-4,46,-15,-11,-25,-17,31,-3,6,-16,-17,-40,42,5,-15,127,-5,17,-37,-3,13,-5,-31,-10,-1,14, 
  /* [8][0][][] */ -56,29,-26,14,44,5,-13,19,14,77,-23,-5,38,24,53,-45,-10,36,-72,25,47,51,-7,3,-38,-6,12,16,36,-63,-23,12,26,1,-2,20,-7,21,-42,14,16,23,7,-127,-38,-32,38,-23,-44,25,-5,42,-103,64,4,-1,8,-3,-19,-9,13,-49,1,11,-14,44,11,-36,5,-10,29,75,11,14,60,24,6,-67,-8,-25,5,-21,41,-2,-48,25,1,-41,-12,14,-23,45,35,-25,-10,0, 
  /* [9][0][][] */ 21,-68,-50,-50,32,26,0,9,33,-8,1,-8,-62,-25,4,46,-11,19,42,-21,-33,8,-64,-56,34,31,30,14,-46,-68,-15,8,8,13,41,30,1,67,-42,53,-11,38,-21,-122,37,-36,16,-127,-40,5,-9,26,-5,-4,14,31,-40,32,-8,33,37,28,41,43,-1,98,35,48,28,-1,12,-17,-6,-22,-24,30,96,19,17,35,-6,18,0,-66,21,3,-10,-29,-62,34,-35,21,16,6,-4,-24, 
  /* [10][0][][] */ 29,61,-8,22,65,-127,-16,-30,13,65,21,6,3,-10,13,-80,-3,40,-6,55,-71,-5,-28,-39,-84,-34,-54,68,8,-6,20,40,-16,-1,9,-36,86,-23,-5,10,-40,68,23,-33,-49,-33,-43,14,-6,-28,-56,-21,-7,-8,-4,10,-6,20,-20,4,-29,20,6,32,12,41,55,9,26,-14,25,54,-50,-33,-36,-8,-1,11,-12,7,20,17,-96,-34,75,-33,92,-13,-39,22,13,5,80,43,-13,-115, 
  /* [11][0][][] */ 51,28,-13,8,-4,29,52,-7,6,3,-16,-20,1,13,30,-13,0,-8,-109,-1,16,26,23,-4,-42,-12,-10,26,10,15,-13,13,5,13,11,29,27,-6,-4,3,-4,40,47,-95,24,-47,-2,12,-127,9,22,-63,30,18,-10,32,-7,-9,23,11,24,-18,-5,9,-45,63,-17,-10,19,-3,35,19,-24,-47,20,33,5,-30,-47,15,42,4,84,46,16,-28,-11,-11,-7,-8,-14,30,6,-1,-15,26, 
  /* [12][0][][] */ -27,2,2,6,-22,49,-1,23,127,-5,-13,3,-14,20,-42,-45,37,26,6,50,42,23,4,-29,20,16,10,-54,-85,15,27,-57,11,-23,-32,-1,3,-9,17,-20,-22,-36,8,-1,-23,46,3,-16,13,10,-16,16,-4,-7,-10,-22,74,-6,2,0,18,-25,-8,-17,-13,52,-45,29,-11,15,-27,-29,17,27,-82,-9,36,-20,15,-79,-14,-1,42,38,-28,-8,-7,-12,17,12,-6,33,-34,-11,14,17, 
  /* [13][0][][] */ 22,-5,-24,28,16,-17,9,-8,4,12,10,1,14,-31,4,-27,16,-82,-40,17,-4,-28,39,-4,-10,5,-13,-7,-29,-48,5,25,-6,7,3,54,24,-17,-11,13,-3,20,18,50,9,29,-6,-127,33,-4,7,6,-10,9,6,-6,-20,21,24,11,-8,30,-6,9,-3,-16,-21,-78,9,10,-4,-34,-17,35,-16,19,-41,-12,13,-3,33,-6,-24,27,27,41,12,24,14,15,23,-12,-9,11,-6,-22, 
  /* [14][0][][] */ -112,-66,32,38,21,-26,-42,15,-39,-9,-9,38,46,-15,-124,19,73,-9,5,18,-20,-30,6,1,-127,-5,36,-29,-53,-72,3,-4,-21,-21,27,-82,15,58,-15,47,9,33,-8,-53,13,125,67,39,-88,58,-22,28,-44,-7,12,-27,29,-5,37,41,25,40,4,58,14,-36,-53,77,-12,49,-48,-66,-78,29,-27,9,-6,32,98,-7,32,23,20,28,14,28,50,43,60,70,41,-27,-16,25,13,-24, 
  /* [15][0][][] */ 84,4,42,2,-14,94,22,-19,3,60,6,22,-85,-21,-31,28,24,32,43,-24,36,-6,-83,44,23,24,33,4,39,42,-63,-81,14,-66,31,25,46,-56,-28,-127,4,3,28,35,-31,38,-13,-53,85,-32,-27,5,39,-111,41,-95,23,-47,11,12,-94,-7,13,3,61,-11,-28,48,-35,70,0,-2,63,32,21,-5,19,-55,40,-10,16,-11,34,91,-29,-6,24,-32,-1,-3,41,11,-53,40,27,19, 
};
const TfArray<4, int> tensor_dimension15 = { 4, { 16,1,1,96 } };
const TfArray<16, float> quant15_scale = { 16, { 0.014946633949875832, 0.014449185691773891, 0.01122430432587862, 0.0095414398238062859, 0.013384136371314526, 0.015558072365820408, 0.010522750206291676, 0.01643248088657856, 0.010064988397061825, 0.0081321587786078453, 0.013718195259571075, 0.026780413463711739, 0.018982717767357826, 0.012481548823416233, 0.018788464367389679, 0.015419586561620235, } };
const TfArray<16, int> quant15_zero = { 16, { 0,0,0,0,0,0,0,0,0,0,0,0,0,0,0,0 } };
const TfLiteAffineQuantization quant15 = { (TfLiteFloatArray*)&quant15_scale, (TfLiteIntArray*)&quant15_zero, 0 };
const ALIGN(16) int32_t tensor_data16[96] = { 11118, -9578, 3594, 69680, -1307, -5227, -7119, 4805, -3230, 837, 2999, -1346, -1811, -417, 5202, -6694, 403, 17054, 28915, 3064, 3556, -3637, -348, 1309, 15039, -53, -559, -3297, -6330, -9206, 3809, -8366, 1719, -610, -1242, 14490, 368, -2632, 20133, 180, -769, 725, -8282, -7611, -6529, 72452, 6, 17546, 27522, -13590, 27, 8598, 5730, 91, -6327, 2280, -14769, 2331, 2748, -6162, -249, -1157, -13339, 691, 2512, 14081, 31332, 16921, -10852, 531, -7925, -1278, 36924, 12635, -38, -106, 19785, 35263, -1173, -4731, -633, -5939, 898, -2704, 153, -1587, 524, -1181, 1214, -1684, 1187, -2072, 1951, -1759, 52, 44663, };
const TfArray<1, int> tensor_dimension16 = { 1, { 96 } };
const TfArray<96, float> quant16_scale = { 96, { 0.0002072678180411458, 0.00011107828322565183, 0.00025491096312180161, 3.1274052162189037e-05, 0.00016210786998271942, 0.00017674597620498389, 0.00034680927637964487, 8.3848244685214013e-05, 0.0001156979997176677, 0.00049383123405277729, 0.00018116622231900692, 0.00039590036612935364, 0.00010004896466853097, 0.00053830759134143591, 0.00018344371346756816, 0.00012052639795001596, 0.00010709299385780469, 0.00027189086540602148, 5.6274664530064911e-05, 0.00017039227532222867, 4.1539249650668353e-05, 0.0002303735091118142, 0.00015359610551968217, 0.00036844064015895128, 0.00026132413768209517, 0.00025229863240383565, 0.00014505567378364503, 0.00024342225515283644, 8.8654138380661607e-05, 7.9133198596537113e-05, 0.00014871649909764528, 0.00018487103807274252, 0.00015277194324880838, 0.00010631082113832235, 0.00021925779583398253, 0.00016361731104552746, 0.00042760666110552847, 0.00012984995555598289, 5.3411975386552513e-05, 0.0001745368936099112, 0.00022792253002990037, 0.00037393494858406484, 0.0003698806103784591, 0.00015392596833407879, 0.00019979930948466063, 5.5537027947138995e-05, 0.00024493984528817236, 0.0001995540369534865, 9.1130023065488786e-05, 0.00016927388787735254, 0.00023801749921403825, 0.00015510202501900494, 0.00027136335847899318, 0.00029257274582050741, 0.00024713115999475121, 0.00053053011652082205, 0.00024805410066619515, 0.00020818653865717351, 0.00010026079689851031, 8.0641977547202259e-05, 0.00037210492882877588, 0.0001670329220360145, 0.00027305979165248573, 0.00014105216541793197, 0.00021471800573635846, 0.00022938153415452689, 8.2686332461889833e-05, 9.5258044893853366e-05, 0.00037849249201826751, 0.00024147327349055558, 0.00025196225033141673, 9.7777578048408031e-05, 0.00015949062071740627, 0.0001363444171147421, 0.00015736724890302867, 0.00026598569820635021, 0.00054272107081487775, 6.2227241869550198e-05, 0.00030249616247601807, 0.00041351502295583487, 0.00016796206182334572, 0.00035307233338244259, 0.000105103368696291, 0.00011519796680659056, 0.00013974681496620178, 0.00010143104736926034, 0.0001362102193525061, 0.00018521188758313656, 0.00024579724413342774, 0.0001476378965890035, 0.00021242942602839321, 0.00014316759188659489, 0.00016726467583794147, 0.00063039711676537991, 0.024438973516225815, 9.3433758593164384e-05, } };
const TfArray<96, int> quant16_zero = { 96, { 0,0,0,0,0,0,0,0,0,0,0,0,0,0,0,0,0,0,0,0,0,0,0,0,0,0,0,0,0,0,0,0,0,0,0,0,0,0,0,0,0,0,0,0,0,0,0,0,0,0,0,0,0,0,0,0,0,0,0,0,0,0,0,0,0,0,0,0,0,0,0,0,0,0,0,0,0,0,0,0,0,0,0,0,0,0,0,0,0,0,0,0,0,0,0,0 } };
const TfLiteAffineQuantization quant16 = { (TfLiteFloatArray*)&quant16_scale, (TfLiteIntArray*)&quant16_zero, 0 };
const ALIGN(16) int8_t tensor_data17[1*3*3*96] = { 
  /* [0][0][][] */ -19,8,-18,106,-17,24,-66,-54,15,-6,99,-10,5,-7,-3,65,7,15,-35,1,71,0,34,-36,1,18,40,48,23,16,21,49,-6,24,12,-13,5,51,-60,-25,20,11,25,18,-84,-52,26,-5,-11,-20,-10,-9,48,5,-8,2,-1,-37,24,-33,23,0,127,28,-13,-12,6,-53,66,34,9,-8,77,-32,73,4,17,-127,31,61,-1,19,127,-15,39,29,-26,-21,34,-7,-17,85,0,19,-3,14, -49,15,-8,9,50,-9,-12,-127,36,12,-127,-2,-15,-14,5,100,16,-32,-14,-17,75,-95,127,25,-60,-31,-106,-18,29,38,-51,20,117,10,-13,0,-25,127,-65,-127,7,-17,-33,12,46,-127,127,-45,-76,54,47,4,37,-64,33,56,38,40,-103,86,127,35,5,-22,41,-40,-97,-1,39,-32,-15,47,-49,-49,112,-4,-29,-59,-32,61,-69,63,-15,7,-10,48,57,-40,-27,50,-15,73,-127,-32,22,-127, -2,1,-22,-75,6,22,35,18,-3,-2,3,62,1,-11,-11,12,-15,14,-18,14,8,26,26,-33,0,-33,7,11,-5,6,43,-81,40,15,10,-22,12,4,-35,-21,6,5,-19,7,21,-30,20,0,8,-5,5,-7,4,5,-4,10,-5,41,3,-1,13,-17,3,-18,-28,-20,29,-53,-108,-10,46,-18,-127,-24,-7,15,9,-14,7,10,-15,22,-33,-3,-39,22,26,35,-24,-17,23,-8,14,7,-2,-47, 
  /* [0][1][][] */ -41,57,-16,39,-86,-12,-13,-44,24,94,-44,-22,-28,-24,-6,65,127,-24,-88,-15,60,-127,-26,14,-36,-46,-127,-5,40,37,-50,28,-127,-77,-52,4,67,-6,-49,49,-19,89,1,0,34,-51,-13,-32,127,43,-5,18,44,10,-35,-19,34,9,-127,127,-39,-86,19,127,-59,-35,-87,126,-41,127,-14,54,-35,-58,37,9,-34,-71,127,47,127,36,7,-3,127,27,-98,46,-38,-36,-105,43,95,104,27,-62, 127,127,127,127,-46,-127,127,23,127,-127,18,-127,-101,127,127,127,-18,-127,-56,-127,127,25,-66,127,127,127,-57,-127,127,127,-127,127,-10,-127,-122,127,-127,-49,92,112,-127,-127,127,127,127,-120,-112,127,-13,127,-127,-127,-127,127,127,-127,127,-127,-44,42,-109,-29,-71,-72,127,127,-66,127,127,-108,-127,127,-44,127,-127,-127,-127,123,-75,127,-46,127,84,127,-38,-127,-26,-105,-127,-127,-24,-127,-22,-127,-127,124, -24,68,-38,2,127,73,-25,45,6,24,-15,-6,-22,-29,-13,-10,-107,-23,-127,36,35,80,-10,-119,-36,-41,120,69,11,37,72,6,118,-50,127,-3,57,4,-89,15,35,27,-23,3,-21,-53,-14,-42,83,18,-12,37,-4,-5,-73,-13,29,19,122,-90,0,127,-1,-38,-112,-30,-75,98,13,-19,112,27,-19,-59,15,48,-30,-9,-42,-2,-48,6,50,25,-87,34,127,-44,31,-21,127,-7,-117,36,33,18, 
  /* [0][2][][] */ -6,-37,-22,-58,-6,15,39,30,-1,10,-21,55,26,-35,-9,4,40,4,-2,19,-10,31,-15,-27,1,-23,11,6,-7,-6,51,-74,-42,65,-25,-27,33,-39,-61,21,11,10,-38,16,12,-82,-10,-1,-7,7,17,-10,8,1,-20,6,2,42,-51,31,-11,-11,1,14,-9,-11,21,-51,-58,11,-22,-12,-115,-38,-1,19,14,-12,62,17,21,19,-37,15,13,23,-20,10,4,25,19,-2,17,43,-8,-33, -28,-9,-28,24,-44,76,-26,64,7,-7,53,-11,127,-8,-19,-20,-3,-39,-67,21,-21,80,-44,-115,-47,-46,100,65,16,46,56,-2,-123,62,-14,-23,-28,-30,-127,-2,46,-12,-17,32,-26,-48,-19,-48,-59,30,69,21,-11,-81,30,51,21,25,72,-58,19,-60,-11,-3,18,-26,-127,-51,-9,-27,-64,23,36,-48,-30,-6,-46,21,-55,2,48,33,23,12,5,61,-94,127,15,119,-34,-16,111,-20,45,86, -9,-31,-27,28,13,68,-48,10,4,-6,-2,16,16,-51,-13,-12,-50,-6,6,16,-22,9,-20,2,-6,19,-5,48,2,-1,36,28,14,41,22,-24,-5,-31,-28,11,13,-9,22,6,-73,-39,-12,4,1,-17,0,-6,-7,7,-15,-4,4,-52,9,-32,-25,53,8,-29,-14,-4,33,-53,48,4,50,-20,30,-58,-18,23,9,10,-4,21,-32,31,92,-12,-17,52,40,-6,112,14,0,-17,4,-20,-7,-54, 
};
const TfArray<4, int> tensor_dimension17 = { 4, { 1,3,3,96 } };
const TfArray<96, float> quant17_scale = { 96, { 0.008808881975710392, 0.0047208270989358425, 0.01083371601998806, 0.0013291472569108009, 0.0068895844742655754, 0.0075117037631571293, 0.014739394187927246, 0.0035635503008961678, 0.0049171647988259792, 0.020987827330827713, 0.0076995640993118286, 0.016825765371322632, 0.0042520808055996895, 0.022878071293234825, 0.0077963573858141899, 0.0051223719492554665, 0.0045514521189033985, 0.011555361561477184, 0.0023916731588542461, 0.0072416714392602444, 0.0017654180992394686, 0.0097908740863204002, 0.0065278345718979836, 0.015658726915717125, 0.011106275953352451, 0.010722692124545574, 0.0061648660339415073, 0.010345445945858955, 0.0037678007502108812, 0.0033631608821451664, 0.0063204509206116199, 0.0078570190817117691, 0.0064928075298666954, 0.0045182099565863609, 0.0093184560537338257, 0.0069537353701889515, 0.018173282966017723, 0.0055186226963996887, 0.0022700089029967785, 0.0074178180657327175, 0.0096867075189948082, 0.015892235562205315, 0.015719925984740257, 0.006541853304952383, 0.0084914704784750938, 0.0023603236768394709, 0.010409943759441376, 0.0084810461848974228, 0.0038730259984731674, 0.0071941399946808815, 0.010115743614733219, 0.0065918359905481339, 0.01153294276446104, 0.012434341944754124, 0.010503074154257774, 0.022547530010342598, 0.010542299598455429, 0.0088479276746511459, 0.0042610839009284973, 0.003427283838391304, 0.015814458951354027, 0.0070988992229104042, 0.011605041101574898, 0.0059947166591882706, 0.0091255148872733116, 0.0097487149760127068, 0.0035141690168529749, 0.004048466682434082, 0.016085930168628693, 0.010262614116072655, 0.010708395391702652, 0.0041555468924343586, 0.0067783510312438011, 0.0057946373708546162, 0.0066881077364087105, 0.011304392479360104, 0.02306564524769783, 0.0026446576230227947, 0.01285608671605587, 0.017574388533830643, 0.0071383873000741005, 0.015005573630332947, 0.0044668931514024734, 0.0048959134146571159, 0.0059392396360635757, 0.0043108193203806877, 0.005788933951407671, 0.0078715048730373383, 0.010446382686495781, 0.0062746102921664715, 0.0090282503515481949, 0.0060846228152513504, 0.0071087488904595375, 0.026791876181960106, 1.0386563539505005, 0.0039709345437586308, } };
const TfArray<96, int> quant17_zero = { 96, { 0,0,0,0,0,0,0,0,0,0,0,0,0,0,0,0,0,0,0,0,0,0,0,0,0,0,0,0,0,0,0,0,0,0,0,0,0,0,0,0,0,0,0,0,0,0,0,0,0,0,0,0,0,0,0,0,0,0,0,0,0,0,0,0,0,0,0,0,0,0,0,0,0,0,0,0,0,0,0,0,0,0,0,0,0,0,0,0,0,0,0,0,0,0,0,0 } };
const TfLiteAffineQuantization quant17 = { (TfLiteFloatArray*)&quant17_scale, (TfLiteIntArray*)&quant17_zero, 3 };
const ALIGN(16) int32_t tensor_data18[96] = { 13184, 1292, 8945, -864, 5454, 3797, 18925, 10160, -1109, 19372, 7413, 3158, 7997, 39737, -209, -2079, 10347, 15196, 2128, -190, -974, 12760, 3851, 3377, 9195, 5345, 4004, 5254, 131, 0, 7608, 12463, 15765, 2188, 7288, -533, 12871, 11674, 1583, 6149, 777, 12676, 19095, 4310, 5005, 14134, 15132, 3482, 6585, 3097, 234, -588, 30122, 7666, 6696, 13360, -290, 6900, 3686, 6038, 13372, 12962, 3032, 7838, 5409, 6584, 5439, -901, 20728, 7601, 8895, -1908, -1580, 3735, 1903, 4250, 25861, 13944, 13009, -3380, 5743, -5356, -1987, 698, 6428, 9159, 8328, 3456, 16247, 3402, 10268, 3701, 15977, 29980, -11242, 14876, };
const TfArray<1, int> tensor_dimension18 = { 1, { 96 } };
const TfArray<96, float> quant18_scale = { 96, { 0.00020123440481256694, 0.00022837800497654825, 0.00014497416850645095, 0.00066611333750188351, 0.00029251014348119497, 0.00023394115851260722, 0.00016804375627543777, 0.00034685918944887817, 0.00042621788452379405, 9.3250600912142545e-05, 0.00019311615324113518, 0.00026507623260840774, 0.00033956678817048669, 0.00012042014714097604, 0.00020959961693733931, 0.00035599552211351693, 0.00021314568584784865, 0.00015193590661510825, 0.00019468343816697598, 0.00054204312618821859, 0.00031240429962053895, 0.00019691755005624145, 0.00037119752960279584, 0.00023391179274767637, 0.00018934741092380136, 0.00039342537638731301, 0.0003586059610825032, 0.00017823932284954935, 0.00054411840392276645, 0.000324899738188833, 0.0001906669931486249, 0.00015007927140686661, 0.00012235576286911964, 0.00049379270058125257, 0.00022554445604328066, 0.00050692388322204351, 0.00017787140677683055, 0.00022123449889477342, 0.00028945392114110291, 0.00014079359243623912, 0.00055654637981206179, 0.00014886041753925383, 0.0001156152575276792, 0.00017651201051194221, 0.00022390017693396658, 0.0002319392078788951, 0.00018893498054239899, 0.00040641534724272788, 0.00024572867550887167, 0.00027684640372171998, 0.00058514683041721582, 0.0010983955580741167, 9.0438450570218265e-05, 0.00021444652520585805, 0.0003372622886672616, 0.00013687559112440795, 0.00042603316251188517, 0.00025067327078431845, 0.0002207913639722392, 0.00026855748728848994, 0.0001258109841728583, 0.00010603255213936791, 0.00033975325641222298, 0.0003464128531049937, 0.00019391912792343646, 0.00018363530398346484, 0.00036609257222153246, 0.00030612942646257579, 0.00012999979662708938, 0.00015447531768586487, 0.00022765902394894511, 0.0002347521367482841, 0.00023436288756784052, 0.00037407639320008457, 0.00022583341342397034, 0.00030002580024302006, 9.3738679424859583e-05, 0.00031329557532444596, 0.0001226017193403095, 0.00036095513496547937, 0.00019117561168968678, 0.00038151710759848356, 0.00018498544523026794, 0.00041814034921117127, 0.00023935906938277185, 0.00017242107423953712, 0.00019393321417737752, 0.00037353698280639946, 0.00010343610483687371, 0.00046835359535180032, 0.00014067006122786552, 0.00043864944018423557, 0.00012998265447095037, 9.30729293031618e-05, 0.00026479765074327588, 0.00021962870960123837, } };
const TfArray<96, int> quant18_zero = { 96, { 0,0,0,0,0,0,0,0,0,0,0,0,0,0,0,0,0,0,0,0,0,0,0,0,0,0,0,0,0,0,0,0,0,0,0,0,0,0,0,0,0,0,0,0,0,0,0,0,0,0,0,0,0,0,0,0,0,0,0,0,0,0,0,0,0,0,0,0,0,0,0,0,0,0,0,0,0,0,0,0,0,0,0,0,0,0,0,0,0,0,0,0,0,0,0,0 } };
const TfLiteAffineQuantization quant18 = { (TfLiteFloatArray*)&quant18_scale, (TfLiteIntArray*)&quant18_zero, 0 };
const ALIGN(16) int8_t tensor_data19[96*1*1*16] = { 
  /* [0][0][][] */ 43,-17,127,66,63,-3,31,9,45,-61,-46,-115,72,107,2,-54, 
  /* [1][0][][] */ 47,45,-41,25,55,-52,3,2,38,72,-64,127,4,-7,67,-99, 
  /* [2][0][][] */ -12,-26,-1,47,-71,27,-21,31,-12,-22,15,98,-27,-107,58,-127, 
  /* [3][0][][] */ 127,109,-17,22,-119,-6,-66,-31,-7,-11,103,-72,-56,72,-40,-22, 
  /* [4][0][][] */ -5,-24,42,33,-13,40,-12,59,-76,-43,1,17,12,-127,23,-9, 
  /* [5][0][][] */ 102,-11,13,-3,14,-127,-51,-7,-13,-1,-105,-11,48,-33,-42,39, 
  /* [6][0][][] */ -84,-46,-31,45,-35,22,-50,40,-127,-105,-46,-60,18,40,4,84, 
  /* [7][0][][] */ -31,19,-80,68,70,-127,-62,53,30,-58,27,-13,-23,29,-63,-1, 
  /* [8][0][][] */ 20,-44,-8,1,20,48,-56,-64,0,15,-49,27,-127,-17,16,2, 
  /* [9][0][][] */ 1,-87,71,127,4,23,14,-73,103,-61,25,10,-10,56,-83,45, 
  /* [10][0][][] */ -127,-87,32,-55,82,9,50,43,98,-26,-31,13,74,-119,-51,64, 
  /* [11][0][][] */ 68,-42,-127,23,96,28,-4,82,-51,-57,-11,-23,6,-6,-61,-7, 
  /* [12][0][][] */ 125,-57,-26,-25,-48,-52,-43,-12,19,-12,-127,-41,-39,3,13,70, 
  /* [13][0][][] */ -6,-73,73,-27,75,39,-119,-127,51,-85,-13,-23,13,48,62,-59, 
  /* [14][0][][] */ -34,13,-104,-57,88,-127,64,-32,34,35,-14,-106,40,98,5,41, 
  /* [15][0][][] */ -5,12,43,35,25,-65,-33,-44,11,-35,-53,-18,-127,-35,-9,46, 
  /* [16][0][][] */ -127,48,20,65,-14,66,74,56,-30,46,107,25,-2,-10,-39,-80, 
  /* [17][0][][] */ -5,-9,-53,-36,-24,6,35,67,-24,127,-16,14,-10,91,75,-8, 
  /* [18][0][][] */ 21,81,-84,8,1,-31,18,-114,75,127,-95,122,15,9,22,-85, 
  /* [19][0][][] */ 14,-18,30,16,-1,67,-5,34,4,-6,-64,-14,-127,15,-8,43, 
  /* [20][0][][] */ 80,-64,14,-98,-35,-4,38,-75,-59,36,-127,-33,24,0,43,-18, 
  /* [21][0][][] */ 43,-20,127,65,-63,87,0,-1,11,37,2,-36,-45,95,24,-22, 
  /* [22][0][][] */ 2,33,33,4,-14,17,49,127,36,-21,78,39,2,48,61,38, 
  /* [23][0][][] */ -27,8,-80,1,15,-127,4,11,-19,-26,-12,-20,-65,9,7,30, 
  /* [24][0][][] */ 23,-68,6,-63,57,-11,-34,-18,22,26,70,99,-47,88,127,52, 
  /* [25][0][][] */ -127,-101,-59,1,39,-12,-7,-48,-42,-16,-80,3,17,52,40,60, 
  /* [26][0][][] */ 4,-5,42,-7,-8,25,-37,76,-78,-79,-6,-13,0,-127,46,-23, 
  /* [27][0][][] */ -103,46,-59,29,-11,-21,28,35,37,8,127,21,-53,2,6,-24, 
  /* [28][0][][] */ -11,-3,21,41,-4,4,4,79,33,19,-34,-11,-127,1,-8,35, 
  /* [29][0][][] */ -13,73,59,-53,37,-9,2,-9,-127,41,-27,-2,9,20,-77,18, 
  /* [30][0][][] */ -16,1,-127,-43,23,-20,7,21,-40,-23,12,-40,-53,-5,23,-5, 
  /* [31][0][][] */ 127,22,-87,8,58,-15,-41,62,10,-26,-93,-79,50,-35,-84,52, 
  /* [32][0][][] */ -127,46,47,35,5,57,30,9,29,21,111,26,-70,5,-8,-37, 
  /* [33][0][][] */ 6,-39,127,-22,-93,33,4,-43,31,14,-1,28,-11,56,64,21, 
  /* [34][0][][] */ -27,-50,-28,-127,12,-20,14,-38,41,-10,-17,-80,-30,-7,90,37, 
  /* [35][0][][] */ 12,-42,48,46,92,-28,12,-11,-119,34,-7,14,-12,127,-22,-45, 
  /* [36][0][][] */ -95,12,-20,-17,7,18,35,85,-18,34,127,9,-12,27,11,-7, 
  /* [37][0][][] */ -46,10,127,-21,-90,-71,35,-61,16,31,6,3,-22,-74,70,7, 
  /* [38][0][][] */ -7,-28,-11,30,36,-43,-97,-8,-17,-26,123,-19,127,60,-1,2, 
  /* [39][0][][] */ -37,-30,-55,-111,-7,-114,38,95,1,-59,18,-23,12,69,84,127, 
  /* [40][0][][] */ 60,-8,-21,16,-19,69,-9,12,16,5,1,6,127,12,-30,-26, 
  /* [41][0][][] */ -16,-28,-27,-127,6,-17,-21,-44,18,-36,23,-35,-10,8,-6,51, 
  /* [42][0][][] */ 72,26,-2,84,-106,-4,-101,28,-122,-104,50,-127,-3,108,-52,-1, 
  /* [43][0][][] */ 22,127,-23,93,30,53,53,-56,-24,72,5,15,9,-44,62,35, 
  /* [44][0][][] */ 20,-23,-127,25,42,100,-53,73,-21,-45,21,-48,20,-33,-70,9, 
  /* [45][0][][] */ -17,-1,12,-91,-13,-6,80,6,30,63,-11,35,-1,-127,28,-72, 
  /* [46][0][][] */ -14,44,54,-20,18,32,-89,29,19,-63,-18,14,-30,127,53,-47, 
  /* [47][0][][] */ 12,-8,13,-27,-17,-3,-57,51,7,-28,5,34,22,-127,42,2, 
  /* [48][0][][] */ 9,5,12,-127,-17,-12,1,12,8,-24,9,-14,-3,33,13,60, 
  /* [49][0][][] */ 22,-50,-25,118,113,8,10,68,-79,13,60,65,-14,28,127,3, 
  /* [50][0][][] */ -7,-11,53,-22,-26,127,-15,-20,30,-5,105,40,92,-28,2,-30, 
  /* [51][0][][] */ 33,41,17,13,26,16,-57,30,40,-4,15,127,26,47,40,-51, 
  /* [52][0][][] */ -20,91,124,-18,11,-74,2,-85,-23,-9,14,15,-40,101,-127,-17, 
  /* [53][0][][] */ -2,-12,-81,-127,-13,4,39,-42,-36,52,52,15,22,-39,15,-3, 
  /* [54][0][][] */ -8,-13,-16,-14,2,13,-2,4,72,20,14,-10,-29,127,30,8, 
  /* [55][0][][] */ 6,-54,-45,-15,-56,-57,-9,-127,-37,-52,-69,-4,-53,-104,-96,-16, 
  /* [56][0][][] */ 44,36,9,60,23,-30,15,127,8,-17,-2,-22,62,-16,-73,39, 
  /* [57][0][][] */ 62,-18,127,-2,-56,-42,-11,-24,12,16,-88,27,59,-24,36,-4, 
  /* [58][0][][] */ 121,107,-23,99,-127,-25,-13,46,-15,30,76,-63,-73,-48,-24,-80, 
  /* [59][0][][] */ 124,-40,-32,4,-37,-8,20,9,-45,41,-127,15,38,-22,-29,32, 
  /* [60][0][][] */ -127,20,-7,-10,-37,9,51,20,2,46,83,-34,-61,-29,34,-11, 
  /* [61][0][][] */ -101,24,39,-2,63,56,-113,-123,98,-127,102,54,22,-57,-49,-11, 
  /* [62][0][][] */ -23,-86,-127,87,108,101,3,93,12,-122,20,-50,-79,1,-78,-36, 
  /* [63][0][][] */ -64,-21,127,-47,-29,-42,9,-18,18,17,14,15,-24,-25,67,34, 
  /* [64][0][][] */ 5,95,-4,42,57,-10,59,-127,-12,75,-9,-11,14,-40,-59,-2, 
  /* [65][0][][] */ 25,11,24,-14,106,5,9,-127,-71,-111,-44,-114,-21,-50,65,-1, 
  /* [66][0][][] */ -127,-20,-11,23,-32,14,4,-29,-78,-34,-76,59,71,42,42,69, 
  /* [67][0][][] */ 3,-62,15,127,-3,19,-3,75,30,41,-19,-1,13,-21,-126,-10, 
  /* [68][0][][] */ 23,-14,-19,127,-47,-32,-9,-16,-81,17,-2,-37,-25,-71,-34,-55, 
  /* [69][0][][] */ 108,116,57,121,40,-22,35,-127,-15,58,31,52,9,-9,28,-6, 
  /* [70][0][][] */ 0,-18,2,-57,127,-35,50,-7,46,-31,66,-10,26,49,20,74, 
  /* [71][0][][] */ 17,60,10,90,62,-126,-77,107,64,-127,28,5,8,-29,-71,35, 
  /* [72][0][][] */ -127,-73,-34,37,23,12,-18,9,-59,-42,-96,33,60,27,3,102, 
  /* [73][0][][] */ -17,-76,-29,72,-44,28,-8,-11,127,72,24,48,-35,104,-34,-45, 
  /* [74][0][][] */ 69,-40,19,-52,-6,-67,24,-34,-4,-40,-127,-10,-120,-11,38,49, 
  /* [75][0][][] */ 1,-10,-40,127,-28,-13,-4,-31,-105,41,-29,-11,9,-75,-26,-23, 
  /* [76][0][][] */ 5,-20,-5,33,11,7,-22,-127,6,-100,18,22,-24,-37,38,-20, 
  /* [77][0][][] */ 92,-51,24,46,-25,-7,-45,8,72,29,2,127,57,42,-52,69, 
  /* [78][0][][] */ 41,-5,45,-10,-22,40,-51,91,36,-5,-64,-61,16,127,72,-46, 
  /* [79][0][][] */ 16,37,35,19,39,88,-48,-56,13,-57,64,-33,127,-32,-40,-51, 
  /* [80][0][][] */ -104,-86,-102,85,-10,41,16,-12,-127,54,-99,-29,78,-113,-30,104, 
  /* [81][0][][] */ 72,22,-51,49,127,70,21,-39,-26,-90,-35,-64,16,-28,-116,13, 
  /* [82][0][][] */ 88,121,-10,35,-91,-21,-81,-12,-34,29,127,-37,-25,80,-14,-29, 
  /* [83][0][][] */ 127,41,22,-30,-8,-29,-24,25,31,23,98,-51,-62,-33,-29,-110, 
  /* [84][0][][] */ -32,-112,-72,-5,90,40,13,-127,24,-39,29,55,-14,6,30,-16, 
  /* [85][0][][] */ -41,44,-85,-105,17,42,127,122,-62,117,10,-120,60,120,65,-74, 
  /* [86][0][][] */ 127,-28,6,-4,-8,-13,-12,3,1,2,-112,1,42,37,14,37, 
  /* [87][0][][] */ -16,34,28,-70,-16,46,-30,49,-1,-32,39,-1,-14,-127,25,21, 
  /* [88][0][][] */ -3,-64,-99,-110,127,-12,-81,-97,7,-39,-9,17,7,35,74,47, 
  /* [89][0][][] */ 23,15,-8,-127,30,-23,5,57,37,-30,41,-2,-22,-15,33,42, 
  /* [90][0][][] */ -45,55,-47,37,127,-48,116,-126,54,126,-39,54,53,4,-15,21, 
  /* [91][0][][] */ 50,-8,-44,-25,8,-127,-29,3,-1,-27,-36,-22,22,-9,17,29, 
  /* [92][0][][] */ 42,55,127,65,29,-6,22,88,-49,69,-124,57,81,100,1,12, 
  /* [93][0][][] */ 127,-44,-47,-20,-24,-58,1,38,-26,48,-103,-8,-37,14,1,63, 
  /* [94][0][][] */ 40,-55,57,127,122,-32,-39,93,-19,-38,-16,98,-7,126,-28,-111, 
  /* [95][0][][] */ -109,24,27,59,8,73,35,0,12,17,127,-6,-22,23,-7,-25, 
};
const TfArray<4, int> tensor_dimension19 = { 4, { 96,1,1,16 } };
const TfArray<96, float> quant19_scale = { 96, { 0.000699384487234056, 0.00079372129403054714, 0.00050385360373184085, 0.0023150581400841475, 0.0010166107676923275, 0.00081305589992552996, 0.00058403133880347013, 0.0012054992839694023, 0.0014813082525506616, 0.00032408983679488301, 0.00067116972059011459, 0.0009212649310939014, 0.001180154737085104, 0.00041851680725812912, 0.00072845752583816648, 0.0012372523779049516, 0.00074078183388337493, 0.00052804895676672459, 0.00067661679349839687, 0.0018838555552065372, 0.0010857522720471025, 0.00068438140442594886, 0.0012900865403935313, 0.00081295380368828773, 0.0006580715999007225, 0.0013673388166353106, 0.0012463248567655683, 0.00061946571804583073, 0.0018910681828856468, 0.0011291798437014222, 0.00066265772329643369, 0.00052159628830850124, 0.00042524398304522038, 0.0017161626601591706, 0.00078387337271124125, 0.0017617996782064438, 0.00061818707035854459, 0.00076889427145943046, 0.0010059889173135161, 0.0004893241566605866, 0.0019342611776664853, 0.00051736016757786274, 0.00040181755321100354, 0.00061346252914518118, 0.00077815871918573976, 0.00080609816359356046, 0.00065663817804306746, 0.0014124850276857615, 0.00085402303375303745, 0.00096217187820002437, 0.0020336613524705172, 0.0038174425717443228, 0.00031431627576239407, 0.00074530282290652394, 0.0011721455957740545, 0.00047570723108947277, 0.001480666222050786, 0.00087120791431516409, 0.00076735415495932102, 0.00093336397549137473, 0.00043725254363380373, 0.00036851313780061901, 0.0011808028211817145, 0.0012039480498060584, 0.00067396042868494987, 0.00063821929506957531, 0.0012723443796858191, 0.0010639441898092628, 0.00045181059977039695, 0.00053687457693740726, 0.0007912224973551929, 0.00081587443128228188, 0.00081452156882733107, 0.0013000919716432691, 0.0007848776294849813, 0.0010427312226966023, 0.00032578612444922328, 0.0010888499673455954, 0.0004260987916495651, 0.0012544894125312567, 0.00066442543175071478, 0.0013259518891572952, 0.00064291170565411448, 0.0014532349305227399, 0.00083188567077741027, 0.00059924455126747489, 0.0006740093813277781, 0.0012982172193005681, 0.00035948926233686507, 0.0016277496470138431, 0.00048889481695368886, 0.0015245137037709355, 0.00045175102422945201, 0.00032347234082408249, 0.00092029670486226678, 0.00076331337913870811, } };
const TfArray<96, int> quant19_zero = { 96, { 0,0,0,0,0,0,0,0,0,0,0,0,0,0,0,0,0,0,0,0,0,0,0,0,0,0,0,0,0,0,0,0,0,0,0,0,0,0,0,0,0,0,0,0,0,0,0,0,0,0,0,0,0,0,0,0,0,0,0,0,0,0,0,0,0,0,0,0,0,0,0,0,0,0,0,0,0,0,0,0,0,0,0,0,0,0,0,0,0,0,0,0,0,0,0,0 } };
const TfLiteAffineQuantization quant19 = { (TfLiteFloatArray*)&quant19_scale, (TfLiteIntArray*)&quant19_zero, 0 };
const ALIGN(16) int32_t tensor_data20[16] = { -34839, 10475, 828, -7555, -535, -8670, -9883, -37501, 502, 9629, 39622, -19249, 415, -20009, 34572, -34194, };
const TfArray<1, int> tensor_dimension20 = { 1, { 16 } };
const TfArray<16, float> quant20_scale = { 16, { 0.00061254278989508748, 0.00075932586332783103, 0.0010051436256617308, 0.0010836935834959149, 0.00074934476288035512, 0.0010968868155032396, 0.0009047419298440218, 0.00059713964583352208, 0.00070998939918354154, 0.00054553936934098601, 0.00078159099211916327, 0.00044837722089141607, 0.0010695267701521516, 0.0010861348127946258, 0.00052784505533054471, 0.00043758159154094756, } };
const TfArray<16, int> quant20_zero = { 16, { 0,0,0,0,0,0,0,0,0,0,0,0,0,0,0,0 } };
const TfLiteAffineQuantization quant20 = { (TfLiteFloatArray*)&quant20_scale, (TfLiteIntArray*)&quant20_zero, 0 };
const ALIGN(16) int8_t tensor_data21[16*1*1*48] = { 
  /* [0][0][][] */ -14,-8,-24,16,26,-6,3,101,-39,5,29,-4,24,-19,-18,16,25,-6,-1,-5,62,-12,18,127,-12,73,-13,-24,19,-29,28,-24,-18,47,15,-40,6,30,17,-16,-87,-13,18,39,40,23,-100,-54, 
  /* [1][0][][] */ -40,-20,17,5,-42,8,-4,59,-66,-33,-3,-59,-23,-26,-2,-8,-21,127,-23,10,-1,12,-29,-23,15,-49,11,26,-33,-98,-39,22,-22,-12,36,-3,1,-50,-2,13,-22,-38,127,15,6,-3,26,-5, 
  /* [2][0][][] */ -22,0,-15,-37,-1,-57,-2,-25,1,5,14,22,10,2,-10,9,-7,-17,-20,-14,-8,-5,-1,-127,-17,63,-13,4,5,-12,-1,3,-5,47,15,1,24,20,28,-2,-38,9,-12,-3,-9,-7,21,5, 
  /* [3][0][][] */ -1,34,-7,-31,-1,3,0,-6,-16,-5,-1,40,-127,-4,0,-5,7,13,-17,-2,-33,3,5,15,-7,-14,7,25,-4,21,10,14,9,-1,16,24,-12,27,32,10,12,9,21,-24,6,-2,4,15, 
  /* [4][0][][] */ 28,-49,-2,10,24,34,20,-29,-36,13,-23,-32,1,2,-4,11,20,-14,-84,14,-7,24,15,72,-5,-28,-12,56,17,-88,13,15,15,-44,29,-127,18,41,7,8,-24,25,-2,-31,-21,-27,13,8, 
  /* [5][0][][] */ 40,3,-19,66,-1,-13,10,31,1,-10,31,12,0,54,4,-4,-31,25,33,6,7,1,4,-18,1,-48,9,-25,-7,-6,6,5,56,-127,4,36,-16,-14,17,2,-90,55,26,-8,-8,5,-116,-17, 
  /* [6][0][][] */ 25,-2,5,6,-11,-9,3,-13,-1,9,-5,8,-20,12,4,-1,-3,-18,127,6,4,14,15,-34,4,6,30,-14,-19,-2,-4,2,-4,-9,33,-40,4,-49,73,16,-2,-15,-9,3,-5,0,2,-7, 
  /* [7][0][][] */ -35,-16,-2,23,-22,80,-16,45,-6,41,-7,127,82,-6,-11,3,-3,-24,-11,2,-32,-3,-25,65,-5,-43,-45,-33,-19,-14,-2,-18,14,-5,-29,3,4,-60,87,-6,18,39,-61,-59,25,-12,-1,-5, 
  /* [8][0][][] */ -42,-41,16,15,-2,0,7,28,4,-69,20,54,50,20,12,14,-9,65,-23,26,-38,33,-3,-9,10,-5,14,40,3,127,-7,12,-1,19,-16,-113,-107,74,17,37,22,-18,120,-11,14,24,28,26, 
  /* [9][0][][] */ -20,15,-9,36,17,-25,-4,8,68,-36,23,67,-63,5,13,5,-8,19,-31,-31,59,-4,-16,-12,6,9,41,-16,8,19,18,-10,6,19,74,-100,-4,-127,-81,13,-18,33,58,6,5,2,-5,-51, 
  /* [10][0][][] */ -21,-18,-26,-123,43,86,5,-21,5,22,22,1,55,-60,-26,22,42,-38,66,-25,17,-24,38,48,-54,-127,6,-37,49,33,54,-35,-18,-83,25,-8,8,-30,-1,-34,-36,-60,-4,24,4,24,14,-34, 
  /* [11][0][][] */ 2,76,14,88,34,-66,-62,-12,19,76,23,25,-19,90,7,-86,29,50,-5,5,-56,-121,14,1,22,-52,48,-21,83,-26,26,-127,61,-5,-36,-107,104,22,-5,-125,-4,63,127,-74,13,-61,56,32, 
  /* [12][0][][] */ 121,-12,-24,11,-5,23,5,101,23,0,-62,-25,-2,12,-15,-12,-13,-1,-12,-2,4,1,3,17,-6,10,-7,8,-3,10,-8,4,-1,-76,-11,6,-14,-21,-25,-14,-20,-80,-2,-127,-47,-12,84,-5, 
  /* [13][0][][] */ 16,-4,1,4,11,-13,3,-2,-7,13,2,23,1,2,5,3,7,5,13,7,18,-13,9,1,0,-2,14,127,13,-8,9,-6,5,0,-47,25,7,-5,1,-17,-13,-1,2,9,4,-4,-12,-18, 
  /* [14][0][][] */ 64,-26,40,-60,55,21,28,-92,-56,-55,-29,111,-59,-33,48,6,47,31,-31,58,28,5,68,-4,11,58,-41,-102,26,-45,67,65,-8,71,-127,-50,-44,42,92,4,-17,16,47,-7,-16,6,5,-46, 
  /* [15][0][][] */ -17,-56,-73,-27,47,26,73,-50,-5,35,-3,-24,94,32,-94,51,47,61,68,-82,-91,-15,50,-15,-86,47,20,51,57,37,39,-49,21,59,69,127,-28,-117,-11,-34,82,47,93,-61,3,-37,-13,64, 
};
const TfArray<4, int> tensor_dimension21 = { 4, { 16,1,1,48 } };
const TfArray<16, float> quant21_scale = { 16, { 0.0260330680757761, 0.032271347939968109, 0.042718604207038879, 0.046056974679231644, 0.031847152858972549, 0.046617690473794937, 0.038451530039310455, 0.025378433987498283, 0.030174549669027328, 0.023185422644019127, 0.033217616379261017, 0.019056031480431557, 0.045454885810613632, 0.046160727739334106, 0.022433415055274963, 0.01859721727669239, } };
const TfArray<16, int> quant21_zero = { 16, { 0,0,0,0,0,0,0,0,0,0,0,0,0,0,0,0 } };
const TfLiteAffineQuantization quant21 = { (TfLiteFloatArray*)&quant21_scale, (TfLiteIntArray*)&quant21_zero, 0 };
const ALIGN(16) int32_t tensor_data22[48] = { 2453, 40043, -768, 59701, 3987, 131312, -618, 44045, 4871, 34848, 27035, 5806, 2258, 34983, -3551, -1257, -168, 3386, 3283, -1629, 894, -4842, 1692, -21673, -4505, 43878, 139267, 107286, 1516, 4521, -3838, -477, 24166, 1262, 50251, 5715, 50050, -1366, 64273, 1644, 2461, 64494, 1053, 3270, 49929, -620, 521, 48389, };
const TfArray<1, int> tensor_dimension22 = { 1, { 48 } };
const TfArray<48, float> quant22_scale = { 48, { 7.5665033364202827e-05, 3.0219292966648936e-05, 0.00015800763503648341, 4.0920731407823041e-05, 0.00018526036001276225, 5.7804503740044311e-05, 0.00014929882308933884, 0.00013300892896950245, 6.6434768086764961e-05, 3.3896380045916885e-05, 3.8135582144604996e-05, 7.8738135925959796e-05, 3.9181853935588151e-05, 3.5789107641903684e-05, 0.00019964337116107345, 0.00020693796977866441, 0.0001791299000615254, 5.4698881285730749e-05, 9.6197174570988864e-05, 0.00012647040421143174, 6.9010908191557974e-05, 0.00021864083828404546, 0.0001152109180111438, 0.00012243574019521475, 7.8988450695760548e-05, 0.00010294689855072647, 3.1149964343057945e-05, 6.4670544816181064e-05, 0.00013443970237858593, 9.6806383226066828e-05, 0.00012242337106727064, 0.00016325015167240053, 4.0605256799608469e-05, 0.00010614811617415398, 2.4357117581530474e-05, 4.6835335524519905e-05, 0.00011379321222193539, 0.00011168490891577676, 8.8143111497629434e-05, 9.587621025275439e-05, 8.3711776824202389e-05, 9.1246525698807091e-05, 8.1737271102610976e-05, 8.6979496700223535e-05, 3.2460822694702074e-05, 0.00017218840366695076, 0.00010599200322758406, 2.8924716389155947e-05, } };
const TfArray<48, int> quant22_zero = { 48, { 0,0,0,0,0,0,0,0,0,0,0,0,0,0,0,0,0,0,0,0,0,0,0,0,0,0,0,0,0,0,0,0,0,0,0,0,0,0,0,0,0,0,0,0,0,0,0,0 } };
const TfLiteAffineQuantization quant22 = { (TfLiteFloatArray*)&quant22_scale, (TfLiteIntArray*)&quant22_zero, 0 };
const ALIGN(16) int8_t tensor_data23[1*3*3*48] = { 
  /* [0][0][][] */ 68,-96,100,71,54,-33,106,-65,61,-91,-78,50,54,-42,-70,-88,100,79,51,78,66,-71,-84,53,-30,-41,-70,-64,-65,63,-62,-111,-14,42,71,64,-66,52,-51,-21,50,-73,61,62,-96,12,77,-32, 82,-98,127,85,-77,-69,-60,-84,95,-103,-63,74,82,-110,-92,93,-38,98,83,127,86,-110,51,72,-50,-79,-73,-79,56,80,-29,-127,-85,80,82,84,-84,83,-81,-15,76,-93,85,90,-74,-127,95,-101, 35,-49,69,37,18,-41,-51,-37,42,-33,4,36,32,-81,-55,0,-52,37,35,71,34,-52,29,27,-28,-49,-50,-24,33,34,89,-87,-84,45,38,34,-30,40,-38,-9,42,-40,36,46,-8,-8,38,-75, 
