/* Generated by Edge Impulse
 *
 * Permission is hereby granted, free of charge, to any person obtaining a copy
 * of this software and associated documentation files (the "Software"), to deal
 * in the Software without restriction, including without limitation the rights
 * to use, copy, modify, merge, publish, distribute, sublicense, and/or sell
 * copies of the Software, and to permit persons to whom the Software is
 * furnished to do so, subject to the following conditions:
 *
 * The above copyright notice and this permission notice shall be included in
 * all copies or substantial portions of the Software.
 *
 * THE SOFTWARE IS PROVIDED "AS IS", WITHOUT WARRANTY OF ANY KIND, EXPRESS OR
 * IMPLIED, INCLUDING BUT NOT LIMITED TO THE WARRANTIES OF MERCHANTABILITY,
 * FITNESS FOR A PARTICULAR PURPOSE AND NONINFRINGEMENT. IN NO EVENT SHALL THE
 * AUTHORS OR COPYRIGHT HOLDERS BE LIABLE FOR ANY CLAIM, DAMAGES OR OTHER
 * LIABILITY, WHETHER IN AN ACTION OF CONTRACT, TORT OR OTHERWISE, ARISING FROM,
 * OUT OF OR IN CONNECTION WITH THE SOFTWARE OR THE USE OR OTHER DEALINGS IN THE
 * SOFTWARE.
 */
// Generated on: 05.04.2024 11:07:10

#include <stdio.h>
#include <stdlib.h>
#include "edge-impulse-sdk/tensorflow/lite/c/builtin_op_data.h"
#include "edge-impulse-sdk/tensorflow/lite/c/common.h"
#include "edge-impulse-sdk/tensorflow/lite/micro/micro_mutable_op_resolver.h"
#include "edge-impulse-sdk/porting/ei_classifier_porting.h"

#if EI_CLASSIFIER_PRINT_STATE
#if defined(__cplusplus) && EI_C_LINKAGE == 1
extern "C" {
    extern void ei_printf(const char *format, ...);
}
#else
extern void ei_printf(const char *format, ...);
#endif
#endif

#if defined __GNUC__
#define ALIGN(X) __attribute__((aligned(X)))
#elif defined _MSC_VER
#define ALIGN(X) __declspec(align(X))
#elif defined __TASKING__
#define ALIGN(X) __align(X)
#elif defined __ICCARM__
#define ALIGN(x) __attribute__((aligned(x)))
#endif

#ifndef EI_MAX_SCRATCH_BUFFER_COUNT
#ifndef CONFIG_IDF_TARGET_ESP32S3
#define EI_MAX_SCRATCH_BUFFER_COUNT 4
#else
#define EI_MAX_SCRATCH_BUFFER_COUNT 4
#endif // CONFIG_IDF_TARGET_ESP32S3
#endif // EI_MAX_SCRATCH_BUFFER_COUNT

#ifndef EI_MAX_OVERFLOW_BUFFER_COUNT
#define EI_MAX_OVERFLOW_BUFFER_COUNT 10
#endif // EI_MAX_OVERFLOW_BUFFER_COUNT

using namespace tflite;
using namespace tflite::ops;
using namespace tflite::ops::micro;

namespace {

#if defined(EI_CLASSIFIER_ALLOCATION_STATIC_HIMAX) || defined(EI_CLASSIFIER_ALLOCATION_STATIC_HIMAX_GNU)
constexpr int kTensorArenaSize = 906464;
#else
constexpr int kTensorArenaSize = 905440;
#endif

#if defined(EI_CLASSIFIER_ALLOCATION_STATIC)
uint8_t tensor_arena[kTensorArenaSize] ALIGN(16);
#elif defined(EI_CLASSIFIER_ALLOCATION_STATIC_HIMAX)
#pragma Bss(".tensor_arena")
uint8_t tensor_arena[kTensorArenaSize] ALIGN(16);
#pragma Bss()
#elif defined(EI_CLASSIFIER_ALLOCATION_STATIC_HIMAX_GNU)
uint8_t tensor_arena[kTensorArenaSize] ALIGN(16) __attribute__((section(".tensor_arena")));
#else
#define EI_CLASSIFIER_ALLOCATION_HEAP 1
uint8_t* tensor_arena = NULL;
#endif

static uint8_t* tensor_boundary;
static uint8_t* current_location;

template <int SZ, class T> struct TfArray {
  int sz; T elem[SZ];
};

enum used_operators_e {
  OP_CONV_2D, OP_DEPTHWISE_CONV_2D, OP_PAD, OP_ADD, OP_SOFTMAX,  OP_LAST
};

struct TensorInfo_t { // subset of TfLiteTensor used for initialization from constant memory
  TfLiteAllocationType allocation_type;
  TfLiteType type;
  void* data;
  TfLiteIntArray* dims;
  size_t bytes;
};

typedef struct {
  TfLiteTensor tensor;
  int16_t index;
} TfLiteTensorWithIndex;

typedef struct {
  TfLiteEvalTensor tensor;
  int16_t index;
} TfLiteEvalTensorWithIndex;

TfLiteContext ctx{};
static const int MAX_TFL_TENSOR_COUNT = 4;
static TfLiteTensorWithIndex tflTensors[MAX_TFL_TENSOR_COUNT];
static const int MAX_TFL_EVAL_COUNT = 4;
static TfLiteEvalTensorWithIndex tflEvalTensors[MAX_TFL_EVAL_COUNT];
TfLiteRegistration registrations[OP_LAST];

namespace g0 {
const TfArray<4, int> tensor_dimension0 = { 4, { 1,96,96,3 } };
const ALIGN(16) float tensor_data1[16] = { -1.40682053565979, 2.4650189876556396, -17.26226806640625, 0.89787483215332031, 3.2008275985717773, 3.5450954437255859, 3.1909632682800293, 1.9808187484741211, -1.0263628959655762, 1.8730084896087646, 3.0239489078521729, 5.7991151809692383, -1.2384405136108398, 3.8809847831726074, 2.7168641090393066, -0.13350634276866913, };
const TfArray<1, int> tensor_dimension1 = { 1, { 16 } };
const ALIGN(16) float tensor_data2[16] = { -0.30109995603561401, 2.5957496166229248, 4.0117554664611816, 3.5183660984039307, 1.7939013242721558, 3.3175806999206543, 5.2372126579284668, 3.9040431976318359, -0.22774767875671387, 1.8593088388442993, 5.8671183586120605, 10.428902626037598, -0.32396247982978821, 6.264984130859375, 2.1295878887176514, -0.41642889380455017, };
const TfArray<1, int> tensor_dimension2 = { 1, { 16 } };
const ALIGN(16) float tensor_data3[48] = { 2.1014490127563477, 0.048482891172170639, 3.1585097312927246, 1.868248462677002, 1.9819574356079102, 2.0826404094696045, 3.7960798740386963, -0.043458778411149979, 0.0043107615783810616, -0.7716260552406311, 1.506100058555603, 0.88722467422485352, 2.2219104766845703, -0.16218365728855133, 2.5995402336120605, 3.2958543300628662, -0.1309230625629425, -0.69849056005477905, -0.21054810285568237, 3.865401029586792, 1.0425660610198975, -0.083328977227210999, 0.020062655210494995, 0.65140247344970703, 3.7691552639007568, -0.53629326820373535, 0.14260201156139374, 1.2149722576141357, 1.137779712677002, 2.9405882358551025, 2.9471509456634521, 2.366525411605835, 0.75553810596466064, 3.2198736667633057, 0.15648499131202698, -1.2028268575668335, 1.5106453895568848, 1.2786420583724976, -0.41251474618911743, 3.4743361473083496, 2.8628811836242676, 2.2570316791534424, -0.18771727383136749, -0.83614575862884521, 5.0055437088012695, 0.075748994946479797, 2.8160624504089355, 0.8546338677406311, };
const TfArray<1, int> tensor_dimension3 = { 1, { 48 } };
const ALIGN(16) float tensor_data4[48] = { 6.0674166679382324, 3.9947867393493652, 7.7987127304077148, 4.9047408103942871, -0.067266158759593964, 2.551948070526123, 0.28261670470237732, 1.6973896026611328, 2.2358884811401367, 0.87415552139282227, 2.1451346874237061, 0.0041396021842956543, -8.3528404235839844, -0.70510011911392212, 2.6162641048431396, 0.14826837182044983, -0.56034213304519653, 0.82480150461196899, 0.088293850421905518, 0.17442098259925842, -1.6331909894943237, 1.839421272277832, 5.9692997932434082, 1.3879776000976562, -2.0336999893188477, 2.9033324718475342, 1.3977518081665039, 0.9876677393913269, -0.69775277376174927, 0.76888757944107056, -0.3068464994430542, -9.4619741439819336, 2.4294683933258057, 1.0239138603210449, 2.4031982421875, 0.26540264487266541, 0.8504490852355957, -0.033069729804992676, 4.7327818870544434, -2.1622846126556396, 0.88318532705307007, -5.0822768211364746, 0.14790120720863342, 1.024762749671936, -0.27170294523239136, 5.9595422744750977, 0.2546728253364563, -2.5500137805938721, };
const TfArray<1, int> tensor_dimension4 = { 1, { 48 } };
const ALIGN(16) float tensor_data5[48] = { 4.3410706520080566, 2.2619235515594482, 1.5745657682418823, 3.2061290740966797, 2.2554388046264648, 5.0207533836364746, -1.9289196729660034, -0.29026564955711365, 0.58295375108718872, 1.3699483871459961, 2.2387197017669678, 0.13900288939476013, 0.95087713003158569, -0.47561836242675781, 0.4260384738445282, -3.614487886428833, 1.6453522443771362, 4.2182207107543945, -0.5228428840637207, 2.7382919788360596, 1.1944001913070679, 0.96567291021347046, 3.9703805446624756, -0.54161769151687622, 1.2376190423965454, 1.1629419326782227, 4.0461187362670898, 3.6591167449951172, -0.087527953088283539, -2.5909833908081055, 0.051571466028690338, 0.80628067255020142, -1.9887629747390747, 2.1841979026794434, 1.0610514879226685, 1.8675132989883423, 3.6572122573852539, 1.3821207284927368, 2.3566551208496094, 4.5566835403442383, -0.59742683172225952, 2.7693493366241455, 0.46626999974250793, 1.512730598449707, 1.200523853302002, 1.0934270620346069, -1.1472694873809814, 2.6935408115386963, };
const TfArray<1, int> tensor_dimension5 = { 1, { 48 } };
const ALIGN(16) float tensor_data6[48] = { -16.842555999755859, -0.021301582455635071, 1.6922738552093506, -0.068566083908081055, 0.70635563135147095, -0.46535652875900269, 1.2203395366668701, 3.4812037944793701, 0.20255640149116516, 4.915555477142334, -0.18118211627006531, 4.2905735969543457, -1.6738060712814331, -0.20723482966423035, 2.5077431201934814, 1.5715415477752686, 0.14570215344429016, 3.785820484161377, 2.3076303005218506, 2.0850164890289307, -0.046983465552330017, -0.041949845850467682, -0.052067860960960388, 2.0714712142944336, -1.4312819242477417, 3.6086602210998535, 26.386970520019531, 3.3826854228973389, 0.58452397584915161, 0.83917534351348877, -0.18334165215492249, 0.17478258907794952, 0.87308573722839355, 2.844569206237793, -1.2297412157058716, 2.4653341770172119, -3.6757807731628418, 2.6664695739746094, -6.0644474029541016, 2.6104001998901367, 3.2270045280456543, 1.0919840335845947, 1.6167713403701782, -0.2275719940662384, 2.3708035945892334, 0.32014495134353638, 0.26831993460655212, -0.015643462538719177, };
const TfArray<1, int> tensor_dimension6 = { 1, { 48 } };
const ALIGN(16) float tensor_data7[48] = { 0.26318392157554626, 0.72362911701202393, 0.53317338228225708, 0.17835031449794769, 2.1578724384307861, 4.073704719543457, 1.126126766204834, -0.0050636045634746552, -0.28931811451911926, -0.44067856669425964, 1.0247833728790283, 0.27836710214614868, 1.242586612701416, 0.75034630298614502, 3.5919137001037598, 1.2301421165466309, 0.5223347544670105, -0.41327846050262451, -0.07100241631269455, 0.87761670351028442, -0.58053988218307495, 2.5348467826843262, 3.686384916305542, 1.5522705316543579, 1.5645288228988647, 0.055550243705511093, 6.9488391876220703, 1.8831764459609985, 1.7486892938613892, -0.22240374982357025, 2.5907347202301025, 1.1938056945800781, 0.37520191073417664, -0.072169609367847443, 3.691932201385498, 1.812863826751709, -1.37135910987854, 0.091226473450660706, -0.11828229576349258, 1.842490553855896, 0.13411231338977814, -0.12648043036460876, -0.2688581645488739, -0.021265126764774323, 1.961799144744873, 1.3653600215911865, 0.24238273501396179, 1.1759499311447144, };
const TfArray<1, int> tensor_dimension7 = { 1, { 48 } };
const ALIGN(16) float tensor_data8[48] = { 0.083290934562683105, 1.5942745208740234, -0.21923097968101501, 2.1118967533111572, 0.55172896385192871, 7.1876468658447266, -0.25877392292022705, 6.0096774101257324, 0.099330902099609375, 1.4007326364517212, 1.2559340000152588, 0.051191329956054688, -0.028769493103027344, 1.3504869937896729, -0.23896539211273193, -0.38229382038116455, -0.044539716094732285, -0.049315810203552246, -0.024126648902893066, -0.24615265429019928, -0.090631097555160522, -0.31229057908058167, -0.083338066935539246, -1.9288047552108765, -0.4585004448890686, 4.6029438972473145, 4.2005701065063477, 7.4864325523376465, 0.26646941900253296, 0.56437075138092041, -0.16052395105361938, -0.0019770562648773193, 1.2200183868408203, -0.0015072822570800781, 1.1351892948150635, -0.51574873924255371, 5.8428773880004883, 0.016946554183959961, 5.990626335144043, 0.097024768590927124, 0.043095529079437256, 6.0416254997253418, -0.24640953540802002, 0.17525988817214966, 1.868923544883728, -0.060435265302658081, 0.043961524963378906, 1.6308472156524658, };
const TfArray<1, int> tensor_dimension8 = { 1, { 48 } };
const ALIGN(16) float tensor_data9[96] = { 2.616480827331543, 0.31609863042831421, 1.3360831737518311, -0.55530625581741333, 1.6075968742370605, 0.90899693965911865, 3.1600720882415771, 3.5273876190185547, -0.43304550647735596, 1.8036125898361206, 1.4167023897171021, 0.7912406325340271, 2.7468080520629883, 4.8356132507324219, -0.07173880934715271, -0.66788679361343384, 2.2407228946685791, 2.3534336090087891, 0.45459559559822083, -0.10259313881397247, -0.23632334172725677, 2.4900283813476562, 1.4555662870407104, 0.77948093414306641, 1.7415655851364136, 2.084216833114624, 1.4553089141845703, 0.94130635261535645, 0.038986466825008392, -0.030424043536186218, 1.4480437040328979, 1.8723280429840088, 1.9392075538635254, 1.0895833969116211, 1.6858208179473877, -0.27802112698554993, 2.2545778751373291, 2.6180124282836914, 0.44339311122894287, 0.9907335638999939, 0.51275026798248291, 1.8978860378265381, 2.1599409580230713, 0.75563186407089233, 1.1408346891403198, 3.2421448230743408, 2.8710660934448242, 1.440967321395874, 1.5865980386734009, 0.89304965734481812, 0.14375405013561249, -0.65915954113006592, 2.6492667198181152, 1.6226316690444946, 2.3603639602661133, 1.820062518119812, -0.14926420152187347, 1.7261812686920166, 0.79793989658355713, 1.6489783525466919, 1.665285587310791, 1.3632601499557495, 1.0178564786911011, 2.7889964580535889, 1.052153468132019, 1.1509252786636353, 1.9330626726150513, -0.36034032702445984, 2.69083571434021, 1.172878623008728, 2.0150167942047119, -0.45407718420028687, -0.39219012856483459, 1.2874479293823242, 0.41382947564125061, 1.2934021949768066, 2.375399112701416, 4.4573068618774414, 1.6389464139938354, -1.2295740842819214, 1.1052548885345459, -2.0999288558959961, -0.39900743961334229, 0.26176291704177856, 1.6169837713241577, 1.5390511751174927, 1.6256853342056274, 1.3810298442840576, 1.6875408887863159, 1.5750094652175903, 1.4130063056945801, 1.6738728284835815, 2.094146728515625, 2.7385289669036865, -2.9392738342285156, 3.3045883178710938, };
const TfArray<1, int> tensor_dimension9 = { 1, { 96 } };
const ALIGN(16) float tensor_data10[96] = { 1.878180980682373, -1.0405691862106323, 0.58684200048446655, 2.1211373805999756, -0.2889227569103241, -0.74105334281921387, -2.9241671562194824, 0.265647292137146, -0.39681777358055115, 0.43877366185188293, 0.39653345942497253, -0.60848331451416016, 0.16523841023445129, -2.60725998878479, 1.0218387842178345, -0.81781864166259766, -0.071761980652809143, 5.1810755729675293, 1.7914255857467651, 0.58559972047805786, 0.043688476085662842, -0.43690919876098633, -0.096682116389274597, 0.048587441444396973, 3.6009118556976318, -0.42270267009735107, -0.13741865754127502, -0.53571230173110962, -0.68962830305099487, -0.81713253259658813, 0.85992187261581421, -1.6256756782531738, -0.0012735016644001007, -0.1117575466632843, 0.077315926551818848, 2.3572027683258057, 0.47845572233200073, -0.27418568730354309, 0.92592567205429077, 0.022239714860916138, -0.032023161649703979, 0.76059556007385254, -3.075408935546875, -1.2185128927230835, -1.3024412393569946, 3.1289422512054443, -0.19786474108695984, 3.3462545871734619, 2.6480855941772461, -2.1976277828216553, 0.080448463559150696, 1.2529827356338501, 1.793809175491333, -0.0003217160701751709, -1.4985542297363281, 0.71851325035095215, -3.8213653564453125, 0.27342289686203003, 0.25836122035980225, -0.57070803642272949, -0.36060139536857605, -0.097184397280216217, -3.2163772583007812, -0.067941345274448395, 0.28014355897903442, 2.9095697402954102, 2.5801138877868652, 1.7786059379577637, -3.978766918182373, 0.068932697176933289, -1.5938848257064819, -0.13111656904220581, 5.8605976104736328, 1.2622653245925903, -0.037104964256286621, 0.32540515065193176, 10.004115104675293, 1.7738187313079834, -0.24024990200996399, -1.8911783695220947, -0.24267669022083282, -2.1640317440032959, 0.073634356260299683, -0.42024910449981689, 0.1082441657781601, -0.009675145149230957, 0.1494421660900116, -0.13034871220588684, 0.38274362683296204, -0.37995928525924683, 0.10541649162769318, -0.15980896353721619, 0.028148557990789413, -0.16950392723083496, 1.312740683555603, 3.7312028408050537, };
const TfArray<1, int> tensor_dimension10 = { 1, { 96 } };
const ALIGN(16) float tensor_data11[96] = { 0.39203140139579773, 1.4742147922515869, 1.9032719135284424, 2.3203649520874023, 2.9538130760192871, -0.9905930757522583, -0.81781750917434692, 1.6133601665496826, 2.3013772964477539, -1.3540956974029541, 2.6771800518035889, 0.85232096910476685, 1.2769279479980469, 2.3325455188751221, 2.3601043224334717, 0.56014108657836914, 0.4701387882232666, 1.2425051927566528, 2.1942939758300781, 1.1715354919433594, -0.047895833849906921, 0.25937625765800476, 1.9968547821044922, -0.6206851601600647, 2.5697932243347168, 0.026004351675510406, 2.2532927989959717, 1.3979315757751465, 1.6106598377227783, 3.5260734558105469, 2.8446533679962158, 2.5120096206665039, 1.6658600568771362, -0.20813049376010895, 2.001939058303833, 0.58794718980789185, 0.50975430011749268, 1.4446671009063721, 2.6404275894165039, -0.56728285551071167, 1.868100643157959, 1.5330607891082764, 2.7247018814086914, -1.0550261735916138, 3.2649562358856201, 1.5270364284515381, 1.7228554487228394, 2.708676815032959, 4.1123080253601074, 2.0898239612579346, -0.11322823911905289, 1.6834346055984497, -1.0498714447021484, -0.068277604877948761, -1.0248802900314331, 1.0744477510452271, -0.13034354150295258, 1.863959789276123, 2.0191221237182617, 1.4706469774246216, 1.6116019487380981, 1.3502517938613892, 1.4605202674865723, 0.99504745006561279, 2.4908266067504883, 1.9284970760345459, 1.3194093704223633, -1.3067470788955688, 1.6988722085952759, -0.71708732843399048, 1.066354513168335, 1.5875444412231445, 2.1044888496398926, 1.04229736328125, -1.5531314611434937, -1.3319358825683594, 1.6784142255783081, 0.10584530979394913, 0.77453786134719849, -0.36905694007873535, 2.0062038898468018, 1.6815026998519897, 0.85914415121078491, 1.9636228084564209, 1.146343469619751, 0.092264018952846527, 2.3369512557983398, 3.8719210624694824, 1.4097031354904175, 2.2821559906005859, 1.2944390773773193, -0.048715401440858841, 1.4800710678100586, 1.6186457872390747, 1.1477571725845337, 1.6787958145141602, };
const TfArray<1, int> tensor_dimension11 = { 1, { 96 } };
const ALIGN(16) float tensor_data12[96] = { 2.3299031257629395, 5.7289276123046875, -0.13361027836799622, -0.11409614235162735, 3.424339771270752, -0.80114549398422241, -0.030377045273780823, -0.10062456130981445, 1.2359588146209717, 2.3644492626190186, -1.194156289100647, -0.054033361375331879, 0.27686050534248352, 1.5920871496200562, 2.0662808418273926, -1.4519706964492798, -0.91122317314147949, -0.089793220162391663, 0.11927945911884308, 1.0471781492233276, -0.86003929376602173, 0.90874552726745605, -0.36998739838600159, 0.68244880437850952, 1.8538162708282471, 0.018077343702316284, -0.91713953018188477, 3.2849664688110352, 1.0747388601303101, -9.1049900054931641, 0.72729402780532837, 6.1461915969848633, 3.1941699981689453, -1.6811808347702026, 0.53540849685668945, 0.32735252380371094, -0.030199587345123291, -0.13309341669082642, 1.2413655519485474, -0.75530409812927246, -1.2545654773712158, -0.26558303833007812, -3.3729233741760254, -0.0058686584234237671, 10.607649803161621, -0.19107851386070251, 1.4529275894165039, -0.31658905744552612, -9.8612499237060547, 0.12071307003498077, -0.0023112762719392776, -0.10167613625526428, -0.54617547988891602, 2.8358101844787598, -0.8594505786895752, 1.7977845668792725, 2.8158175945281982, 0.10941535234451294, 1.57826828956604, -0.068391107022762299, -2.8502166271209717, -0.38200855255126953, 0.1371123343706131, -0.030768722295761108, -0.2183515727519989, 1.7928162813186646, -0.26927071809768677, -2.2355599403381348, -0.62040841579437256, 0.39779895544052124, -0.048898190259933472, -0.42427369952201843, 0.17792242765426636, 0.03990347683429718, -0.71432459354400635, -1.8932754993438721, -0.077330172061920166, -0.26095551252365112, 2.580547571182251, -1.2615013122558594, -1.3875910043716431, -2.8564250469207764, 0.044738724827766418, 0.036542683839797974, 3.5366663932800293, -1.4807813167572021, -0.89900034666061401, -13.991122245788574, -1.6080877780914307, 1.0690388679504395, -0.82036745548248291, 1.1983110904693604, 0.043776832520961761, -0.22456631064414978, -1.1515753269195557, 0.25722932815551758, };
const TfArray<1, int> tensor_dimension12 = { 1, { 96 } };
const ALIGN(16) float tensor_data13[96] = { -0.64424067735671997, 1.5657901763916016, 2.3993268013000488, 0.85092151165008545, -1.0158078670501709, -1.4755030870437622, 3.3038525581359863, 0.71633040904998779, 0.60876119136810303, -0.6602015495300293, 1.9941142797470093, -0.033367279917001724, -2.5626249313354492, 2.8289370536804199, 3.0914700031280518, 1.1567374467849731, 1.8702152967453003, 1.4517117738723755, -1.9742896556854248, -1.6807034015655518, 0.61992478370666504, 2.7111825942993164, 3.0725927352905273, 1.6827408075332642, 0.21687306463718414, 0.47884738445281982, 2.9755151271820068, 1.0732860565185547, 0.50617426633834839, -1.980047345161438, 1.4678758382797241, -0.76177471876144409, -0.053918119519948959, 1.1380857229232788, 0.015734808519482613, 0.27604278922080994, 1.9159284830093384, 1.0765441656112671, -0.63055133819580078, 1.7827938795089722, 1.2846142053604126, 2.588493824005127, 1.5070935487747192, 2.3236594200134277, 1.9129302501678467, 1.0135476589202881, 0.51421761512756348, 2.1690618991851807, 1.351436972618103, -1.2819664478302002, -1.5553772449493408, 0.10028441250324249, -0.13389746844768524, -0.3008689284324646, 0.78375869989395142, -0.019543442875146866, 0.076912239193916321, -0.26347330212593079, -1.5461270809173584, 1.8620022535324097, -0.75465965270996094, 0.65508908033370972, -0.27429547905921936, -0.78067761659622192, -1.8528792858123779, 1.9202288389205933, 2.1754472255706787, 0.40792685747146606, -1.1583939790725708, 0.33050614595413208, 0.38304510712623596, 0.52875691652297974, 1.3546053171157837, -0.42369130253791809, 0.19710031151771545, 2.1653704643249512, -0.13695701956748962, 1.8668409585952759, 1.8223531246185303, -0.18125724792480469, 1.4759231805801392, 0.32604086399078369, -0.073914311826229095, 0.24794206023216248, 1.8082053661346436, 2.3855135440826416, 2.3371732234954834, 0.27136218547821045, 0.70861625671386719, 2.034670352935791, -0.081794142723083496, -1.9738507270812988, 0.21949648857116699, -0.99658221006393433, -0.609893798828125, -0.40219196677207947, };
const TfArray<1, int> tensor_dimension13 = { 1, { 96 } };
const ALIGN(16) float tensor_data14[32] = { -0.018207967281341553, 0.0031338990665972233, -0.0088006863370537758, 0.0014044666895642877, 0.011464347131550312, 0.0025308644399046898, 0.0016719992272555828, 0.00033627098309807479, 0.0040630768053233624, 0.00030856611556373537, 0.011849359609186649, -0.001884806901216507, 0.0035130297765135765, -0.012035536579787731, 0.062258865684270859, -0.016241079196333885, 0.00064940645825117826, -0.0061979810707271099, -0.018637971952557564, -0.0020939644891768694, -0.0068852831609547138, 0.022492526099085808, 0.0091303903609514236, -0.0019631125032901764, -0.0049531860277056694, 0.05755079910159111, 0.00145673134829849, 0.00098864815663546324, 0.056138049811124802, -0.021646937355399132, -0.013563770800828934, -0.025813156738877296, };
const TfArray<1, int> tensor_dimension14 = { 1, { 32 } };
const ALIGN(16) float tensor_data15[1*3*3*16] = { 
  /* [0][0][][] */ -8.5695571899414062,0.10796735435724258,-0.52862703800201416,-1.5395023822784424,0.27909201383590698,-0.18906883895397186,1.1181563138961792,-0.49564981460571289,-0.072255298495292664,-0.034990079700946808,-0.066068500280380249,0.90495550632476807,-3.9252877235412598,0.044368963688611984,0.36979416012763977,-12.109872817993164, 4.0267438888549805,0.14382079243659973,-0.81353753805160522,1.5446494817733765,0.91798907518386841,-0.35944211483001709,1.7841694355010986,-0.83058446645736694,-0.068053007125854492,1.4004004001617432,-1.0574376583099365,1.6151485443115234,-3.2424850463867188,0.050321385264396667,0.8708726167678833,-4.0818142890930176, 1.9072631597518921,-0.13880215585231781,0.57401895523071289,-0.025270070880651474,-0.52295523881912231,0.18927380442619324,-1.3337942361831665,0.50973111391067505,-0.076157063245773315,-0.30192849040031433,0.029543692246079445,-0.50795382261276245,1.895155668258667,0.010691461153328419,-0.69710266590118408,-4.7821164131164551, 
  /* [0][1][][] */ -10.087335586547852,0.73448950052261353,-0.14480927586555481,0.16318850219249725,-0.31726592779159546,0.044959262013435364,-0.40621468424797058,0.09287475049495697,-0.022259145975112915,0.0044136396609246731,0.024332601577043533,-3.4139425754547119,-1.515388011932373,0.082088679075241089,-0.2036869078874588,-2.3038740158081055, -6.2179684638977051,-0.23878517746925354,-0.36750394105911255,-0.17740596830844879,-0.055452913045883179,-0.0720701664686203,0.10795987397432327,-0.17897289991378784,-0.08681032806634903,-0.98247766494750977,0.17093367874622345,-0.36500304937362671,-3.2171955108642578,-1.2489794492721558,0.004848832730203867,3.8089182376861572, 1.1119179725646973,0.0070626451633870602,0.40940731763839722,0.024810012429952621,0.018770709633827209,0.095705762505531311,-0.35999524593353271,0.21947391331195831,-0.10214624553918839,0.070722952485084534,-0.016403928399085999,0.026765564456582069,-0.66196262836456299,0.11332104355096817,-0.027199931442737579,7.1796369552612305, 
  /* [0][2][][] */ -9.1553964614868164,-0.41815474629402161,0.43279901146888733,0.025989433750510216,-0.047177433967590332,0.11055553704500198,-0.55431556701660156,0.3428422212600708,-0.061302255839109421,0.0023317949380725622,-0.0028370970394462347,0.14618849754333496,1.2398595809936523,0.015683570876717567,-0.18512840569019318,3.7542333602905273, 1.8149527311325073,-0.023451404646039009,0.19560274481773376,-0.020116569474339485,-0.19610105454921722,0.11356829106807709,-0.48230189085006714,0.13674259185791016,-0.10054086148738861,-0.14476116001605988,-0.0027836603112518787,2.6371169090270996,-1.784921407699585,-0.0021842431742697954,-0.19575130939483643,-18.429813385009766, 1.6327332258224487,-0.040226098150014877,0.11650075763463974,-0.0011989686172455549,0.029245691373944283,0.040936388075351715,0.12345423549413681,0.1461130678653717,-0.092436544597148895,0.047708872705698013,-0.0090373754501342773,-3.9566175937652588,3.3074154853820801,0.024035174399614334,0.11578623205423355,-21.090656280517578, 
};
const TfArray<4, int> tensor_dimension15 = { 4, { 1,3,3,16 } };
const ALIGN(16) float tensor_data16[8] = { -2.3444266319274902, -90.013015747070312, -18.856744766235352, -14.109243392944336, -33.083850860595703, -2.4600138664245605, -35.231288909912109, -26.890176773071289, };
const TfArray<1, int> tensor_dimension16 = { 1, { 8 } };
const ALIGN(16) float tensor_data17[1*3*3*48] = { 
  /* [0][0][][] */ -0.15665045380592346,-0.061373874545097351,-0.033855132758617401,-0.086473062634468079,0.04830443486571312,-0.30244868993759155,-0.39862868189811707,-0.14835742115974426,-0.095315486192703247,-0.066898219287395477,0.02946191094815731,0.064031995832920074,0.2653924822807312,-16.692045211791992,0.25649237632751465,-0.37564224004745483,-13.208820343017578,-0.070603109896183014,0.16270063817501068,-0.040331371128559113,-0.0022673967760056257,-0.42766901850700378,-0.59865617752075195,-0.12959952652454376,-0.13370297849178314,-0.36241823434829712,-0.082536742091178894,-0.037360440939664841,0.86090147495269775,0.028408439829945564,0.1713927686214447,0.20304591953754425,-1.0415067672729492,-0.034805566072463989,-0.02710455097258091,0.41063374280929565,0.010460056364536285,0.87461996078491211,-0.15131504833698273,0.28764829039573669,-0.1840248703956604,-0.11145612597465515,0.61676722764968872,-0.046142466366291046,-0.013785401359200478,-0.12336547672748566,-0.76227200031280518,0.52448135614395142, 0.27152955532073975,0.035536698997020721,-0.14527714252471924,-0.14212192595005035,0.3282724916934967,-0.98937207460403442,-0.64221435785293579,-0.17787502706050873,0.21461036801338196,-0.10292549431324005,-0.35870638489723206,0.10550019145011902,0.28711786866188049,-19.226551055908203,-0.0025721713900566101,0.54613786935806274,-6.057316780090332,-0.095167174935340881,0.26297727227210999,0.052710156887769699,0.052341252565383911,-0.67382246255874634,-0.68564116954803467,-0.11454318463802338,-0.014493838883936405,-0.36793670058250427,-0.1555364727973938,-0.068335667252540588,-0.64878809452056885,0.039917677640914917,-0.10250277817249298,0.42950871586799622,0.23943637311458588,-0.050515778362751007,0.22822758555412292,0.64528512954711914,0.0071801310405135155,1.3107913732528687,-0.11148160696029663,0.46410953998565674,-0.30658382177352905,0.041135475039482117,0.72727984189987183,-0.053585052490234375,0.012106946669518948,-0.079364955425262451,-1.1163128614425659,0.46057376265525818, -0.11810511350631714,0.12383069843053818,0.03967636451125145,-0.028967179358005524,-0.35754626989364624,-0.84434604644775391,-0.29445824027061462,-0.037961497902870178,0.30721861124038696,-0.0096256043761968613,-0.39613792300224304,0.037387825548648834,0.060623545199632645,-16.737319946289062,-0.22654047608375549,-0.094687767326831818,-14.83458137512207,-0.020990235731005669,0.12184509634971619,0.088310375809669495,-0.075815923511981964,-0.45334523916244507,-0.19285064935684204,-0.038839630782604218,-0.040686320513486862,-0.083664506673812866,-0.074513673782348633,-0.021162595599889755,-0.11437240988016129,0.033551514148712158,-0.04430096223950386,0.074076563119888306,0.88336408138275146,-0.034107845276594162,0.2487911581993103,0.2349560409784317,0.0076257982291281223,0.65287685394287109,-0.0043382556177675724,0.058838963508605957,-0.18951264023780823,0.030805818736553192,0.046131663024425507,-0.032974094152450562,-0.094686657190322876,0.019696598872542381,-0.48491108417510986,0.070771418511867523, 
  /* [0][1][][] */ -0.31323876976966858,-0.36028552055358887,-0.22917883098125458,-0.2162487655878067,-0.050037521868944168,0.42330378293991089,0.50054061412811279,-0.23004652559757233,-0.095260769128799438,-0.14553636312484741,-0.061423711478710175,0.10827773064374924,0.68934494256973267,-15.169624328613281,0.060089059174060822,-0.85376936197280884,-14.175686836242676,-0.078073501586914062,0.3992164134979248,-0.5427519679069519,0.19727218151092529,-0.52688217163085938,-0.55764293670654297,-0.20698031783103943,0.16855905950069427,-0.34952819347381592,-0.10257358849048615,-0.065715104341506958,1.5351607799530029,-0.11837267875671387,0.22927312552928925,0.65424668788909912,-0.35326787829399109,-0.033043757081031799,-0.054254457354545593,0.65401947498321533,-0.019853187724947929,-1.4083114862442017,-0.12806896865367889,0.32688915729522705,0.099140919744968414,0.46555355191230774,0.60477757453918457,-0.045804038643836975,-0.52312421798706055,-0.41738563776016235,0.72664874792098999,0.5882488489151001, 0.46007615327835083,-0.23519426584243774,-0.66676533222198486,-0.62369322776794434,0.72062802314758301,0.31349685788154602,0.47369477152824402,-0.27894315123558044,0.36106434464454651,-0.17112414538860321,-0.34460261464118958,0.12188699096441269,0.96615320444107056,-3.3925542831420898,-0.01530604250729084,1.1189570426940918,-6.9975090026855469,-0.10630358010530472,0.56875431537628174,-0.90117716789245605,0.59760564565658569,-0.76624685525894165,-0.6451486349105835,-0.19367069005966187,0.50340014696121216,-0.29036909341812134,-0.16547451913356781,-0.21313531696796417,-1.4480421543121338,-0.25225332379341125,-0.12813189625740051,1.0016849040985107,0.23609782755374908,-0.044467918574810028,0.45024311542510986,0.99112474918365479,-0.038251925259828568,-2.345940113067627,-0.11696807295084,0.32866713404655457,0.14427541196346283,0.9937092661857605,0.73666810989379883,-0.049184463918209076,-0.6446186900138855,-0.44969311356544495,1.1059210300445557,0.6236991286277771, -0.19436727464199066,0.090018227696418762,-0.31669527292251587,-0.41753104329109192,-0.67010843753814697,-0.18375219404697418,0.15763098001480103,-0.08100765198469162,0.4552786648273468,-0.026374850422143936,-0.23333345353603363,0.033561147749423981,0.41923680901527405,-16.399894714355469,-0.057654384523630142,-0.38061824440956116,-4.3217730522155762,-0.024557655677199364,0.24289794266223907,-0.50271576642990112,0.26315978169441223,-0.4829353392124176,-0.20700930058956146,-0.038424335420131683,0.19066016376018524,-0.015795659273862839,-0.059821818023920059,-0.10156674683094025,0.18229694664478302,-0.17631067335605621,-0.0639076828956604,0.15555238723754883,0.24775096774101257,-0.039167735725641251,0.41609635949134827,0.17630532383918762,-0.019925652071833611,-1.1524219512939453,0.0017104849684983492,-0.051477935165166855,0.086447499692440033,0.42616820335388184,0.0551421158015728,-0.031242068856954575,-0.32870274782180786,-0.13139708340167999,0.57650971412658691,0.17201271653175354, 
  /* [0][2][][] */ -0.22299595177173615,-0.30374625325202942,-0.17998635768890381,-0.16176234185695648,0.0061209299601614475,0.27300018072128296,-0.023727545514702797,-0.073769137263298035,-0.13542324304580688,-0.078223928809165955,-0.048877812922000885,0.056448433548212051,0.58651262521743774,-29.910606384277344,-0.28716772794723511,-0.56853026151657104,-5.0532617568969727,-0.015483522787690163,0.28245168924331665,0.53281867504119873,0.2435479611158371,-0.18990229070186615,-0.070444293320178986,-0.097114279866218567,0.1265847235918045,-0.16283214092254639,-0.012560299597680569,-0.098794452846050262,0.91219502687454224,0.056019991636276245,0.13990706205368042,0.48582413792610168,0.89374041557312012,-0.010330933146178722,-0.13690951466560364,-0.082707643508911133,-0.053069114685058594,0.63711822032928467,-0.020368233323097229,0.1134759783744812,0.021196238696575165,0.30023470520973206,0.08592621237039566,-0.023927550762891769,0.55256062746047974,-0.27553340792655945,0.031597055494785309,0.1525709331035614, 0.31656038761138916,-0.20901340246200562,-0.4697449803352356,-0.41075149178504944,0.46256223320960999,0.14721305668354034,0.035032574087381363,-0.10070166736841202,0.1730034351348877,-0.095708683133125305,-0.09837593138217926,0.052623830735683441,0.63082247972488403,-6.0131850242614746,0.034892760217189789,0.81196886301040649,-2.8593630790710449,-0.025946341454982758,0.34634017944335938,0.83990204334259033,0.37727546691894531,-0.31494581699371338,-0.10144226253032684,-0.092804364860057831,0.36601671576499939,-0.20028911530971527,-0.022970907390117645,-0.16367818415164948,-0.61455780267715454,0.077201381325721741,-0.081351377069950104,0.88054758310317993,-0.14398276805877686,-0.019544564187526703,0.23539204895496368,0.041468724608421326,-0.070881538093090057,0.90690505504608154,-0.018394244834780693,-0.001452474039979279,0.023614387959241867,0.25401172041893005,0.082662828266620636,-0.028480475768446922,0.73408496379852295,-0.35408768057823181,-0.10846296697854996,0.19467456638813019, -0.10534892976284027,0.084083639085292816,-0.22089192271232605,-0.17415456473827362,-0.44624486565589905,-0.14134570956230164,0.11255922913551331,-0.02312815934419632,0.21385927498340607,-0.0053219832479953766,-0.038315910845994949,0.030344946309924126,0.23383493721485138,-10.07728099822998,0.2492978572845459,-0.25240463018417358,-10.878596305847168,-0.0033670517150312662,0.13342732191085815,0.42522773146629333,0.34222319722175598,-0.16391052305698395,-0.0086001018062233925,-0.0047535207122564316,0.16710445284843445,0.0034347875043749809,-0.0044119120575487614,-0.1085582822561264,-0.16889002919197083,0.056035153567790985,-0.035735800862312317,0.31494170427322388,-0.73597890138626099,-0.017240338027477264,0.23197929561138153,0.017533410340547562,-0.010800672695040703,0.3816092312335968,0.033532451838254929,-0.13764177262783051,0.015190686099231243,0.28356167674064636,-0.036332368850708008,-0.0067666522227227688,0.36271685361862183,-0.12340328097343445,-0.037544038146734238,0.085471756756305695, 
};
const TfArray<4, int> tensor_dimension17 = { 4, { 1,3,3,48 } };
const ALIGN(16) float tensor_data18[8] = { -8.1177558898925781, -15.186272621154785, 36.621086120605469, 26.891897201538086, 3.0867600440979004, 0.66484194993972778, 30.258855819702148, 7.8155317306518555, };
const TfArray<1, int> tensor_dimension18 = { 1, { 8 } };
const ALIGN(16) float tensor_data19[1*3*3*48] = { 
  /* [0][0][][] */ 0.074173800647258759,-0.031474675983190536,0.14422266185283661,1.115503191947937,0.022416291758418083,0.33093574643135071,-0.024934183806180954,0.12429502606391907,0.077329486608505249,0.042601406574249268,0.034268695861101151,0.047345072031021118,-0.089191347360610962,-0.063675358891487122,-0.16315965354442596,0.048760462552309036,-0.017055075615644455,0.071660645306110382,-0.073396123945713043,-0.83877658843994141,-0.042767804116010666,-0.18109630048274994,0.79621654748916626,-0.052324805408716202,-0.015488372184336185,0.035334549844264984,-0.13787078857421875,0.031587027013301849,-0.033357534557580948,0.085592940449714661,0.068644121289253235,0.72810661792755127,0.51945090293884277,0.21683533489704132,0.2774803638458252,-0.16173283755779266,0.016940509900450706,0.17273633182048798,-0.030309382826089859,0.0015939429868012667,0.088711179792881012,-0.14651405811309814,-0.041884385049343109,-0.055002998560667038,0.10540229827165604,0.015433027409017086,-0.050296541303396225,-0.043292239308357239, 1.6990013122558594,0.11564817279577255,0.10524310171604156,-1.2843115329742432,0.14828504621982574,0.35550916194915771,0.27235481142997742,0.045805007219314575,0.63837242126464844,0.6842961311340332,0.025558026507496834,0.2838909924030304,-0.5609283447265625,-0.1702323853969574,0.015468033030629158,0.04634677991271019,1.0172771215438843,-0.46254941821098328,-0.18506567180156708,-0.40891531109809875,-0.75190752744674683,0.20304359495639801,-0.6792985200881958,0.08694593608379364,0.13316333293914795,0.36255103349685669,-0.77449530363082886,-0.3366486132144928,0.14042970538139343,0.42113432288169861,0.042559988796710968,-0.89881789684295654,0.12929965555667877,-0.45965763926506042,0.9493522047996521,0.060429800301790237,-0.5214073657989502,-0.24198289215564728,-0.069675825536251068,0.089818425476551056,-0.40255928039550781,-0.2135038822889328,-0.16914370656013489,0.018522044643759727,-0.20376375317573547,-0.030275626108050346,-0.95167487859725952,0.092676319181919098, -0.40432146191596985,-0.039588853716850281,0.050087239593267441,0.15993143618106842,-0.0046316869556903839,0.26771456003189087,0.10394572466611862,0.077567674219608307,0.1397058367729187,0.044202331453561783,-0.045466527342796326,0.20539295673370361,-0.15611495077610016,-0.02101445384323597,0.055604942142963409,0.021526718512177467,-0.82778358459472656,0.23968444764614105,-0.012367486953735352,0.56155562400817871,-0.22992929816246033,-0.097875185310840607,-0.11167372018098831,-0.034381814301013947,-0.028428452089428902,-0.30144098401069641,-0.069537170231342316,0.11761408299207687,-0.10503365844488144,0.087385132908821106,0.01941203884780407,-0.1549699604511261,0.19194240868091583,-0.17342473566532135,0.1240154355764389,-0.11150889843702316,0.0017356663011014462,0.24130764603614807,0.47477173805236816,-0.010094528086483479,0.25566002726554871,0.08082154393196106,-0.088463418185710907,0.075800471007823944,-0.25548145174980164,0.017501294612884521,-0.011711562052369118,-0.024092355743050575, 
  /* [0][1][][] */ 1.6778039932250977,0.086252555251121521,0.0045199966989457607,-0.99791628122329712,0.077447757124900818,-0.11108989268541336,0.84143936634063721,-0.07552163302898407,0.042960774153470993,0.047236569225788116,-0.041386418044567108,0.35014680027961731,-0.076925359666347504,-0.0089521864429116249,0.062777146697044373,-0.18341447412967682,-0.0050945701077580452,-0.40921685099601746,-0.18113499879837036,-0.63461160659790039,0.080546870827674866,-0.59365534782409668,-0.77036541700363159,-0.10277964919805527,0.036587338894605637,0.50808572769165039,-0.36863130331039429,-0.51865148544311523,-0.050924494862556458,0.67462581396102905,0.053612217307090759,-0.78494775295257568,0.44006821513175964,-0.39179325103759766,-0.020666381344199181,0.75607246160507202,-0.03645705059170723,0.29656341671943665,-0.49555999040603638,0.03204011544585228,-0.31801372766494751,-0.27462980151176453,0.23248028755187988,-0.56260180473327637,-0.264198899269104,-0.05589497834444046,-0.091883145272731781,-0.020873922854661942, 0.33508759737014771,-1.5043615102767944,-0.92734211683273315,1.1705012321472168,-0.68527162075042725,-0.51855313777923584,-3.0851008892059326,-0.57684779167175293,-0.65858495235443115,-0.51738095283508301,0.44009500741958618,-0.84203624725341797,1.4108496904373169,0.94001400470733643,0.12434482574462891,-0.71079295873641968,-0.67035770416259766,1.0559875965118408,0.38602155447006226,-0.7681313157081604,0.96020692586898804,1.0279446840286255,0.70197445154190063,0.73233085870742798,0.92620325088500977,-0.65265858173370361,-3.105919361114502,0.11775267124176025,-0.7893601655960083,-2.6485311985015869,0.41989856958389282,0.93600475788116455,-3.2951264381408691,0.95957750082015991,-0.21776877343654633,-0.24339216947555542,1.6905636787414551,-0.65351730585098267,1.4905884265899658,0.098093606531620026,0.64907842874526978,-0.17428037524223328,0.74088758230209351,0.80633223056793213,0.77093565464019775,-0.50726550817489624,0.76698505878448486,0.43425107002258301, 0.72756087779998779,0.054193407297134399,0.35357457399368286,-0.12786802649497986,0.029370089992880821,-0.24645920097827911,1.0661945343017578,0.081678487360477448,-0.1252615749835968,0.075637072324752808,-0.36143448948860168,-0.053805291652679443,0.0026086743455380201,-0.30203405022621155,0.45826628804206848,0.023436496034264565,0.50118106603622437,-0.54213666915893555,-0.21287932991981506,0.62117469310760498,0.10704673081636429,-0.37322571873664856,0.070719406008720398,-0.18966132402420044,0.0093333767727017403,0.029845666140317917,-0.91918587684631348,0.27729606628417969,0.12711216509342194,0.81931650638580322,0.0039457599632441998,0.02552502416074276,0.84460645914077759,-0.32706481218338013,0.063852138817310333,0.39439648389816284,-0.059345182031393051,0.32705515623092651,0.79329520463943481,-0.0079585006460547447,-0.41506928205490112,0.017735719680786133,-0.48986086249351501,-0.19844187796115875,0.16607770323753357,-0.067444883286952972,-0.075863800942897797,0.021567914634943008, 
  /* [0][2][][] */ -0.68720108270645142,-0.07762918621301651,0.18542031943798065,-0.17929096519947052,0.039151489734649658,0.13604509830474854,-0.90852397680282593,0.099168591201305389,0.041727572679519653,-0.12409310042858124,0.036365203559398651,0.21514607965946198,0.060457181185483932,-0.04837770015001297,-0.13698731362819672,0.096753686666488647,0.032315921038389206,0.18367600440979004,-0.039130263030529022,0.75772279500961304,0.04896945133805275,-0.25164419412612915,-0.093869596719741821,-0.068215049803256989,-0.024507898837327957,0.11660611629486084,-0.010754777118563652,0.20247550308704376,-0.060214359313249588,0.051110286265611649,0.20640146732330322,-0.23424039781093597,-0.46588993072509766,-0.32419842481613159,-0.23260539770126343,-0.23256815969944,-0.0054269358515739441,0.15483173727989197,0.088641718029975891,-0.016540387645363808,0.047635484486818314,-0.013393638655543327,0.24110372364521027,-0.24106211960315704,-0.21865692734718323,0.077597171068191528,-0.076158642768859863,0.07031075656414032, 0.91517651081085205,1.476806640625,0.54900330305099487,0.20349855720996857,0.08831334114074707,-0.08503655344247818,2.9978907108306885,0.15714353322982788,0.1001552939414978,-0.013488673605024815,0.14868168532848358,0.17537423968315125,-0.067152261734008789,-0.0055038882419466972,-0.32357349991798401,0.1360810250043869,-0.46969464421272278,-0.46539732813835144,-0.10647252202033997,0.88681340217590332,-0.27435356378555298,0.40252095460891724,0.077177129685878754,0.11400249600410461,0.23246331512928009,-0.32074475288391113,-0.98219352960586548,0.12156206369400024,0.48081356287002563,-0.00068631436442956328,0.567241370677948,0.16075801849365234,2.2020056247711182,-0.19285772740840912,0.054915264248847961,-0.21074956655502319,-0.32323095202445984,-0.090128228068351746,-0.15671709179878235,0.092904306948184967,-0.1392441987991333,-0.031331509351730347,-0.23763552308082581,0.27925044298171997,0.12270371615886688,-0.13205994665622711,0.058447793126106262,-0.51776903867721558, -0.53570330142974854,-0.051536913961172104,0.049079462885856628,-0.040987581014633179,0.028477603569626808,-0.020688094198703766,-1.4929155111312866,0.033762633800506592,-0.09062880277633667,-0.056199796497821808,-0.14008776843547821,-0.26315256953239441,0.21168822050094604,-0.070365816354751587,-0.029917029663920403,0.061207380145788193,0.26142215728759766,0.1989123523235321,-0.021459560841321945,-0.93083649873733521,0.18014487624168396,-0.07587549090385437,0.028937753289937973,-0.049224581569433212,-0.047697450965642929,0.054885856807231903,-0.24894186854362488,-0.22068926692008972,-0.090505547821521759,0.15319091081619263,0.026984449476003647,0.062452483922243118,-0.50767630338668823,0.6600462794303894,-0.27478843927383423,-0.13507625460624695,-0.052505630999803543,0.18174874782562256,0.28470748662948608,-0.046681087464094162,0.021583098918199539,0.015251586213707924,-0.22186174988746643,0.036552920937538147,-0.2593005895614624,0.5314253568649292,-0.0317242331802845,-0.016201471909880638, 
};
const TfArray<4, int> tensor_dimension19 = { 4, { 1,3,3,48 } };
const ALIGN(16) float tensor_data20[8] = { -18.23304557800293, 15.342019081115723, -20.831560134887695, -18.258811950683594, 17.797924041748047, -1.9876060485839844, 24.87071418762207, 39.847099304199219, };
const TfArray<1, int> tensor_dimension20 = { 1, { 8 } };
const ALIGN(16) float tensor_data21[1*3*3*48] = { 
  /* [0][0][][] */ 0.23629799485206604,-0.14432458579540253,0.65040051937103271,0.18344244360923767,0.28451880812644958,-0.073717229068279266,0.62102925777435303,-0.37225779891014099,0.2385014146566391,-0.15937761962413788,-0.15880928933620453,0.20876607298851013,0.096674077212810516,-0.076637201011180878,-0.48593723773956299,-0.63424402475357056,0.62171828746795654,0.26590973138809204,0.29471504688262939,0.46808692812919617,0.27309310436248779,-0.58312040567398071,-0.31621581315994263,0.23940454423427582,-0.12384778261184692,-0.21025808155536652,-0.088609635829925537,-0.21159227192401886,-0.30718043446540833,0.22711488604545593,-0.28193110227584839,-0.64069962501525879,-0.02513420395553112,0.24411110579967499,0.080827318131923676,0.18651241064071655,-0.28027805685997009,0.22445149719715118,-0.25558194518089294,-0.071183919906616211,0.23583412170410156,-0.3294537365436554,0.24516244232654572,0.25100326538085938,-0.13967058062553406,0.079091250896453857,0.35228258371353149,-0.044562757015228271, 0.282989501953125,-0.14952880144119263,0.85160022974014282,0.22301313281059265,-0.40584567189216614,-0.14864099025726318,-0.34046816825866699,-0.48414474725723267,0.3805699348449707,-0.1846604198217392,-0.12456644326448441,0.32775291800498962,0.14833849668502808,-0.19199968874454498,-0.6375657320022583,0.65478384494781494,-0.24135759472846985,0.32601529359817505,0.49284523725509644,0.75251573324203491,0.34919503331184387,-0.90420162677764893,0.20102992653846741,0.33303436636924744,-0.19869223237037659,-0.40077689290046692,-0.095065005123615265,-0.26520153880119324,0.25869667530059814,0.28752875328063965,-0.13787679374217987,-0.72002732753753662,-0.17247238755226135,0.47522315382957458,0.094159707427024841,0.24342718720436096,-0.35496732592582703,0.34772974252700806,-0.42867833375930786,-0.051090918481349945,0.35152709484100342,-0.42457515001296997,0.35260480642318726,0.35950812697410583,-0.11012982577085495,-0.83868598937988281,0.44277629256248474,-0.13567504286766052, 0.1175910010933876,-0.070346266031265259,0.47342425584793091,0.099281333386898041,0.092803724110126495,-0.091435179114341736,-0.28401044011116028,-0.21692250669002533,0.17199385166168213,-0.053888469934463501,0.0096951853483915329,0.14957551658153534,0.052054848521947861,-0.13939844071865082,-0.36332967877388,-0.0046887025237083435,-0.3395499587059021,0.13080690801143646,0.20567004382610321,0.41559663414955139,0.13508172333240509,-0.42958641052246094,0.12173973768949509,0.12132569402456284,-0.10530276596546173,-0.2369534969329834,-0.061891846358776093,-0.079232007265090942,0.13809403777122498,0.11325178295373917,0.39644783735275269,-0.4947802722454071,-0.17158040404319763,0.25741398334503174,0.041978254914283752,0.097499474883079529,-0.13013046979904175,0.16601452231407166,-0.19132550060749054,-0.030470242723822594,0.1881183385848999,-0.18366889655590057,0.14411480724811554,0.17607989907264709,-0.0093259196728467941,-0.054573081433773041,0.17491008341312408,-0.095811270177364349, 
  /* [0][1][][] */ 0.3180159330368042,-0.17716680467128754,-0.26979568600654602,0.24273328483104706,0.29404279589653015,-0.18062299489974976,0.74409383535385132,-0.51766359806060791,0.33937844634056091,-0.20290485024452209,-0.142420694231987,0.35946077108383179,0.15494996309280396,-0.1974557638168335,-0.089168354868888855,-0.90614640712738037,0.77703642845153809,0.35825511813163757,0.44481551647186279,-0.22740001976490021,0.34320259094238281,0.83639633655548096,-0.48725444078445435,0.34071296453475952,0.28940883278846741,-0.39607995748519897,-0.12935654819011688,-0.32655835151672363,-0.58112895488739014,0.31755664944648743,-0.31676074862480164,-0.047747943550348282,-0.17401348054409027,0.41963768005371094,0.12400129437446594,0.27823972702026367,-0.36979177594184875,0.32514873147010803,-0.40845641493797302,0.28449675440788269,0.39190244674682617,-0.45282062888145447,0.37025067210197449,0.36727434396743774,-0.13192158937454224,0.71005558967590332,0.44195404648780823,-0.12216136604547501, 0.44273313879966736,-0.19830390810966492,-0.42530101537704468,0.32858672738075256,-0.66549056768417358,-0.27866894006729126,-0.54168176651000977,-0.72890675067901611,0.50003343820571899,-0.22755472362041473,-0.25184014439582825,0.56049233675003052,0.23617084324359894,-0.22694802284240723,-0.14026595652103424,0.68453031778335571,-0.40336626768112183,0.42298367619514465,0.75437766313552856,-0.30223658680915833,0.52237218618392944,0.99254333972930908,0.26443195343017578,0.59612929821014404,0.50630933046340942,-0.6640315055847168,-0.17659026384353638,-0.41786161065101624,0.2475963830947876,0.46599262952804565,-0.13274353742599487,0.084209240972995758,-0.25544574856758118,0.77033889293670654,0.1477387547492981,0.36804699897766113,-0.55627477169036865,0.52503955364227295,-0.65087145566940308,0.4041990339756012,0.58358085155487061,-0.57013243436813354,0.54294031858444214,0.51018702983856201,-0.18995919823646545,-0.074045091867446899,0.60249263048171997,-0.1698877364397049, 0.22228939831256866,-0.1219065859913826,-0.21117597818374634,0.1703285425901413,0.19139242172241211,-0.13788487017154694,-0.29255115985870361,-0.35256576538085938,0.22449803352355957,-0.073173373937606812,-0.11853316426277161,0.25428202748298645,0.088042840361595154,-0.095817558467388153,-0.10083933919668198,0.069857582449913025,-0.38769543170928955,0.17440538108348846,0.3427213728427887,-0.17313320934772491,0.23547114431858063,0.49920442700386047,0.1959700733423233,0.30102038383483887,0.26350137591362,-0.33316832780838013,-0.085566170513629913,-0.14894366264343262,0.16229267418384552,0.20238761603832245,0.57428854703903198,0.08822275698184967,-0.12796393036842346,0.41691479086875916,0.056468043476343155,0.14111839234828949,-0.21629934012889862,0.24710728228092194,-0.30048400163650513,0.17984147369861603,0.28201952576637268,-0.26161637902259827,0.23025223612785339,0.25345888733863831,-0.091005213558673859,-0.43999987840652466,0.27563673257827759,-0.076365634799003601, 
  /* [0][2][][] */ 0.15418699383735657,-0.082205325365066528,-0.29973709583282471,0.12905025482177734,0.14490477740764618,-0.11887361109256744,0.37365180253982544,-0.2458435446023941,0.15878932178020477,-0.12779861688613892,-0.0080436980351805687,0.17308443784713745,0.10470163822174072,-0.12941130995750427,0.56498962640762329,-0.56818825006484985,0.44990614056587219,0.16267696022987366,0.20734518766403198,-0.1756015419960022,0.10450240224599838,-0.084770195186138153,-0.29396533966064453,0.14030465483665466,-0.088862039148807526,-0.23217944800853729,-0.068616807460784912,-0.16145288944244385,-0.34067407250404358,0.11802783608436584,-0.18588916957378387,0.50427180528640747,-0.14753864705562592,0.21982240676879883,0.057054411619901657,0.1198020875453949,-0.11205017566680908,0.15365087985992432,-0.21146157383918762,-0.27357599139213562,0.21871753036975861,-0.22479921579360962,0.18028998374938965,0.18020471930503845,-0.034281264990568161,0.1018676683306694,0.18879994750022888,-0.098349936306476593, 0.25408011674880981,-0.11753885447978973,-0.31390845775604248,0.20450277626514435,-0.29442217946052551,-0.14098803699016571,-0.43526440858840942,-0.38730093836784363,0.20089632272720337,-0.13663336634635925,-0.12938748300075531,0.26763620972633362,0.13925305008888245,-0.08419480174779892,0.86329507827758789,0.22336573898792267,-0.28838446736335754,0.19115889072418213,0.36615446209907532,-0.25190728902816772,0.223448246717453,-0.13588482141494751,0.16251298785209656,0.31217721104621887,-0.18773831427097321,-0.35063564777374268,-0.11063719540834427,-0.20175853371620178,0.14802353084087372,0.22649753093719482,-0.10844218730926514,0.65118944644927979,-0.11061465740203857,0.39237287640571594,0.06728469580411911,0.16472603380680084,-0.2119155079126358,0.25552845001220703,-0.33641645312309265,-0.33323150873184204,0.31581142544746399,-0.30269190669059753,0.26865965127944946,0.24942144751548767,-0.12750661373138428,0.32263699173927307,0.29915738105773926,-0.070041961967945099, 0.14577721059322357,-0.065890923142433167,-0.17092007398605347,0.11930560320615768,0.14616970717906952,-0.045336887240409851,-0.10300876945257187,-0.19613265991210938,0.059448279440402985,-0.044297698885202408,-0.10103327035903931,0.12125889956951141,0.057416435331106186,0.0084811123088002205,0.46365618705749512,0.16608104109764099,-0.22158865630626678,0.072247527539730072,0.16665573418140411,-0.18634413182735443,0.11790851503610611,-0.0025405471678823233,0.15315553545951843,0.19633588194847107,-0.093304857611656189,-0.15349580347537994,-0.067431740462779999,-0.081138931214809418,0.15079294145107269,0.12561114132404327,0.27939531207084656,0.37826168537139893,-0.0009458642452955246,0.20521144568920135,0.018799947574734688,0.061736095696687698,-0.096996337175369263,0.12219393998384476,-0.14681725203990936,-0.17260891199111938,0.12803469598293304,-0.14567458629608154,0.11655941605567932,0.11699368804693222,-0.093320049345493317,0.059166867285966873,0.1457197517156601,-0.006471127737313509, 
};
const TfArray<4, int> tensor_dimension21 = { 4, { 1,3,3,48 } };
const ALIGN(16) float tensor_data22[16] = { -21.240655899047852, 1.62589430809021, 3.7145125865936279, -5.8029322624206543, -0.15617994964122772, -6.5119838714599609, -10.668740272521973, -22.869356155395508, 2.7287025451660156, 16.416084289550781, 28.403186798095703, -3.0876238346099854, -3.261573314666748, -25.524595260620117, 19.407869338989258, -25.603565216064453, };
const TfArray<1, int> tensor_dimension22 = { 1, { 16 } };
const ALIGN(16) float tensor_data23[1*3*3*96] = { 
  /* [0][0][][] */ -0.13512952625751495,0.035017445683479309,-0.16434340178966522,0.16684560477733612,-0.10722150653600693,0.16340012848377228,-0.71536284685134888,-0.17278268933296204,0.095964111387729645,-0.11397545784711838,0.5960269570350647,-0.11732428520917892,0.014146561734378338,-0.13780303299427032,-0.036258179694414139,0.30959105491638184,0.017791364341974258,0.21104536950588226,-0.10599385201931,0.016953852027654648,0.14357519149780273,0.014503597281873226,0.17425258457660675,-0.49298831820487976,0.014382760040462017,0.1411605179309845,0.21929480135440826,0.34611883759498596,0.10218308866024017,0.05721953883767128,0.12657308578491211,0.35569995641708374,-0.030516093596816063,0.12193077057600021,0.086087383329868317,-0.082513511180877686,0.064975835382938385,0.23901423811912537,-0.12743000686168671,-0.16534742712974548,0.14803975820541382,0.10936398804187775,0.33245852589607239,0.11457917839288712,-0.59000098705291748,-0.10869916528463364,0.22170792520046234,-0.03996126726269722,-0.035881787538528442,-0.15788762271404266,-0.060979690402746201,-0.040159236639738083,0.44437304139137268,0.053591717034578323,-0.092053182423114777,0.044261667877435684,-0.05464312806725502,-0.30083474516868591,0.11835280805826187,-0.098516255617141724,0.40416634082794189,-0.018681269139051437,1.5350762605667114,0.13575634360313416,-0.093975141644477844,-0.08278810977935791,0.047167852520942688,-0.13539773225784302,0.9085918664932251,0.321370929479599,0.010077518410980701,-0.0269892867654562,0.49291983246803284,-0.19052277505397797,0.46513402462005615,0.027727430686354637,0.36258226633071899,-0.28014954924583435,0.31127914786338806,0.81802338361740112,0.01308011170476675,0.29537615180015564,0.72244232892990112,-0.073714889585971832,0.19461347162723541,0.12859471142292023,-0.15662454068660736,-0.11890744417905807,0.29809421300888062,-0.023614723235368729,-0.11915573477745056,0.39780139923095703,0.0070541123859584332,0.34582459926605225,-0.27742868661880493,0.041114646941423416, -0.3669954240322113,0.058113966137170792,-0.061887200921773911,0.015200572088360786,0.32240289449691772,-0.063951119780540466,-0.12935654819011688,-0.40634766221046448,0.21078400313854218,0.23719389736652374,-0.76247000694274902,-0.065180778503417969,-0.074869111180305481,-0.21240687370300293,0.025937657803297043,0.49969562888145447,0.076552525162696838,-0.3819616436958313,-0.032634265720844269,-0.13004900515079498,0.15057815611362457,-0.73032665252685547,0.6679261326789856,0.40448695421218872,-0.56455749273300171,-0.26666003465652466,-0.55144220590591431,-0.10603265464305878,0.12837432324886322,0.16142185032367706,-0.27690720558166504,0.14047813415527344,0.62296837568283081,0.050700973719358444,-0.12599462270736694,-0.00035591088817454875,-0.32362255454063416,0.63510900735855103,-0.14104284346103668,-0.80717760324478149,0.054838649928569794,-0.26062053442001343,-0.39351767301559448,0.090729705989360809,0.32245719432830811,-0.24713598191738129,1.093616247177124,-0.36268869042396545,-0.24067604541778564,0.37926077842712402,0.42635709047317505,0.039589576423168182,0.34635505080223083,-0.72498524188995361,0.32268619537353516,0.92790502309799194,0.49612841010093689,0.35986402630805969,-0.47089049220085144,0.27805379033088684,1.8382076025009155,0.19404603540897369,0.045264631509780884,-0.099961459636688232,0.32725220918655396,-0.28611394762992859,-0.36099481582641602,-0.006740181241184473,0.50655049085617065,-0.28982168436050415,-0.16353701055049896,0.18616624176502228,-0.30799660086631775,-0.27755707502365112,0.72527617216110229,-0.052903018891811371,-0.67742264270782471,-0.12975603342056274,-0.35330900549888611,0.81992411613464355,-0.45097830891609192,1.1075897216796875,-0.093706786632537842,0.051491491496562958,-0.057490292936563492,0.208396315574646,0.30305373668670654,-0.25932115316390991,-0.23683956265449524,0.23972353339195251,-0.10714045166969299,0.35685020685195923,-0.76080048084259033,-0.5851205587387085,2.0989665985107422,-0.40838158130645752, 0.0086565790697932243,-0.013565754517912865,-0.18390990793704987,-0.11725810170173645,0.049883965402841568,0.13277158141136169,0.41020843386650085,0.066701516509056091,-0.020657783374190331,-0.048415154218673706,0.026976274326443672,0.81059521436691284,0.0022252683993428946,-0.21046057343482971,-0.080249838531017303,0.050107516348361969,-0.05396464467048645,0.22228723764419556,-0.053256262093782425,0.12197183817625046,0.015249429270625114,0.18439145386219025,0.12591907382011414,-0.48136806488037109,0.0057913996279239655,-0.25968769192695618,0.045257475227117538,0.081700243055820465,-0.032089617103338242,0.020476736128330231,0.24951596558094025,-0.59166395664215088,0.23326371610164642,0.074282132089138031,0.076554886996746063,-0.12394885718822479,0.14786845445632935,0.02437685988843441,-0.068178765475749969,-0.13702531158924103,0.047590125352144241,0.03309578076004982,-0.21511517465114594,0.056254446506500244,0.15300299227237701,-0.059436056762933731,0.18406163156032562,0.0071758292615413666,0.018092388287186623,-0.066723190248012543,0.04685564711689949,-0.029302556067705154,0.043960694223642349,0.048033960163593292,-0.048743441700935364,0.1530902236700058,-0.10493991523981094,0.37482666969299316,0.024501066654920578,-0.014272863976657391,0.16564659774303436,-0.10869511961936951,0.032882124185562134,-0.088860757648944855,-0.19636595249176025,-0.13262933492660522,0.11795350164175034,-0.1299886554479599,-1.4828997850418091,-0.074570633471012115,0.35151603817939758,-0.063985943794250488,-0.80698853731155396,-0.13224512338638306,-0.06696387380361557,0.15453736484050751,0.23128272593021393,-0.023578982800245285,0.063294529914855957,0.13333828747272491,-0.099654935300350189,0.42084631323814392,-0.20772920548915863,-0.021154610440135002,-0.21094036102294922,0.089608341455459595,0.13849276304244995,0.23781490325927734,-0.21920362114906311,-0.071147695183753967,0.19011041522026062,-0.049466680735349655,0.11609284579753876,0.10575056821107864,-0.24752280116081238,-0.14553114771842957, 
  /* [0][1][][] */ -0.31717765331268311,0.28180390596389771,-0.15335144102573395,0.060954216867685318,-0.52670377492904663,-0.11555840075016022,-0.13409747183322906,-0.14258930087089539,0.13482895493507385,1.691927433013916,-0.26859214901924133,-0.29070636630058289,-0.13420820236206055,-0.42028486728668213,-0.054384432733058929,0.3319779634475708,0.51766306161880493,-0.30471542477607727,-0.26843759417533875,-0.107298843562603,0.11759746819734573,-0.97992616891860962,-0.14067995548248291,0.24495135247707367,-0.32530060410499573,-0.40070393681526184,-0.67099058628082275,-0.037276405841112137,0.18054385483264923,0.15919087827205658,-0.27847775816917419,0.19915984570980072,-0.67029678821563721,-0.34292152523994446,-0.50369137525558472,0.016077350825071335,0.87976342439651489,-0.013095571659505367,-0.10221649706363678,0.29511013627052307,-0.16002653539180756,1.1557170152664185,0.0034762604627758265,-0.012277249246835709,0.23628215491771698,-0.10677246004343033,-0.096557684242725372,-0.26743879914283752,0.39207816123962402,0.32651203870773315,-0.024218583479523659,0.12072018533945084,0.40440014004707336,0.10843177139759064,-0.37350016832351685,-0.26845231652259827,0.42736610770225525,0.075233854353427887,-0.58114361763000488,0.43380296230316162,-0.51961112022399902,-0.53495210409164429,0.23408633470535278,0.6449769139289856,-0.44227442145347595,-0.26513689756393433,-0.31973832845687866,0.31982401013374329,-0.51226603984832764,1.1675697565078735,-0.17128972709178925,0.21332985162734985,-0.22160440683364868,-0.31843820214271545,0.24758119881153107,0.070704638957977295,-0.80900782346725464,-0.15290524065494537,1.3308393955230713,0.63376027345657349,0.8509637713432312,0.57048368453979492,0.032728362828493118,-0.0094510940834879875,0.6545557975769043,0.11697003245353699,-0.51902341842651367,0.3107839822769165,-0.31760525703430176,-0.1492457389831543,-0.82088065147399902,0.20026795566082001,0.57195895910263062,1.8649170398712158,2.5959312915802002,-0.18193189799785614, 0.98028749227523804,0.60919070243835449,1.0552464723587036,0.20122586190700531,-0.28027841448783875,-0.93422394990921021,1.4090379476547241,0.071684613823890686,0.69259816408157349,-2.2387101650238037,0.10451652854681015,-1.6935772895812988,-0.4749588668346405,2.1143918037414551,0.92396461963653564,0.66303730010986328,-0.061850689351558685,-1.6604266166687012,-0.18370625376701355,-0.98188674449920654,0.24534542858600616,0.18217465281486511,-0.34160217642784119,1.9265220165252686,1.1447726488113403,1.0731513500213623,-0.29399013519287109,-0.90847194194793701,0.6094394326210022,0.57198840379714966,-0.70751160383224487,0.9645388126373291,-0.052639458328485489,-0.58620494604110718,-1.0998469591140747,0.70523613691329956,-1.7191715240478516,-0.23002317547798157,0.20494000613689423,0.6945035457611084,-0.99579942226409912,-1.7257014513015747,1.6090421676635742,0.81750404834747314,0.8807377815246582,-0.23695124685764313,-0.90685105323791504,1.0489977598190308,-0.04314861074090004,0.9637916088104248,-1.1146209239959717,-0.73889356851577759,-1.1692361831665039,1.4184319972991943,1.2756556272506714,-2.0582783222198486,1.7806061506271362,-1.058969259262085,-0.19927902519702911,0.13506132364273071,-1.552201509475708,-0.17512619495391846,-0.82512664794921875,-0.34819841384887695,0.93911367654800415,0.95155483484268188,-0.26785305142402649,0.32032161951065063,1.7577953338623047,-0.9957810640335083,-1.1345505714416504,0.50251853466033936,-0.2685362696647644,0.73458665609359741,-0.83938038349151611,-1.2828900814056396,-2.8425083160400391,0.27851575613021851,-0.76750063896179199,1.6958520412445068,-0.29598522186279297,2.1168978214263916,0.46418222784996033,0.71524190902709961,-0.19999045133590698,-0.53006017208099365,-0.12602874636650085,-0.69617205858230591,-1.0770077705383301,-0.54683071374893188,-0.18739433586597443,-0.61143136024475098,-0.1325005441904068,-2.3160889148712158,-11.962289810180664,0.37437030673027039, -0.18044032156467438,0.31637772917747498,-0.31546756625175476,0.0028997114859521389,0.77875602245330811,0.51770663261413574,-0.25055766105651855,0.15342253446578979,0.029041152447462082,0.40392875671386719,-0.078297846019268036,-0.075107775628566742,-0.1152118444442749,-0.51067435741424561,-0.097157850861549377,-0.025575006380677223,-0.42588695883750916,-0.2860167920589447,-0.38241168856620789,0.28566229343414307,0.062734663486480713,0.59204870462417603,-0.064096994698047638,-1.7726309299468994,-0.30962365865707397,-0.34631454944610596,0.63635623455047607,0.50322550535202026,0.05118289589881897,0.16127617657184601,0.39603254199028015,0.065518327057361603,0.67009526491165161,-0.21781611442565918,1.1114488840103149,-0.02132095955312252,0.73714315891265869,0.026283776387572289,-0.19257810711860657,0.087339542806148529,0.27599021792411804,0.31005197763442993,-0.28618952631950378,0.012573065236210823,-0.1639748215675354,-0.10776432603597641,-0.096140936017036438,-0.35364025831222534,0.25095498561859131,0.099030621349811554,-0.10603431612253189,0.2331610769033432,-0.044011153280735016,-0.049266580492258072,-0.75543689727783203,-0.214222252368927,0.3320871889591217,0.16968108713626862,0.57684475183486938,-0.30361631512641907,0.039681654423475266,0.76381468772888184,0.00027658368344418705,-0.18764910101890564,-0.82493847608566284,-0.21452797949314117,-0.28643819689750671,0.25050464272499084,0.19626255333423615,-0.1641080379486084,0.98565661907196045,0.10238451510667801,-0.11573687940835953,-0.32862189412117004,0.089916326105594635,0.45632660388946533,-0.64043253660202026,-0.016776137053966522,-0.44035327434539795,-0.045107778161764145,-0.31875103712081909,0.13737499713897705,0.26562190055847168,0.13036307692527771,-0.46415001153945923,0.14276188611984253,0.68731445074081421,-0.30765736103057861,0.26022440195083618,-0.0915403813123703,1.0109633207321167,-0.04396452009677887,-0.66013872623443604,0.62054067850112915,3.0651228427886963,0.060964658856391907, 
  /* [0][2][][] */ -0.040760446339845657,-0.18686424195766449,-0.18162634968757629,-0.096133418381214142,-0.03150663897395134,0.10279683023691177,0.43641507625579834,0.097465142607688904,-0.01238897442817688,0.17976416647434235,-0.10787685215473175,0.7055327296257019,0.11332777142524719,-0.56598705053329468,-0.056531500071287155,0.026639511808753014,0.16690671443939209,0.037991613149642944,0.029784969985485077,0.1612992137670517,-0.016237279400229454,0.22271718084812164,-0.080715611577033997,-0.38407954573631287,0.0097349025309085846,-0.20556506514549255,0.038629483431577682,0.031856384128332138,-0.042997866868972778,-0.028933901339769363,0.27085632085800171,-0.56266987323760986,-0.20518437027931213,0.30793184041976929,-0.25381273031234741,-0.14419694244861603,0.41594406962394714,-0.17719632387161255,-0.12833605706691742,0.10593999177217484,0.069478027522563934,0.11400245875120163,-0.44597500562667847,0.11638376861810684,0.082650721073150635,-0.15696564316749573,-0.097324907779693604,-0.0091795893386006355,-0.026432614773511887,0.051605772227048874,0.1509748101234436,-0.046486906707286835,0.063884556293487549,0.013504371047019958,-0.21572956442832947,0.1062387228012085,-0.011685810983181,0.37195858359336853,-0.23689043521881104,0.11757959425449371,-0.061972178518772125,-0.084004111588001251,0.046712383627891541,0.087201520800590515,-0.048772756010293961,-0.067621856927871704,0.084744088351726532,-0.12988266348838806,-0.77524566650390625,0.10058901458978653,-0.19616046547889709,-0.04717027023434639,-0.74119114875793457,-0.18193389475345612,-0.0075526069849729538,0.16592414677143097,0.31171461939811707,-0.023069683462381363,0.60223376750946045,0.20973621308803558,0.14392979443073273,0.32869166135787964,-0.22855310142040253,0.086491860449314117,0.055240977555513382,0.10400542616844177,-0.10772431641817093,0.06072419136762619,0.046689610928297043,0.11406518518924713,0.16984283924102783,-0.026240937411785126,0.12160711735486984,0.73993927240371704,-0.68928790092468262,-0.097723022103309631, -0.22038726508617401,-0.048087392002344131,-0.21817858517169952,0.038070417940616608,-0.27357125282287598,0.55064100027084351,-0.28960096836090088,0.20618076622486115,0.034499209374189377,-0.10924924910068512,0.33597931265830994,-0.1431104987859726,0.5745052695274353,-0.10408788174390793,-0.13490304350852966,-0.095382221043109894,-0.00035759236197918653,-0.4966178834438324,-0.18908458948135376,0.16771025955677032,-0.03925289586186409,0.61163085699081421,-0.22154548764228821,-1.6848204135894775,-0.43148037791252136,-0.39985555410385132,0.51902443170547485,0.50309830904006958,0.069854415953159332,0.19516636431217194,0.29735293984413147,-0.0081273689866065979,-0.66525673866271973,0.28427028656005859,-0.13107742369174957,-0.13029347360134125,-0.37765401601791382,-0.14553976058959961,-0.26494017243385315,-0.022811904549598694,0.35510975122451782,-0.19397678971290588,-0.19345620274543762,0.22515763342380524,-0.19370582699775696,-0.090447075664997101,-0.14910072088241577,-0.39419373869895935,-0.18358473479747772,0.22355401515960693,0.58723670244216919,0.14100423455238342,-0.11368272453546524,-0.88348454236984253,0.30728265643119812,0.84140843152999878,0.26926058530807495,0.22286014258861542,0.33066275715827942,-0.1858765184879303,0.28328418731689453,-0.35406461358070374,-0.094548359513282776,0.0016170893795788288,0.13364893198013306,-0.19561624526977539,-0.48854070901870728,-0.13444656133651733,-0.13200519979000092,-0.25328463315963745,-0.57047885656356812,0.088177308440208435,0.22532689571380615,-0.27101296186447144,-0.20426690578460693,-0.079287633299827576,-1.0226761102676392,0.05470116063952446,-0.56377053260803223,-0.011765885166823864,0.32103589177131653,0.53406608104705811,0.10449950397014618,0.061914507299661636,0.021653167903423309,0.25633856654167175,-0.49370414018630981,0.8223564624786377,0.12464115023612976,0.55411434173583984,-0.25674286484718323,-0.087906219065189362,0.66714894771575928,-0.3905150294303894,4.2729806900024414,0.25918471813201904, -0.073832765221595764,-0.16261537373065948,-0.21167182922363281,0.044784441590309143,0.081401467323303223,0.47048407793045044,-0.49863708019256592,0.039879661053419113,0.014655528590083122,-0.12231454253196716,0.0014953329227864742,0.18199953436851501,0.055447734892368317,-0.8381807804107666,-0.070714198052883148,-0.078138105571269989,-0.1783466637134552,-0.073380514979362488,0.043828502297401428,0.13858960568904877,-0.043795697391033173,0.041785761713981628,-0.1008422002196312,0.048812080174684525,-0.029424957931041718,0.15445975959300995,-0.01875530369579792,0.3634972870349884,-0.0088112065568566322,-0.02305503748357296,0.18775403499603271,0.22007712721824646,0.095891579985618591,0.1941806823015213,0.16681282222270966,-0.12909597158432007,-0.086006097495555878,-0.13054201006889343,-0.058287639170885086,0.049123816192150116,0.091578103601932526,-0.1696372777223587,0.26697173714637756,0.054141588509082794,-0.51754593849182129,-0.067395724356174469,-0.10307885706424713,0.033494133502244949,-0.0021710938308387995,-0.1182389035820961,-0.014201113022863865,-0.026115063577890396,-0.077215321362018585,0.087332740426063538,-0.16779917478561401,-0.074229724705219269,-0.03307100385427475,-0.41303348541259766,0.054061584174633026,-0.097244419157505035,-0.30083227157592773,0.29099705815315247,0.11912039667367935,-0.14886046946048737,-0.083197809755802155,-0.015639213845133781,0.13319233059883118,-0.13377237319946289,0.6317821741104126,0.052667275071144104,0.45406541228294373,-0.08126135915517807,0.18240685760974884,-0.3173084557056427,-0.11072602868080139,0.20701190829277039,0.24172446131706238,0.02560729905962944,-0.04490247368812561,0.28531205654144287,-0.21002098917961121,0.49037632346153259,0.50387883186340332,-0.081689275801181793,-0.095421366393566132,0.22114625573158264,0.21261630952358246,-0.06234576553106308,0.89678853750228882,0.055291783064603806,0.0074363322928547859,-0.087017156183719635,0.06492970883846283,-0.41460832953453064,-0.64628291130065918,-0.16138896346092224, 
};
const TfArray<4, int> tensor_dimension23 = { 4, { 1,3,3,96 } };
const ALIGN(16) float tensor_data24[16] = { 1.2088382244110107, 0.93035292625427246, -1.1554393768310547, 5.1946220397949219, 8.7876968383789062, -0.046986658126115799, -4.2003331184387207, -3.9670059680938721, 3.6365516185760498, 1.3522579669952393, 9.5703248977661133, 11.291555404663086, -5.6976232528686523, 5.1736545562744141, 16.189933776855469, -9.9193000793457031, };
const TfArray<1, int> tensor_dimension24 = { 1, { 16 } };
const ALIGN(16) float tensor_data25[1*3*3*96] = { 
  /* [0][0][][] */ -0.18388393521308899,-0.29614531993865967,-0.043486196547746658,1.1120309829711914,0.21933762729167938,0.40553745627403259,0.19906303286552429,-0.22809414565563202,-0.13300593197345734,-0.13468609750270844,-0.15744633972644806,-0.011982318013906479,-0.32781028747558594,-0.0056920214556157589,0.554271399974823,-0.0055077727884054184,-0.080367825925350189,-0.3232785165309906,0.22617945075035095,0.064766958355903625,0.070266574621200562,-0.28643998503684998,0.79809743165969849,0.030685288831591606,-0.29732221364974976,0.018211068585515022,0.34882640838623047,-0.24088494479656219,-0.40367627143859863,-2.4988207817077637,0.62224459648132324,0.27598467469215393,0.068133629858493805,0.19092491269111633,0.64222592115402222,-0.35900029540061951,-0.51157933473587036,-0.10048089176416397,0.28147619962692261,-0.029072754085063934,-0.12772627174854279,0.30515328049659729,-1.383516788482666,0.32235273718833923,0.3579804003238678,-0.2624223530292511,0.17222948372364044,0.49645894765853882,-0.52951300144195557,0.21739855408668518,-0.40111875534057617,0.13859167695045471,0.039190515875816345,-0.049605701118707657,0.11951856315135956,0.28635600209236145,-0.56820714473724365,-0.82209503650665283,-0.11323650181293488,-0.13657492399215698,-0.12037777155637741,0.013145923614501953,0.040681540966033936,0.23589290678501129,0.33625069260597229,-0.16428542137145996,0.69382292032241821,0.16983503103256226,-0.065434999763965607,0.081385582685470581,0.16137209534645081,0.56478166580200195,0.27427023649215698,0.13684582710266113,0.23248291015625,-0.0032561640255153179,-0.061130896210670471,0.084450744092464447,0.32396870851516724,-0.030356492847204208,-0.11588791012763977,0.14182528853416443,-0.20317047834396362,0.25225308537483215,0.31973966956138611,0.094170264899730682,-0.26370766758918762,-0.37997055053710938,-0.022330818697810173,-0.15731877088546753,-0.22300882637500763,-0.061535105109214783,0.014374474994838238,-0.11373482644557953,-0.18203774094581604,0.35787054896354675, 0.48942273855209351,-0.5251886248588562,0.36123126745223999,0.92995935678482056,-0.4247707724571228,0.72520273923873901,0.10655791312456131,-0.45703610777854919,0.70364874601364136,0.047398202121257782,-0.18133042752742767,0.5885196328163147,1.3712586164474487,-0.92506420612335205,-0.21078290045261383,0.1046329140663147,0.1051875501871109,0.93600255250930786,1.1072635650634766,-0.32248497009277344,0.44969204068183899,-0.16776652634143829,0.5173911452293396,0.31344354152679443,-0.45415893197059631,-0.43678495287895203,-0.47664228081703186,-0.28319144248962402,-0.1698530912399292,0.90186232328414917,-0.9461027979850769,-0.22333337366580963,-0.50910413265228271,0.37180116772651672,-1.3624478578567505,-1.6141951084136963,-0.72410941123962402,-0.13853740692138672,-0.53007125854492188,0.23785440623760223,-0.0025911235716193914,1.3706727027893066,1.6820228099822998,0.36704140901565552,-0.75217634439468384,-0.44031086564064026,-0.54701566696166992,-0.54978221654891968,-0.43504065275192261,-0.55151218175888062,0.75238233804702759,0.59958726167678833,0.55014032125473022,-0.23742267489433289,0.37879994511604309,0.47587746381759644,-0.30309292674064636,0.68333864212036133,-0.14526322484016418,-0.84291023015975952,-0.50476765632629395,-0.47281116247177124,-0.26550495624542236,0.42613312602043152,0.36165621876716614,-0.3920515775680542,0.2486029714345932,0.35873526334762573,-0.65490156412124634,0.16232806444168091,-0.12641552090644836,0.39772605895996094,1.3483359813690186,0.73357808589935303,0.12352225184440613,0.26731491088867188,0.012832029722630978,0.25893673300743103,-0.08317498117685318,0.39690908789634705,0.57881194353103638,1.3187942504882812,0.98352670669555664,-0.26300787925720215,-0.016932342201471329,0.34120038151741028,-0.38326415419578552,2.8210794925689697,-1.3227183818817139,-0.49223962426185608,0.055179741233587265,-0.21773341298103333,-0.56762784719467163,-0.55846977233886719,-0.44666540622711182,1.4395284652709961, -0.29318568110466003,-0.049302995204925537,0.14661687612533569,-0.70015639066696167,0.14412346482276917,-0.14961639046669006,0.16560377180576324,-0.026673763990402222,0.82402783632278442,-0.26769816875457764,-0.2776913046836853,0.09313308447599411,-0.21582449972629547,-0.047422692179679871,-0.1370709240436554,-0.089923940598964691,-0.088021978735923767,-0.11927621811628342,0.055493716150522232,-0.0085807507857680321,-0.076079122722148895,-0.23840634524822235,0.19320258498191833,0.00092828989727422595,-0.42974388599395752,0.3546823263168335,0.051009062677621841,-0.46174314618110657,0.37989890575408936,0.970969557762146,-0.23779855668544769,0.10703318566083908,0.00594374630600214,0.09107033908367157,0.15209145843982697,-0.57337015867233276,-0.15712469816207886,0.29984351992607117,0.16910372674465179,0.047221913933753967,0.25978267192840576,0.1436302661895752,-1.5474607944488525,0.29048272967338562,0.25227078795433044,-0.067030258476734161,0.17306886613368988,0.14055740833282471,-0.42916855216026306,0.042970277369022369,-0.26809889078140259,0.040302444249391556,-0.068333350121974945,0.0034440823365002871,-0.018026145175099373,0.12636660039424896,-0.41299286484718323,0.093201518058776855,-0.062352024018764496,0.3744674026966095,0.032964009791612625,0.50859463214874268,0.13698035478591919,-0.0025024982169270515,-0.037195086479187012,-0.25509846210479736,-0.30710640549659729,0.28711766004562378,0.069926261901855469,0.014601144939661026,-0.018236776813864708,0.16530045866966248,0.12344974279403687,-0.15031298995018005,-0.031711544841527939,0.05854574590921402,-0.067049786448478699,-0.017136184498667717,-0.21325188875198364,0.016849109902977943,-0.18079140782356262,-0.26613050699234009,-0.12899605929851532,0.044899370521306992,-0.28387397527694702,0.046145319938659668,-0.11991008371114731,-0.51898342370986938,-0.5646786093711853,0.12209977954626083,-0.35955879092216492,-0.050171628594398499,0.18423302471637726,-0.11752677708864212,-0.17298875749111176,0.024014104157686234, 
  /* [0][1][][] */ -0.25304293632507324,-0.30619743466377258,0.34447583556175232,-0.30852451920509338,-0.47825711965560913,0.54850393533706665,0.049830704927444458,0.50100451707839966,-0.50248205661773682,-0.15623727440834045,-0.0085638966411352158,-0.53111594915390015,0.27296432852745056,-1.098484992980957,1.1837444305419922,0.20701897144317627,-0.021061152219772339,-0.43853563070297241,-0.15110354125499725,0.25485879182815552,0.18755614757537842,-0.16199439764022827,0.30431726574897766,0.20991997420787811,-0.3141905665397644,-0.048699643462896347,0.90255993604660034,-0.18505547940731049,-0.07590029388666153,1.235947847366333,1.9356265068054199,-1.2244157791137695,-0.73168599605560303,0.64945977926254272,-0.91640359163284302,-1.075211763381958,-0.62508201599121094,0.29698380827903748,-0.28109815716743469,0.34614446759223938,-0.4958651065826416,-0.26004189252853394,-0.039818529039621353,0.21261590719223022,-0.7233809232711792,0.50450325012207031,-0.11023892462253571,0.7104383111000061,0.43700778484344482,0.41662311553955078,0.35256999731063843,-0.0090663526207208633,0.12379234284162521,-0.42245790362358093,0.22599619626998901,0.18790303170681,0.77832716703414917,2.0231971740722656,-0.13177810609340668,-0.6282305121421814,1.4793550968170166,-0.38350865244865417,-0.15408918261528015,0.79589855670928955,0.35612991452217102,-0.24144294857978821,-0.1571921706199646,0.019013132899999619,1.0467612743377686,0.19674006104469299,1.0135663747787476,0.42884084582328796,-0.45820540189743042,0.59751683473587036,-0.03874804824590683,0.15127849578857422,0.089976653456687927,0.059633359313011169,-0.07826416939496994,0.061916768550872803,-0.36954689025878906,1.2783057689666748,-0.60397529602050781,1.3252575397491455,0.0019442287739366293,0.14693464338779449,-0.1831994354724884,0.65830075740814209,0.83945971727371216,-0.62891954183578491,-0.45814421772956848,-0.011299964040517807,0.80838459730148315,-0.30478045344352722,-0.26284906268119812,0.012178772129118443, 0.25533953309059143,0.52612549066543579,0.27218475937843323,-0.98761498928070068,1.2489050626754761,0.47691315412521362,0.24848361313343048,0.15169596672058105,-1.2736809253692627,1.0061180591583252,1.2928913831710815,-0.16495521366596222,-0.7081596851348877,-1.210862398147583,-1.9689236879348755,0.90584331750869751,1.1550270318984985,-0.47337472438812256,-1.0652596950531006,-0.13979430496692657,0.36398401856422424,0.20531958341598511,-0.76781153678894043,0.55409890413284302,-0.35840964317321777,-0.33094248175621033,-0.31686553359031677,1.046597957611084,-0.40018445253372192,2.1372873783111572,-2.0319268703460693,-1.4636434316635132,-0.50321978330612183,0.90702623128890991,1.1541962623596191,2.3977375030517578,2.1348409652709961,-1.1697205305099487,-1.0388484001159668,0.47087159752845764,-0.67023640871047974,-1.0093009471893311,1.4275941848754883,-0.55798947811126709,-1.8763551712036133,-0.13684211671352386,-0.60837554931640625,-1.3703744411468506,3.6735720634460449,-0.4794895350933075,1.4619240760803223,0.30807936191558838,0.99996042251586914,0.96309876441955566,1.072279691696167,-0.73551690578460693,0.61170083284378052,-2.1222426891326904,-0.23089109361171722,0.93898248672485352,0.2377244234085083,-0.92199528217315674,-0.53671771287918091,-0.63525426387786865,-0.63886934518814087,0.79685282707214355,-1.2253081798553467,1.4651390314102173,-1.0234434604644775,-0.64266043901443481,-0.84331232309341431,-0.35471832752227783,-1.4714298248291016,-0.46123656630516052,1.0470583438873291,1.656826376914978,-0.76355093717575073,0.5402492880821228,-0.19738654792308807,0.90749847888946533,1.1328730583190918,0.34592780470848083,-0.31502079963684082,-1.5444680452346802,0.15262818336486816,0.57173806428909302,0.31592053174972534,1.0103387832641602,1.3600393533706665,0.064816273748874664,1.7447482347488403,-0.00078129436587914824,-0.43295365571975708,0.14998559653759003,1.4879300594329834,-1.7106754779815674, -0.21103383600711823,-0.050807628780603409,-0.23005054891109467,0.33557778596878052,-0.56320774555206299,-0.56989139318466187,0.087625287473201752,-0.099981904029846191,0.2054060697555542,-0.25942978262901306,-0.28248962759971619,0.43090924620628357,0.0068748504854738712,0.86376184225082397,0.20448397099971771,0.061446625739336014,-0.036710068583488464,0.48491787910461426,-0.058309078216552734,0.36256727576255798,0.011361255310475826,-0.20204155147075653,-0.24965204298496246,0.024751393124461174,-0.2350049614906311,0.38924762606620789,-0.51204341650009155,-0.16933724284172058,-0.21953041851520538,-0.3221767246723175,0.25798887014389038,-0.72689783573150635,-0.40766322612762451,0.2707093358039856,0.059367641806602478,-0.34140056371688843,-0.49744614958763123,0.41425377130508423,-0.67056810855865479,0.15422680974006653,1.3193867206573486,-0.030937720090150833,-0.52615374326705933,0.1406978964805603,-0.60508972406387329,-0.22855201363563538,0.074703499674797058,0.48672282695770264,0.22272428870201111,0.51551604270935059,-0.18406754732131958,0.051084786653518677,-0.29517751932144165,-0.55551439523696899,0.037704665213823318,0.11979582160711288,0.58216077089309692,0.021116787567734718,-0.0022905636578798294,0.15749295055866241,-0.39971446990966797,1.531296968460083,0.3931879997253418,-0.33352956175804138,-0.21820171177387238,0.06508636474609375,0.34418773651123047,-0.10693002492189407,-0.63603770732879639,0.62240839004516602,-0.14027206599712372,-0.36520501971244812,0.0019546416588127613,-0.317758709192276,-0.1337837278842926,-0.27033728361129761,0.1693078875541687,0.066285155713558197,0.19154475629329681,-0.27189883589744568,-0.61072921752929688,-0.43612018227577209,0.43664935231208801,0.19265750050544739,-0.12458778917789459,-0.079426571726799011,0.2396262139081955,0.48761874437332153,0.15583859384059906,0.31268876791000366,-0.60742384195327759,0.039085198193788528,-0.2799193263053894,0.41775661706924438,-0.31450420618057251,-0.057432655245065689, 
  /* [0][2][][] */ -0.26371443271636963,0.0096600810065865517,-0.02288241870701313,-0.18527628481388092,0.12170974165201187,-0.25421077013015747,0.18509264290332794,0.096537835896015167,0.55826848745346069,-0.20948086678981781,-0.36545294523239136,-0.0022341134026646614,0.1860024631023407,0.15448394417762756,-0.4181729257106781,0.00037662324029952288,-0.053533464670181274,0.48459163308143616,0.051830373704433441,0.0061912406235933304,-0.18930178880691528,-0.17498475313186646,0.014879855327308178,-0.047905202955007553,-0.072102978825569153,-0.20948921144008636,0.24157300591468811,-0.56306260824203491,0.28235483169555664,0.76820427179336548,0.39628979563713074,0.2918354868888855,0.094988510012626648,-0.050440307706594467,-0.11967335641384125,-0.86263591051101685,-0.11970419436693192,0.32707321643829346,-0.042556926608085632,-0.002862429479137063,-0.15574920177459717,-0.050419282168149948,-0.85262614488601685,0.45110377669334412,0.046675581485033035,0.12743154168128967,0.059939563274383545,0.39065295457839966,-0.44394850730895996,-0.12843304872512817,0.1947963535785675,-0.1343933492898941,0.17652647197246552,-0.0159462820738554,0.065205216407775879,0.084907405078411102,-0.4400784969329834,0.40937882661819458,-0.024484986439347267,0.11498469114303589,0.17886610329151154,0.014191079884767532,-0.090192683041095734,-0.033728241920471191,-0.0016377127030864358,-0.29458782076835632,-0.44076117873191833,0.19845402240753174,-0.25136891007423401,0.068045921623706818,0.21390041708946228,0.13043195009231567,0.16031402349472046,-0.11613097041845322,0.23266047239303589,0.06157081201672554,0.10449671745300293,0.027015058323740959,-0.19534507393836975,-0.096278071403503418,-0.061070200055837631,-0.091956883668899536,0.13391590118408203,0.17847222089767456,-0.32399946451187134,0.018018295988440514,0.045562971383333206,-0.98156207799911499,-0.61838227510452271,-0.24526447057723999,-0.38773196935653687,-0.083035700023174286,0.049052733927965164,0.24541462957859039,-0.21596330404281616,-0.10033474117517471, 0.46695432066917419,0.14540164172649384,-0.59539264440536499,-0.30406272411346436,-0.70998662710189819,-0.13620999455451965,0.11357037723064423,0.11806249618530273,-0.66337257623672485,-0.21533642709255219,-0.18936622142791748,-0.48058432340621948,-0.85180908441543579,1.0356128215789795,-0.20790015161037445,0.25561627745628357,0.033254079520702362,-0.3765428364276886,-0.083585083484649658,-0.3528401255607605,0.33523637056350708,-0.122695192694664,-0.23395715653896332,-0.0084025310352444649,-0.36523151397705078,0.47033661603927612,-0.37318813800811768,0.1707531064748764,-0.12258357554674149,-0.39314410090446472,-0.14517635107040405,-0.049072809517383575,-0.35248532891273499,0.12937651574611664,0.29771572351455688,0.11389224976301193,-0.40179988741874695,-0.2552458643913269,1.2217786312103271,0.19810055196285248,0.11436541378498077,-0.14029352366924286,0.92217659950256348,-0.16528528928756714,-0.57274335622787476,0.30502304434776306,-0.32024332880973816,-0.47891274094581604,-0.93853908777236938,-0.018029900267720222,-2.2200329303741455,-0.88434183597564697,-0.41179049015045166,-0.2071448415517807,-0.015535846352577209,0.22318844497203827,-0.39670482277870178,-0.13438995182514191,0.024047529324889183,0.29286777973175049,-0.065464958548545837,-0.2092374712228775,0.033087939023971558,-0.30481693148612976,-0.2730582058429718,0.20462173223495483,0.59838330745697021,-0.25163829326629639,0.93423664569854736,0.54687964916229248,-0.18906493484973907,-0.30783981084823608,0.12893858551979065,-0.3367215096950531,0.023318525403738022,0.055823724716901779,0.60661709308624268,0.023992929607629776,0.13206309080123901,0.14661380648612976,0.12194989621639252,-0.99334508180618286,-0.37804535031318665,0.024742444977164268,0.0070203538052737713,0.022895399481058121,0.42958614230155945,0.89002704620361328,-0.65794676542282104,0.19647429883480072,-0.276155024766922,-0.18450973927974701,0.25214868783950806,0.3405439555644989,-0.10954512655735016,0.35928651690483093, -0.21255308389663696,0.052835214883089066,-0.087136439979076385,0.22253438830375671,0.14463987946510315,-0.39779528975486755,-0.33838361501693726,0.011451104655861855,-0.10716955363750458,-0.054501421749591827,-0.15755350887775421,0.026337737217545509,0.14852067828178406,-0.26440131664276123,0.28405025601387024,-0.019026940688490868,-0.070049256086349487,-0.098046079277992249,0.042898025363683701,0.051428288221359253,-0.17217773199081421,-0.16278931498527527,0.096957884728908539,-0.0044063534587621689,0.071701250970363617,-0.35707950592041016,0.14166124165058136,0.028053427115082741,-0.15394324064254761,-0.75412768125534058,-0.11782822757959366,0.18548284471035004,0.23857694864273071,-0.13636088371276855,-0.074884399771690369,-0.4726736843585968,-0.60358178615570068,0.031637310981750488,0.38985088467597961,-0.14657698571681976,0.24445921182632446,-0.008047252893447876,-0.65546953678131104,-0.14833815395832062,0.030869249254465103,0.26277804374694824,0.11260329931974411,0.16687554121017456,-0.2663707435131073,-0.0094405245035886765,0.17984773218631744,-0.05437752977013588,0.13369414210319519,0.035352833569049835,-0.041428092867136002,-0.024204205721616745,-0.38518422842025757,-0.20412474870681763,0.0035663123708218336,-0.2690473198890686,-0.12010885030031204,0.14369446039199829,0.36173710227012634,-0.072038203477859497,0.16937823593616486,-0.024264262989163399,-0.020607974380254745,0.34740236401557922,-0.00016952659643720835,0.025176037102937698,-0.023509906604886055,0.093850448727607727,-0.19192557036876678,0.086682982742786407,0.0050957035273313522,0.20197887718677521,0.22188535332679749,0.0062829959206283092,0.18649771809577942,-0.09475378692150116,0.041612669825553894,-0.091013714671134949,-0.058799214661121368,-0.19080598652362823,0.18559466302394867,-0.0078448308631777763,0.14067716896533966,-0.87613189220428467,0.6501162052154541,0.2000633031129837,-0.22767125070095062,-0.085793845355510712,-0.057714421302080154,0.0035220091231167316,-0.17157936096191406,-0.1982431560754776, 
};
const TfArray<4, int> tensor_dimension25 = { 4, { 1,3,3,96 } };
const ALIGN(16) float tensor_data26[16] = { -4.3646631240844727, 10.260098457336426, -4.3415431976318359, -1.5908071994781494, -3.3993701934814453, 1.1048712730407715, 8.2815170288085938, -16.22981071472168, -1.1479432582855225, 4.7247762680053711, 16.843498229980469, 5.1073002815246582, -4.874061107635498, 2.4240877628326416, -2.5988850593566895, 4.7081522941589355, };
const TfArray<1, int> tensor_dimension26 = { 1, { 16 } };
const ALIGN(16) float tensor_data27[4] = { 3.8499326705932617, -4.9462566375732422, -4.9470973014831543, -4.9471945762634277, };
const TfArray<1, int> tensor_dimension27 = { 1, { 4 } };
const ALIGN(16) float tensor_data28[16*3*3*3] = { 
  /* [0][0][][] */ 4.8747259224958709e-20,3.7147711957476137e-20,2.2560115283226402e-20, 1.8998144703015219e-20,9.99850122558854e-21,2.4239875557561167e-21, 1.4501873620925392e-20,1.3855346346097105e-20,8.9639567732261252e-21, 
  /* [0][1][][] */ 3.8636523968972215e-20,2.4191955223685994e-20,1.3960823183307553e-20, 2.0533141503907886e-20,1.3445754617976975e-20,2.9473941662847144e-21, 2.0706167654773519e-20,1.8024154072018234e-20,1.7330613211593671e-20, 
  /* [0][2][][] */ 3.1181633015346212e-20,1.1348582769897257e-21,-8.6793048605184484e-21, 1.1872147707964976e-20,-1.0257333632515912e-20,-2.2796315737788639e-20, 1.7555312301349726e-20,6.2228341078998947e-21,2.910896437342946e-21, 
  /* [1][0][][] */ 1.9370007514953613,-0.15770894289016724,1.1235858201980591, -0.22724565863609314,-1.0542846918106079,0.324806809425354, -4.9745035171508789,-4.8047761917114258,-3.0617268085479736, 
  /* [1][1][][] */ 0.2524304986000061,-0.090280003845691681,-0.1338479071855545, -0.8166353702545166,0.1014803871512413,-0.45382091403007507, 0.26581883430480957,-1.1902422904968262,0.010893175378441811, 
  /* [1][2][][] */ 0.1393229216337204,0.95255762338638306,-0.096418268978595734, 0.086207561194896698,0.51215922832489014,-0.24072526395320892, 1.9233317375183105,-0.5352364182472229,0.3888474702835083, 
  /* [2][0][][] */ 1.6779958009719849,-0.68166077136993408,-0.57450401782989502, 3.8715076446533203,5.5035834312438965,-0.22500748932361603, 2.4318089485168457,-2.1180477142333984,0.27495306730270386, 
  /* [2][1][][] */ 0.59363681077957153,0.2579207718372345,-0.34584003686904907, 3.6025986671447754,6.164731502532959,-1.7221924066543579, 1.2705610990524292,-0.4403071403503418,-0.48286369442939758, 
  /* [2][2][][] */ 2.3587143421173096,-3.8187792301177979,0.72166496515274048, 3.6462256908416748,-2.6172258853912354,-1.3525669574737549, 1.6897207498550415,-2.9964146614074707,0.61636233329772949, 
  /* [3][0][][] */ 0.094562381505966187,0.31958314776420593,0.052998024970293045, 0.28996196389198303,0.80053728818893433,0.17285823822021484, 0.0054938700050115585,0.032330252230167389,-0.041929677128791809, 
  /* [3][1][][] */ 0.21542224287986755,0.35005712509155273,0.076650954782962799, 0.62228792905807495,1.1493428945541382,0.24975866079330444, -0.11951418220996857,-0.17719739675521851,0.016470883041620255, 
  /* [3][2][][] */ 0.032638877630233765,0.026120832189917564,0.027411647140979767, 0.21399308741092682,0.20742255449295044,0.024787072092294693, -0.016707155853509903,-0.047871876507997513,0.0077438997104763985, 
  /* [4][0][][] */ 0.1341298520565033,0.20644509792327881,0.0026070110034197569, 0.08100612461566925,0.22836735844612122,-0.0017212035600095987, 0.0046459282748401165,0.05006861686706543,0.019997734576463699, 
  /* [4][1][][] */ 0.11509718745946884,0.21672292053699493,0.10637199133634567, 0.081401653587818146,0.28483375906944275,0.066708512604236603, 0.095974534749984741,0.14373061060905457,-0.020525136962532997, 
  /* [4][2][][] */ 0.11039221286773682,0.15089474618434906,0.045404765754938126, 0.093306124210357666,0.25042343139648438,-0.0048170690424740314, -0.056997284293174744,0.052245456725358963,0.051638394594192505, 
  /* [5][0][][] */ 0.097296126186847687,-0.2665596604347229,-5.0103445053100586, -0.39816129207611084,-0.36264842748641968,-4.3242273330688477, -0.63034510612487793,0.76936447620391846,-1.3867111206054688, 
  /* [5][1][][] */ 0.22435419261455536,-1.8237468004226685,-4.8179993629455566, -0.011708186939358711,-1.9322837591171265,-4.4583196640014648, -0.15877868235111237,0.29347065091133118,-1.1471704244613647, 
  /* [5][2][][] */ 0.123245470225811,0.57339459657669067,-0.45409697294235229, 0.2909369170665741,0.1086343452334404,-0.22907969355583191, 0.18836262822151184,0.64945864677429199,-0.39184316992759705, 
  /* [6][0][][] */ 0.89666897058486938,-2.1615896224975586,1.10691237449646, 1.6816095113754272,-2.9755098819732666,1.3034322261810303, 0.33564314246177673,-0.68938231468200684,0.27195069193840027, 
  /* [6][1][][] */ 1.3572945594787598,-3.21738600730896,2.0917732715606689, 2.2976336479187012,-4.2834553718566895,2.427656888961792, 0.28922536969184875,-0.95030820369720459,0.55888110399246216, 
  /* [6][2][][] */ 0.81828427314758301,-1.1095503568649292,0.43625453114509583, 0.64101630449295044,-1.4375115633010864,0.8477863073348999, -0.38508152961730957,0.25960457324981689,-0.058820072561502457, 
  /* [7][0][][] */ -1.8941823244094849,0.84885376691818237,0.1783091276884079, -6.0807905197143555,-2.2795896530151367,-0.0047334181144833565, -1.2218471765518188,1.4560019969940186,0.17376704514026642, 
  /* [7][1][][] */ -0.84282100200653076,-0.54755520820617676,0.031442347913980484, -7.4099774360656738,-5.5198397636413574,-0.48376983404159546, -0.30751320719718933,-0.26324072480201721,0.32019412517547607, 
  /* [7][2][][] */ -1.3215962648391724,1.7493727207183838,-0.4876587986946106, -0.84964656829833984,0.50406062602996826,-0.10484129190444946, -1.307654857635498,1.3860416412353516,-0.19697083532810211, 
  /* [8][0][][] */ 0.116569884121418,0.11988862603902817,0.10957741737365723, 0.11565603315830231,0.1195395290851593,0.10848633199930191, 0.11579401046037674,0.11834745109081268,0.10778748989105225, 
  /* [8][1][][] */ 0.11657099425792694,0.11834384500980377,0.10840311646461487, 0.1143517792224884,0.11694344133138657,0.10674761980772018, 0.11530584096908569,0.11703629046678543,0.10643410682678223, 
  /* [8][2][][] */ 0.11479734629392624,0.11677554249763489,0.10787075757980347, 0.11427702009677887,0.11734958738088608,0.10708106309175491, 0.11485718935728073,0.11665746569633484,0.10659132897853851, 
  /* [9][0][][] */ -0.30605652928352356,-0.073394447565078735,0.11196207255125046, -0.19952879846096039,-0.10654886066913605,-0.009610581211745739, 0.021699881181120872,0.027244454249739647,-0.14078646898269653, 
  /* [9][1][][] */ 1.1858994960784912,1.4296283721923828,-0.10609928518533707, 0.89487487077713013,1.6002196073532104,0.21186977624893188, -0.11087125539779663,0.24438516795635223,0.33192959427833557, 
  /* [9][2][][] */ -0.40799200534820557,-0.37096726894378662,0.13020828366279602, -0.057158730924129486,-0.47686439752578735,-0.095679350197315216, 0.096396304666996002,0.01869095116853714,-0.29981061816215515, 
  /* [10][0][][] */ -0.54415440559387207,-1.846441388130188,-0.40211102366447449, 0.75433307886123657,2.0982019901275635,0.44534099102020264, -0.19610120356082916,-0.2912713885307312,-0.056221604347229004, 
  /* [10][1][][] */ -1.3040378093719482,-2.2849600315093994,-0.30111739039421082, 1.7514677047729492,2.8219180107116699,0.32526093721389771, -0.37909948825836182,-0.5918089747428894,-0.013438482768833637, 
  /* [10][2][][] */ -0.69364422559738159,-0.4292137622833252,0.047172565013170242, 0.80937677621841431,0.50976347923278809,-0.24122104048728943, -0.18761655688285828,-0.020042082294821739,0.15780779719352722, 
  /* [11][0][][] */ -0.023620210587978363,-0.037699226289987564,-0.0038154877256602049, 0.0052009676583111286,-0.059196107089519501,0.0034016403369605541, 0.0021726451814174652,-0.13654544949531555,-0.074771903455257416, 
  /* [11][1][][] */ -0.066586792469024658,-0.06120884045958519,-0.029770947992801666, -0.05202634260058403,-0.086736820638179779,-0.052024256438016891, -0.028795920312404633,-0.085100442171096802,-0.076977469027042389, 
  /* [11][2][][] */ -0.025670081377029419,-0.065975815057754517,-0.1159512847661972, 0.13335360586643219,0.14535850286483765,0.065261252224445343, -0.065213792026042938,0.0013164276024326682,-0.075622886419296265, 
  /* [12][0][][] */ -4.1760652664440021e-20,-2.2020060047283041e-20,2.0486425186344246e-20, -3.4100860025796683e-20,-3.0316880308407377e-20,4.7328015203241615e-21, -1.0191137373085362e-20,-2.9338067149815722e-20,9.6326757529255618e-21, 
  /* [12][1][][] */ -2.2377321292549254e-20,-1.1137344752140795e-20,3.4168016751778332e-20, -1.2131639274442976e-20,-2.0993629073507035e-20,2.5905320922096076e-20, -4.2247672213745522e-21,-3.2822045261138238e-20,-1.3655811641538561e-20, 
  /* [12][2][][] */ -1.6506967705637993e-21,-8.1535572642328403e-21,3.8140793981634332e-20, -2.6905146406951138e-20,-2.2071049592815826e-20,1.8881210121851205e-20, -1.7634703868696344e-20,-5.1463665426620299e-20,-3.0031254196657963e-20, 
